<?xml version="1.0"?>
<MethodSetup Method="BDT::BDTG">
	<GeneralInfo>
		<Info name="TMVA Release" value="4.2.0 [262656]"/>
		<Info name="ROOT Release" value="5.32/00 [335872]"/>
		<Info name="Creator" value="smoortga"/>
		<Info name="Date" value="Sun May 31 01:31:49 2015"/>
		<Info name="Host" value="Linux cmsdev02.cern.ch 2.6.32-431.11.2.el6.x86_64 #1 SMP Wed Mar 26 09:39:43 CET 2014 x86_64 x86_64 x86_64 GNU/Linux"/>
		<Info name="Dir" value="/user_mnt/user/smoortga/CTag/TMVActag_v1/CTaggingCvsB/CMSSW_7_5_1_Retraining"/>
    	<Info name="Training events" value="1692351"/>
    	<Info name="TrainingTime" value="7.82964582e+03"/>
    	<Info name="AnalysisType" value="Classification"/>
    </GeneralInfo>
    <Options>
    	<Option name="V" modified="Yes">False</Option>
    	<Option name="VerbosityLevel" modified="Yes">Fatal</Option>
    	<Option name="VarTransform" modified="No">None</Option>
    	<Option name="H" modified="Yes">False</Option>
    	<Option name="CreateMVAPdfs" modified="No">False</Option>
    	<Option name="IgnoreNegWeightsInTraining" modified="No">False</Option>
    	<Option name="NTrees" modified="Yes">200</Option>
    	<Option name="MaxDepth" modified="Yes">5</Option>
    	<Option name="MinNodeSize" modified="No">5%</Option>
    	<Option name="nCuts" modified="Yes">50</Option>
    	<Option name="BoostType" modified="Yes">Grad</Option>
    	<Option name="AdaBoostR2Loss" modified="No">quadratic</Option>
    	<Option name="UseBaggedBoost" modified="Yes">False</Option>
    	<Option name="Shrinkage" modified="Yes">0.1</Option>
    	<Option name="AdaBoostBeta" modified="No">5.000000e-01</Option>
    	<Option name="UseRandomisedTrees" modified="No">False</Option>
    	<Option name="UseNvars" modified="Yes">auto</Option>
    	<Option name="UsePoissonNvars" modified="No">True</Option>
    	<Option name="BaggedSampleFraction" modified="No">6.000000e-01</Option>
    	<Option name="UseYesNoLeaf" modified="No">False</Option>
    	<Option name="NegWeightTreatment" modified="No">ignorenegweightsintraining</Option>
    	<Option name="Css" modified="No">1.000000e+00</Option>
    	<Option name="Cts_sb" modified="No">1.000000e+00</Option>
    	<Option name="Ctb_ss" modified="No">1.000000e+00</Option>
    	<Option name="Cbb" modified="No">1.000000e+00</Option>
    	<Option name="NodePurityLimit" modified="No">5.000000e-01</Option>
    	<Option name="SeparationType" modified="No">giniindex</Option>
    	<Option name="DoBoostMonitor" modified="Yes">False</Option>
    	<Option name="UseFisherCuts" modified="No">False</Option>
    	<Option name="MinLinCorrForFisher" modified="No">8.000000e-01</Option>
    	<Option name="UseExclusiveVars" modified="No">False</Option>
    	<Option name="DoPreselection" modified="No">False</Option>
    	<Option name="SigToBkgFraction" modified="No">1.000000e+00</Option>
    	<Option name="PruneMethod" modified="No">nopruning</Option>
    	<Option name="PruneStrength" modified="No">0.000000e+00</Option>
    	<Option name="PruningValFraction" modified="No">5.000000e-01</Option>
    	<Option name="nEventsMin" modified="No">0</Option>
    	<Option name="UseBaggedGrad" modified="No">False</Option>
    	<Option name="GradBaggingFraction" modified="No">6.000000e-01</Option>
    	<Option name="UseNTrainEvents" modified="No">0</Option>
    	<Option name="NNodesMax" modified="No">0</Option>
    </Options>
    <Variables NVar="3">
		<Variable VarIndex="0" Expression="dijet_mva" Label="dijet_mva" Title="dijet_mva" Unit="" Internal="dijet_mva" Type="F" Min="-9.6180242300033569E-01" Max="8.9222776889801025E-01"/>
		<Variable VarIndex="1" Expression="dipho_mva" Label="dipho_mva" Title="dipho_mva" Unit="" Internal="dipho_mva" Type="F" Min="-9.9500060081481934E-01" Max="9.6376729011535645E-01"/>
		<Variable VarIndex="2" Expression="dipho_PToM" Label="dipho_PToM" Title="dipho_PToM" Unit="" Internal="dipho_PToM" Type="F" Min="1.7987567698583007E-03" Max="1.2550054550170898E+01"/>
	</Variables>
	<Spectators NSpec="0"/>
    <Classes NClass="2">
    	<Class Name="Signal" Index="0"/>
    	<Class Name="Background" Index="1"/>
    </Classes>
    <Transformations NTransformations="0"/>
    <MVAPdfs/>
    <Weights NTrees="200" AnalysisType="1">
		<BinaryTree type="DecisionTree" boostWeight="1.0" itree="0">
			<Node pos="s" depth="0" NCoef="0" IVar="0" Cut="-9.3051195144653320E-02" cType="1" res="-2.6940556657709995E-05" rms="0.0" purity="0.209786593571" nType="0">
				<Node pos="l" depth="1" NCoef="0" IVar="0" Cut="-4.0976300835609436E-01" cType="1" res="-1.3294114866256061E-02" rms="0.0" purity="0.138974728219" nType="0">
					<Node pos="l" depth="2" NCoef="0" IVar="0" Cut="-5.6751143932342529E-01" cType="1" res="-1.9890241651374936E-02" rms="0.0" purity="0.0906666502902" nType="0">
						<Node pos="l" depth="3" NCoef="0" IVar="1" Cut="-7.0640826225280762E-01" cType="1" res="-2.3642804370324864E-02" rms="0.0" purity="0.0593005823005" nType="0">
							<Node pos="l" depth="4" NCoef="0" IVar="1" Cut="-8.9716750383377075E-01" cType="1" res="-2.7870176025107371E-02" rms="0.0" purity="0.0205923745022" nType="0">
								<Node pos="l" depth="5" NCoef="0" IVar="-1" Cut="0.0000000000000000E+00" cType="1" res="-1.3726557221246166E-01" rms="0.0e-00" purity="0.0114885077818" nType="-99"/>
								<Node pos="r" depth="5" NCoef="0" IVar="-1" Cut="0.0000000000000000E+00" cType="1" res="-1.2813422131239813E-01" rms="0.0e-00" purity="0.0298418125872" nType="-99"/>
			 	 	 	 	</Node>
							<Node pos="r" depth="4" NCoef="0" IVar="0" Cut="-6.9540351629257202E-01" cType="1" res="-2.2649374363661250E-02" rms="0.0" purity="0.0678783396751" nType="0">
								<Node pos="l" depth="5" NCoef="0" IVar="-1" Cut="0.0000000000000000E+00" cType="1" res="-1.2204287682320103E-01" rms="0.0e-00" purity="0.0416764268764" nType="-99"/>
								<Node pos="r" depth="5" NCoef="0" IVar="-1" Cut="0.0000000000000000E+00" cType="1" res="-9.9026253303420728E-02" rms="0.0e-00" purity="0.0834428571772" nType="-99"/>
			 	 	 	 	</Node>
			 	 	 	</Node>
						<Node pos="r" depth="3" NCoef="0" IVar="1" Cut="-5.2270376682281494E-01" cType="1" res="-1.5233012813228992E-02" rms="0.0" purity="0.125677803357" nType="0">
							<Node pos="l" depth="4" NCoef="0" IVar="1" Cut="-8.0466198921203613E-01" cType="1" res="-2.4450135935062883E-02" rms="0.0" purity="0.0521843081308" nType="0">
								<Node pos="l" depth="5" NCoef="0" IVar="-1" Cut="0.0000000000000000E+00" cType="1" res="-1.2807757845247789E-01" rms="0.0e-00" purity="0.0299533675173" nType="-99"/>
								<Node pos="r" depth="5" NCoef="0" IVar="-1" Cut="0.0000000000000000E+00" cType="1" res="-1.0175984665051958E-01" rms="0.0e-00" purity="0.0787266928817" nType="-99"/>
			 	 	 	 	</Node>
							<Node pos="r" depth="4" NCoef="0" IVar="0" Cut="-4.7483485937118530E-01" cType="1" res="-1.3038375331753812E-02" rms="0.0" purity="0.140672459476" nType="0">
								<Node pos="l" depth="5" NCoef="0" IVar="-1" Cut="0.0000000000000000E+00" cType="1" res="-7.2451952396197991E-02" rms="0.0e-00" purity="0.125859262099" nType="-99"/>
								<Node pos="r" depth="5" NCoef="0" IVar="-1" Cut="0.0000000000000000E+00" cType="1" res="-4.5592987117888388E-02" rms="0.0e-00" purity="0.162407320172" nType="-99"/>
			 	 	 	 	</Node>
			 	 	 	</Node>
			 	 	</Node>
					<Node pos="r" depth="2" NCoef="0" IVar="1" Cut="-5.3669357299804688E-01" cType="1" res="1.0481358066166456E-03" rms="0.0" purity="0.213982776256" nType="0">
						<Node pos="l" depth="3" NCoef="0" IVar="1" Cut="-7.8766667842864990E-01" cType="1" res="-1.8893509125350660E-02" rms="0.0" purity="0.0985245337856" nType="0">
							<Node pos="l" depth="4" NCoef="0" IVar="1" Cut="-8.2673633098602295E-01" cType="1" res="-2.3556702893589316E-02" rms="0.0" purity="0.0600518365189" nType="0">
								<Node pos="l" depth="5" NCoef="0" IVar="-1" Cut="0.0000000000000000E+00" cType="1" res="-1.1568952438781638E-01" rms="0.0e-00" purity="0.0536717562298" nType="-99"/>
								<Node pos="r" depth="5" NCoef="0" IVar="-1" Cut="0.0000000000000000E+00" cType="1" res="-9.1480699901715978E-02" rms="0.0e-00" purity="0.0961192081433" nType="-99"/>
			 	 	 	 	</Node>
							<Node pos="r" depth="4" NCoef="0" IVar="0" Cut="-3.1633475422859192E-01" cType="1" res="-1.2849083330164331E-02" rms="0.0" purity="0.141920653562" nType="0">
								<Node pos="l" depth="5" NCoef="0" IVar="-1" Cut="0.0000000000000000E+00" cType="1" res="-8.1661600690153616E-02" rms="0.0e-00" purity="0.111863888889" nType="-99"/>
								<Node pos="r" depth="5" NCoef="0" IVar="-1" Cut="0.0000000000000000E+00" cType="1" res="-4.4378336136323408E-02" rms="0.0e-00" purity="0.163909915401" nType="-99"/>
			 	 	 	 	</Node>
			 	 	 	</Node>
						<Node pos="r" depth="3" NCoef="0" IVar="0" Cut="-3.0397289991378784E-01" cType="1" res="4.0614104185122167E-03" rms="0.0" purity="0.224512102091" nType="0">
							<Node pos="l" depth="4" NCoef="0" IVar="1" Cut="7.3701715469360352E-01" cType="1" res="-2.5933030752141365E-03" rms="0.0" purity="0.198835174354" nType="0">
								<Node pos="l" depth="5" NCoef="0" IVar="-1" Cut="0.0000000000000000E+00" cType="1" res="-1.7803670641269035E-02" rms="0.0e-00" purity="0.193530871562" nType="-99"/>
								<Node pos="r" depth="5" NCoef="0" IVar="-1" Cut="0.0000000000000000E+00" cType="1" res="2.2937086928800209E-02" rms="0.0e-00" purity="0.226859596644" nType="-99"/>
			 	 	 	 	</Node>
							<Node pos="r" depth="4" NCoef="0" IVar="1" Cut="1.0296024382114410E-01" cType="1" res="9.4098558268498125E-03" rms="0.0" purity="0.238729026211" nType="0">
								<Node pos="l" depth="5" NCoef="0" IVar="-1" Cut="0.0000000000000000E+00" cType="1" res="6.5127497244904381E-03" rms="0.0e-00" purity="0.215182868464" nType="-99"/>
								<Node pos="r" depth="5" NCoef="0" IVar="-1" Cut="0.0000000000000000E+00" cType="1" res="5.6143123386186392E-02" rms="0.0e-00" purity="0.243206608441" nType="-99"/>
			 	 	 	 	</Node>
			 	 	 	</Node>
			 	 	</Node>
			 	</Node>
				<Node pos="r" depth="1" NCoef="0" IVar="0" Cut="3.7328654527664185E-01" cType="1" res="3.7362207589409537E-02" rms="0.0" purity="0.219946769767" nType="0">
					<Node pos="l" depth="2" NCoef="0" IVar="1" Cut="-5.9054267406463623E-01" cType="1" res="2.3888454232277173E-02" rms="0.0" purity="0.248508407427" nType="0">
						<Node pos="l" depth="3" NCoef="0" IVar="1" Cut="-8.0086815357208252E-01" cType="1" res="-8.6635438340688948E-03" rms="0.0" purity="0.167689056101" nType="0">
							<Node pos="l" depth="4" NCoef="0" IVar="1" Cut="-8.7518835067749023E-01" cType="1" res="-1.5778744666067095E-02" rms="0.0" purity="0.121799590635" nType="0">
								<Node pos="l" depth="5" NCoef="0" IVar="-1" Cut="0.0000000000000000E+00" cType="1" res="-9.0475881747313802E-02" rms="0.0e-00" purity="0.0977694280562" nType="-99"/>
								<Node pos="r" depth="5" NCoef="0" IVar="-1" Cut="0.0000000000000000E+00" cType="1" res="-4.3374607975075342E-02" rms="0.0e-00" purity="0.165141776938" nType="-99"/>
			 	 	 	 	</Node>
							<Node pos="r" depth="4" NCoef="0" IVar="0" Cut="1.1786091327667236E-01" cType="1" res="1.4520428909405969E-03" rms="0.0" purity="0.215499548394" nType="0">
								<Node pos="l" depth="5" NCoef="0" IVar="-1" Cut="0.0000000000000000E+00" cType="1" res="-1.9349005338021093E-02" rms="0.0e-00" purity="0.191978794821" nType="-99"/>
								<Node pos="r" depth="5" NCoef="0" IVar="-1" Cut="0.0000000000000000E+00" cType="1" res="3.9048094122090565E-02" rms="0.0e-00" purity="0.236004264987" nType="-99"/>
			 	 	 	 	</Node>
			 	 	 	</Node>
						<Node pos="r" depth="3" NCoef="0" IVar="0" Cut="1.0878986120223999E-01" cType="1" res="2.7021551572101697E-02" rms="0.0" purity="0.245106701618" nType="0">
							<Node pos="l" depth="4" NCoef="0" IVar="2" Cut="6.9500422477722168E-01" cType="1" res="2.0963664080015113E-02" rms="0.0" purity="0.249912142372" nType="0">
								<Node pos="l" depth="5" NCoef="0" IVar="-1" Cut="0.0000000000000000E+00" cType="1" res="8.3228264996335261E-02" rms="0.0e-00" purity="0.249346083474" nType="-99"/>
								<Node pos="r" depth="5" NCoef="0" IVar="-1" Cut="0.0000000000000000E+00" cType="1" res="1.1696844979810669E-01" rms="0.0e-00" purity="0.247952706792" nType="-99"/>
			 	 	 	 	</Node>
							<Node pos="r" depth="4" NCoef="0" IVar="1" Cut="1.2391272932291031E-02" cType="1" res="3.2982558906383047E-02" rms="0.0" purity="0.233213639372" nType="0">
								<Node pos="l" depth="5" NCoef="0" IVar="-1" Cut="0.0000000000000000E+00" cType="1" res="1.1935142326756254E-01" rms="0.0e-00" purity="0.247475062498" nType="-99"/>
								<Node pos="r" depth="5" NCoef="0" IVar="-1" Cut="0.0000000000000000E+00" cType="1" res="1.6428985013508957E-01" rms="0.0e-00" purity="0.229098915364" nType="-99"/>
			 	 	 	 	</Node>
			 	 	 	</Node>
			 	 	</Node>
					<Node pos="r" depth="2" NCoef="0" IVar="0" Cut="6.1966967582702637E-01" cType="1" res="5.2240255429975596E-02" rms="0.0" purity="0.146226365779" nType="0">
						<Node pos="l" depth="3" NCoef="0" IVar="1" Cut="-6.4705544710159302E-01" cType="1" res="4.4924250240625824E-02" rms="0.0" purity="0.188009406962" nType="0">
							<Node pos="l" depth="4" NCoef="0" IVar="-1" Cut="0.0000000000000000E+00" cType="1" res="4.9815617262939607E-02" rms="0.0e-00" purity="0.240840911865" nType="-99"/>
							<Node pos="r" depth="4" NCoef="0" IVar="2" Cut="6.1708307266235352E-01" cType="1" res="4.6397718555095675E-02" rms="0.0" purity="0.180455039731" nType="0">
								<Node pos="l" depth="5" NCoef="0" IVar="-1" Cut="0.0000000000000000E+00" cType="1" res="2.0038846588373890E-01" rms="0.0e-00" purity="0.20144979586" nType="-99"/>
								<Node pos="r" depth="5" NCoef="0" IVar="-1" Cut="0.0000000000000000E+00" cType="1" res="2.3136382040270922E-01" rms="0.0e-00" purity="0.168571556122" nType="-99"/>
			 	 	 	 	</Node>
			 	 	 	</Node>
						<Node pos="r" depth="3" NCoef="0" IVar="0" Cut="7.0379561185836792E-01" cType="1" res="5.9614717803652836E-02" rms="0.0" purity="0.0932760349184" nType="0">
							<Node pos="l" depth="4" NCoef="0" IVar="1" Cut="-1.1299161612987518E-01" cType="1" res="5.5369568280063917E-02" rms="0.0" purity="0.125085622038" nType="0">
								<Node pos="l" depth="5" NCoef="0" IVar="-1" Cut="0.0000000000000000E+00" cType="1" res="2.2386059975722994E-01" rms="0.0e-00" purity="0.177311610919" nType="-99"/>
								<Node pos="r" depth="5" NCoef="0" IVar="-1" Cut="0.0000000000000000E+00" cType="1" res="2.6746440710595570E-01" rms="0.0e-00" purity="0.119585219011" nType="-99"/>
			 	 	 	 	</Node>
							<Node pos="r" depth="4" NCoef="0" IVar="0" Cut="7.6563191413879395E-01" cType="1" res="6.2346276410763790E-02" rms="0.0" purity="0.0709022988937" nType="0">
								<Node pos="l" depth="5" NCoef="0" IVar="-1" Cut="0.0000000000000000E+00" cType="1" res="2.8671909019735581E-01" rms="0.0e-00" purity="0.0887620935884" nType="-99"/>
								<Node pos="r" depth="5" NCoef="0" IVar="-1" Cut="0.0000000000000000E+00" cType="1" res="3.0659651469910071E-01" rms="0.0e-00" purity="0.0535152210727" nType="-99"/>
			 	 	 	 	</Node>
			 	 	 	</Node>
			 	 	</Node>
			 	</Node>
			</Node>
		</BinaryTree>
		<BinaryTree type="DecisionTree" boostWeight="1.0" itree="1">
			<Node pos="s" depth="0" NCoef="0" IVar="0" Cut="-1.5449965000152588E-01" cType="1" res="-1.1897458288185081E-04" rms="0.0" purity="0.196240462376" nType="0">
				<Node pos="l" depth="1" NCoef="0" IVar="0" Cut="-4.4818145036697388E-01" cType="1" res="-1.3034719363182181E-02" rms="0.0" purity="0.128983247984" nType="0">
					<Node pos="l" depth="2" NCoef="0" IVar="0" Cut="-5.7212167978286743E-01" cType="1" res="-1.8876330221940341E-02" rms="0.0" purity="0.0819718306308" nType="0">
						<Node pos="l" depth="3" NCoef="0" IVar="1" Cut="-5.1139271259307861E-01" cType="1" res="-2.1545704414669374E-02" rms="0.0" purity="0.0572812639424" nType="0">
							<Node pos="l" depth="4" NCoef="0" IVar="1" Cut="-7.9181420803070068E-01" cType="1" res="-2.4397145811109931E-02" rms="0.0" purity="0.0289958777025" nType="0">
								<Node pos="l" depth="5" NCoef="0" IVar="-1" Cut="0.0000000000000000E+00" cType="1" res="-1.2859693625399063E-01" rms="0.0e-00" purity="0.0172193969863" nType="-99"/>
								<Node pos="r" depth="5" NCoef="0" IVar="-1" Cut="0.0000000000000000E+00" cType="1" res="-1.1426248910372173E-01" rms="0.0e-00" purity="0.0454123952182" nType="-99"/>
			 	 	 	 	</Node>
							<Node pos="r" depth="4" NCoef="0" IVar="0" Cut="-6.7137080430984497E-01" cType="1" res="-2.0548376558226375E-02" rms="0.0" purity="0.0667905886712" nType="0">
								<Node pos="l" depth="5" NCoef="0" IVar="-1" Cut="0.0000000000000000E+00" cType="1" res="-1.1329979215579425E-01" rms="0.0e-00" purity="0.0469750968281" nType="-99"/>
								<Node pos="r" depth="5" NCoef="0" IVar="-1" Cut="0.0000000000000000E+00" cType="1" res="-9.2127864372850643E-02" rms="0.0e-00" purity="0.0850804910524" nType="-99"/>
			 	 	 	 	</Node>
			 	 	 	</Node>
						<Node pos="r" depth="3" NCoef="0" IVar="1" Cut="-4.7933238744735718E-01" cType="1" res="-1.4895125535946744E-02" rms="0.0" purity="0.116148535306" nType="0">
							<Node pos="l" depth="4" NCoef="0" IVar="1" Cut="-8.2776498794555664E-01" cType="1" res="-2.2335552103408627E-02" rms="0.0" purity="0.050082885477" nType="0">
								<Node pos="l" depth="5" NCoef="0" IVar="-1" Cut="0.0000000000000000E+00" cType="1" res="-1.2405433438654216E-01" rms="0.0e-00" purity="0.0262825880651" nType="-99"/>
								<Node pos="r" depth="5" NCoef="0" IVar="-1" Cut="0.0000000000000000E+00" cType="1" res="-1.0028092183968346E-01" rms="0.0e-00" purity="0.0713265907873" nType="-99"/>
			 	 	 	 	</Node>
							<Node pos="r" depth="4" NCoef="0" IVar="0" Cut="-4.8919522762298584E-01" cType="1" res="-1.2848321556823195E-02" rms="0.0" purity="0.132380836049" nType="0">
								<Node pos="l" depth="5" NCoef="0" IVar="-1" Cut="0.0000000000000000E+00" cType="1" res="-6.9897941796338930E-02" rms="0.0e-00" purity="0.12196355026" nType="-99"/>
								<Node pos="r" depth="5" NCoef="0" IVar="-1" Cut="0.0000000000000000E+00" cType="1" res="-4.8024863697675349E-02" rms="0.0e-00" purity="0.153705161617" nType="-99"/>
			 	 	 	 	</Node>
			 	 	 	</Node>
			 	 	</Node>
					<Node pos="r" depth="2" NCoef="0" IVar="1" Cut="-3.7310481071472168E-01" cType="1" res="-2.4621930060752424E-03" rms="0.0" purity="0.196713671548" nType="0">
						<Node pos="l" depth="3" NCoef="0" IVar="1" Cut="-7.9776829481124878E-01" cType="1" res="-1.6130488673059936E-02" rms="0.0" purity="0.106327213681" nType="0">
							<Node pos="l" depth="4" NCoef="0" IVar="1" Cut="-9.1120600700378418E-01" cType="1" res="-2.2435180414528060E-02" rms="0.0" purity="0.0488593865632" nType="0">
								<Node pos="l" depth="5" NCoef="0" IVar="-1" Cut="0.0000000000000000E+00" cType="1" res="-1.2352232680706801E-01" rms="0.0e-00" purity="0.0280797644156" nType="-99"/>
								<Node pos="r" depth="5" NCoef="0" IVar="-1" Cut="0.0000000000000000E+00" cType="1" res="-1.0176399221498439E-01" rms="0.0e-00" purity="0.0674952391586" nType="-99"/>
			 	 	 	 	</Node>
							<Node pos="r" depth="4" NCoef="0" IVar="0" Cut="-3.2767480611801147E-01" cType="1" res="-1.1510713581102843E-02" rms="0.0" purity="0.143390017396" nType="0">
								<Node pos="l" depth="5" NCoef="0" IVar="-1" Cut="0.0000000000000000E+00" cType="1" res="-6.9602882585971929E-02" rms="0.0e-00" purity="0.122978776029" nType="-99"/>
								<Node pos="r" depth="5" NCoef="0" IVar="-1" Cut="0.0000000000000000E+00" cType="1" res="-3.7784770460478082E-02" rms="0.0e-00" purity="0.168795000141" nType="-99"/>
			 	 	 	 	</Node>
			 	 	 	</Node>
						<Node pos="r" depth="3" NCoef="0" IVar="0" Cut="-3.3877378702163696E-01" cType="1" res="4.8542473532652242E-04" rms="0.0" purity="0.211308104265" nType="0">
							<Node pos="l" depth="4" NCoef="0" IVar="1" Cut="1.9176450371742249E-01" cType="1" res="-4.6827004024663395E-03" rms="0.0" purity="0.186128168878" nType="0">
								<Node pos="l" depth="5" NCoef="0" IVar="-1" Cut="0.0000000000000000E+00" cType="1" res="-3.9708369471737115E-02" rms="0.0e-00" purity="0.166603359503" nType="-99"/>
								<Node pos="r" depth="5" NCoef="0" IVar="-1" Cut="0.0000000000000000E+00" cType="1" res="-1.4580933989431485E-02" rms="0.0e-00" purity="0.194342454476" nType="-99"/>
			 	 	 	 	</Node>
							<Node pos="r" depth="4" NCoef="0" IVar="1" Cut="7.8399997949600220E-01" cType="1" res="5.1665511816704080E-03" rms="0.0" purity="0.229504744636" nType="0">
								<Node pos="l" depth="5" NCoef="0" IVar="-1" Cut="0.0000000000000000E+00" cType="1" res="1.7571324793077492E-02" rms="0.0e-00" purity="0.225160221027" nType="-99"/>
								<Node pos="r" depth="5" NCoef="0" IVar="-1" Cut="0.0000000000000000E+00" cType="1" res="6.9401291799781800E-02" rms="0.0e-00" purity="0.24805396735" nType="-99"/>
			 	 	 	 	</Node>
			 	 	 	</Node>
			 	 	</Node>
			 	</Node>
				<Node pos="r" depth="1" NCoef="0" IVar="0" Cut="3.4240281581878662E-01" cType="1" res="3.1274276524738791E-02" rms="0.0" purity="0.220616763631" nType="0">
					<Node pos="l" depth="2" NCoef="0" IVar="1" Cut="-4.9767470359802246E-01" cType="1" res="1.8934384674872851E-02" rms="0.0" purity="0.246668977511" nType="0">
						<Node pos="l" depth="3" NCoef="0" IVar="1" Cut="-8.7362825870513916E-01" cType="1" res="-6.7580208534003591E-03" rms="0.0" purity="0.172237742009" nType="0">
							<Node pos="l" depth="4" NCoef="0" IVar="1" Cut="-9.4530469179153442E-01" cType="1" res="-1.7535778065579110E-02" rms="0.0" purity="0.0937311414639" nType="0">
								<Node pos="l" depth="5" NCoef="0" IVar="-1" Cut="0.0000000000000000E+00" cType="1" res="-1.0834376755483195E-01" rms="0.0e-00" purity="0.0577771131751" nType="-99"/>
								<Node pos="r" depth="5" NCoef="0" IVar="-1" Cut="0.0000000000000000E+00" cType="1" res="-7.5540907592594991E-02" rms="0.0e-00" purity="0.111441691988" nType="-99"/>
			 	 	 	 	</Node>
							<Node pos="r" depth="4" NCoef="0" IVar="1" Cut="-6.9548296928405762E-01" cType="1" res="-1.3130567804667582E-03" rms="0.0" purity="0.20306636274" nType="0">
								<Node pos="l" depth="5" NCoef="0" IVar="-1" Cut="0.0000000000000000E+00" cType="1" res="-3.1072383417996428E-02" rms="0.0e-00" purity="0.176013348329" nType="-99"/>
								<Node pos="r" depth="5" NCoef="0" IVar="-1" Cut="0.0000000000000000E+00" cType="1" res="1.7701008394357461E-02" rms="0.0e-00" purity="0.224616743162" nType="-99"/>
			 	 	 	 	</Node>
			 	 	 	</Node>
						<Node pos="r" depth="3" NCoef="0" IVar="0" Cut="8.0340325832366943E-02" cType="1" res="2.2095279992229315E-02" rms="0.0" purity="0.246705906314" nType="0">
							<Node pos="l" depth="4" NCoef="0" IVar="2" Cut="1.0631585121154785E+00" cType="1" res="1.6985637725249778E-02" rms="0.0" purity="0.249376165912" nType="0">
								<Node pos="l" depth="5" NCoef="0" IVar="-1" Cut="0.0000000000000000E+00" cType="1" res="6.8914259278652232E-02" rms="0.0e-00" purity="0.248401082152" nType="-99"/>
								<Node pos="r" depth="5" NCoef="0" IVar="-1" Cut="0.0000000000000000E+00" cType="1" res="1.0530098634626069E-01" rms="0.0e-00" purity="0.247402273412" nType="-99"/>
			 	 	 	 	</Node>
							<Node pos="r" depth="4" NCoef="0" IVar="0" Cut="2.1174025535583496E-01" cType="1" res="2.8548831539175305E-02" rms="0.0" purity="0.23587096337" nType="0">
								<Node pos="l" depth="5" NCoef="0" IVar="-1" Cut="0.0000000000000000E+00" cType="1" res="1.1664806283762011E-01" rms="0.0e-00" purity="0.241832733499" nType="-99"/>
								<Node pos="r" depth="5" NCoef="0" IVar="-1" Cut="0.0000000000000000E+00" cType="1" res="1.4143925448551270E-01" rms="0.0e-00" purity="0.227886356127" nType="-99"/>
			 	 	 	 	</Node>
			 	 	 	</Node>
			 	 	</Node>
					<Node pos="r" depth="2" NCoef="0" IVar="0" Cut="5.9683442115783691E-01" cType="1" res="4.5983171350786209E-02" rms="0.0" purity="0.149777289865" nType="0">
						<Node pos="l" depth="3" NCoef="0" IVar="1" Cut="-7.5476157665252686E-01" cType="1" res="3.8848568984399076E-02" rms="0.0" purity="0.194042068455" nType="0">
							<Node pos="l" depth="4" NCoef="0" IVar="-1" Cut="0.0000000000000000E+00" cType="1" res="-2.0645202525098078E-02" rms="0.0e-00" purity="0.193241567703" nType="-99"/>
							<Node pos="r" depth="4" NCoef="0" IVar="0" Cut="4.6703869104385376E-01" cType="1" res="4.0323489987328182E-02" rms="0.0" purity="0.187475317596" nType="0">
								<Node pos="l" depth="5" NCoef="0" IVar="-1" Cut="0.0000000000000000E+00" cType="1" res="1.6473071942776046E-01" rms="0.0e-00" purity="0.202993367849" nType="-99"/>
								<Node pos="r" depth="5" NCoef="0" IVar="-1" Cut="0.0000000000000000E+00" cType="1" res="1.9060037975471567E-01" rms="0.0e-00" purity="0.171466557862" nType="-99"/>
			 	 	 	 	</Node>
			 	 	 	</Node>
						<Node pos="r" depth="3" NCoef="0" IVar="0" Cut="6.9041484594345093E-01" cType="1" res="5.2631901021658656E-02" rms="0.0" purity="0.0993628167561" nType="0">
							<Node pos="l" depth="4" NCoef="0" IVar="1" Cut="-1.7513099312782288E-01" cType="1" res="4.8480564970049676E-02" rms="0.0" purity="0.133862465777" nType="0">
								<Node pos="l" depth="5" NCoef="0" IVar="-1" Cut="0.0000000000000000E+00" cType="1" res="1.6922343426873238E-01" rms="0.0e-00" purity="0.197406792516" nType="-99"/>
								<Node pos="r" depth="5" NCoef="0" IVar="-1" Cut="0.0000000000000000E+00" cType="1" res="2.1498337901683987E-01" rms="0.0e-00" purity="0.127867762892" nType="-99"/>
			 	 	 	 	</Node>
							<Node pos="r" depth="4" NCoef="0" IVar="0" Cut="8.2265359163284302E-01" cType="1" res="5.5346562413746733E-02" rms="0.0" purity="0.0749387565579" nType="0">
								<Node pos="l" depth="5" NCoef="0" IVar="-1" Cut="0.0000000000000000E+00" cType="1" res="2.3559918746970177E-01" rms="0.0e-00" purity="0.0819201394463" nType="-99"/>
								<Node pos="r" depth="5" NCoef="0" IVar="-1" Cut="0.0000000000000000E+00" cType="1" res="2.5781194076946556E-01" rms="0.0e-00" purity="0.0317622094418" nType="-99"/>
			 	 	 	 	</Node>
			 	 	 	</Node>
			 	 	</Node>
			 	</Node>
			</Node>
		</BinaryTree>
		<BinaryTree type="DecisionTree" boostWeight="1.0" itree="2">
			<Node pos="s" depth="0" NCoef="0" IVar="0" Cut="-2.1439677476882935E-01" cType="1" res="-5.7425020520485112E-05" rms="0.0" purity="0.185855056889" nType="0">
				<Node pos="l" depth="1" NCoef="0" IVar="0" Cut="-4.6700459718704224E-01" cType="1" res="-1.2610587024031065E-02" rms="0.0" purity="0.120520425966" nType="0">
					<Node pos="l" depth="2" NCoef="0" IVar="0" Cut="-5.8751153945922852E-01" cType="1" res="-1.7384219989780014E-02" rms="0.0" purity="0.0780996818222" nType="0">
						<Node pos="l" depth="3" NCoef="0" IVar="1" Cut="-6.1735147237777710E-01" cType="1" res="-1.9738900823068055E-02" rms="0.0" purity="0.0543143586158" nType="0">
							<Node pos="l" depth="4" NCoef="0" IVar="1" Cut="-8.8996326923370361E-01" cType="1" res="-2.2827809866000741E-02" rms="0.0" purity="0.0205561697638" nType="0">
								<Node pos="l" depth="5" NCoef="0" IVar="-1" Cut="0.0000000000000000E+00" cType="1" res="-1.2806171742175468E-01" rms="0.0e-00" purity="0.00878092765521" nType="-99"/>
								<Node pos="r" depth="5" NCoef="0" IVar="-1" Cut="0.0000000000000000E+00" cType="1" res="-1.1689127436818422E-01" rms="0.0e-00" purity="0.0303196328537" nType="-99"/>
			 	 	 	 	</Node>
							<Node pos="r" depth="4" NCoef="0" IVar="0" Cut="-6.9632154703140259E-01" cType="1" res="-1.8853451822758594E-02" rms="0.0" purity="0.0636393788283" nType="0">
								<Node pos="l" depth="5" NCoef="0" IVar="-1" Cut="0.0000000000000000E+00" cType="1" res="-1.1045182452298012E-01" rms="0.0e-00" purity="0.0421977759351" nType="-99"/>
								<Node pos="r" depth="5" NCoef="0" IVar="-1" Cut="0.0000000000000000E+00" cType="1" res="-9.0082007329587502E-02" rms="0.0e-00" purity="0.079256401416" nType="-99"/>
			 	 	 	 	</Node>
			 	 	 	</Node>
						<Node pos="r" depth="3" NCoef="0" IVar="1" Cut="-5.1218163967132568E-01" cType="1" res="-1.4147515637152736E-02" rms="0.0" purity="0.108984817773" nType="0">
							<Node pos="l" depth="4" NCoef="0" IVar="1" Cut="-8.1591856479644775E-01" cType="1" res="-2.0471595176899962E-02" rms="0.0" purity="0.046319468935" nType="0">
								<Node pos="l" depth="5" NCoef="0" IVar="-1" Cut="0.0000000000000000E+00" cType="1" res="-1.1855188572740065E-01" rms="0.0e-00" purity="0.0267308414343" nType="-99"/>
								<Node pos="r" depth="5" NCoef="0" IVar="-1" Cut="0.0000000000000000E+00" cType="1" res="-9.6642070049938397E-02" rms="0.0e-00" purity="0.0678175216712" nType="-99"/>
			 	 	 	 	</Node>
							<Node pos="r" depth="4" NCoef="0" IVar="0" Cut="-5.1928436756134033E-01" cType="1" res="-1.2452369627050430E-02" rms="0.0" purity="0.124422655743" nType="0">
								<Node pos="l" depth="5" NCoef="0" IVar="-1" Cut="0.0000000000000000E+00" cType="1" res="-7.0728450705756618E-02" rms="0.0e-00" purity="0.112618372579" nType="-99"/>
								<Node pos="r" depth="5" NCoef="0" IVar="-1" Cut="0.0000000000000000E+00" cType="1" res="-5.3048011225381664E-02" rms="0.0e-00" purity="0.139627113602" nType="-99"/>
			 	 	 	 	</Node>
			 	 	 	</Node>
			 	 	</Node>
					<Node pos="r" depth="2" NCoef="0" IVar="1" Cut="-5.3505587577819824E-01" cType="1" res="-4.1528212959313256E-03" rms="0.0" purity="0.184489296797" nType="0">
						<Node pos="l" depth="3" NCoef="0" IVar="1" Cut="-8.2722878456115723E-01" cType="1" res="-1.7276676253959535E-02" rms="0.0" purity="0.0797155315805" nType="0">
							<Node pos="l" depth="4" NCoef="0" IVar="1" Cut="-8.9829945564270020E-01" cType="1" res="-2.0728299178276399E-02" rms="0.0" purity="0.0434319247503" nType="0">
								<Node pos="l" depth="5" NCoef="0" IVar="-1" Cut="0.0000000000000000E+00" cType="1" res="-1.1843408159367159E-01" rms="0.0e-00" purity="0.0278011025858" nType="-99"/>
								<Node pos="r" depth="5" NCoef="0" IVar="-1" Cut="0.0000000000000000E+00" cType="1" res="-9.4809498753305799E-02" rms="0.0e-00" purity="0.0692180559414" nType="-99"/>
			 	 	 	 	</Node>
							<Node pos="r" depth="4" NCoef="0" IVar="0" Cut="-3.6166810989379883E-01" cType="1" res="-1.3988041460175848E-02" rms="0.0" purity="0.112069175653" nType="0">
								<Node pos="l" depth="5" NCoef="0" IVar="-1" Cut="0.0000000000000000E+00" cType="1" res="-8.6102157668817916E-02" rms="0.0e-00" purity="0.0873889437738" nType="-99"/>
								<Node pos="r" depth="5" NCoef="0" IVar="-1" Cut="0.0000000000000000E+00" cType="1" res="-5.1930736302013565E-02" rms="0.0e-00" purity="0.142322698794" nType="-99"/>
			 	 	 	 	</Node>
			 	 	 	</Node>
						<Node pos="r" depth="3" NCoef="0" IVar="0" Cut="-3.7156739830970764E-01" cType="1" res="-1.8575738737169085E-03" rms="0.0" purity="0.199274246253" nType="0">
							<Node pos="l" depth="4" NCoef="0" IVar="1" Cut="5.4403686523437500E-01" cType="1" res="-6.1311405605904432E-03" rms="0.0" purity="0.174195939335" nType="0">
								<Node pos="l" depth="5" NCoef="0" IVar="-1" Cut="0.0000000000000000E+00" cType="1" res="-3.6409818462771998E-02" rms="0.0e-00" purity="0.166265533249" nType="-99"/>
								<Node pos="r" depth="5" NCoef="0" IVar="-1" Cut="0.0000000000000000E+00" cType="1" res="-1.5566155256765987E-02" rms="0.0e-00" purity="0.190958906616" nType="-99"/>
			 	 	 	 	</Node>
							<Node pos="r" depth="4" NCoef="0" IVar="1" Cut="4.4314062595367432E-01" cType="1" res="1.8558604557512908E-03" rms="0.0" purity="0.218099642745" nType="0">
								<Node pos="l" depth="5" NCoef="0" IVar="-1" Cut="0.0000000000000000E+00" cType="1" res="-5.3908465470827120E-03" rms="0.0e-00" purity="0.205358941802" nType="-99"/>
								<Node pos="r" depth="5" NCoef="0" IVar="-1" Cut="0.0000000000000000E+00" cType="1" res="2.3895418619108915E-02" rms="0.0e-00" purity="0.229924167954" nType="-99"/>
			 	 	 	 	</Node>
			 	 	 	</Node>
			 	 	</Node>
			 	</Node>
				<Node pos="r" depth="1" NCoef="0" IVar="0" Cut="3.2993847131729126E-01" cType="1" res="2.5915265687029527E-02" rms="0.0" purity="0.220971435834" nType="0">
					<Node pos="l" depth="2" NCoef="0" IVar="1" Cut="-5.9164768457412720E-01" cType="1" res="1.5242562542552116E-02" rms="0.0" purity="0.243652887505" nType="0">
						<Node pos="l" depth="3" NCoef="0" IVar="1" Cut="-7.8684693574905396E-01" cType="1" res="-9.2825172508766360E-03" rms="0.0" purity="0.147761939182" nType="0">
							<Node pos="l" depth="4" NCoef="0" IVar="1" Cut="-8.7362825870513916E-01" cType="1" res="-1.4439352025290255E-02" rms="0.0" purity="0.106415093584" nType="0">
								<Node pos="l" depth="5" NCoef="0" IVar="-1" Cut="0.0000000000000000E+00" cType="1" res="-8.7310145375656414E-02" rms="0.0e-00" purity="0.0837760432533" nType="-99"/>
								<Node pos="r" depth="5" NCoef="0" IVar="-1" Cut="0.0000000000000000E+00" cType="1" res="-4.7986834746318305E-02" rms="0.0e-00" purity="0.148278312546" nType="-99"/>
			 	 	 	 	</Node>
							<Node pos="r" depth="4" NCoef="0" IVar="0" Cut="9.9903702735900879E-02" cType="1" res="-1.3414407695222699E-03" rms="0.0" purity="0.201031329303" nType="0">
								<Node pos="l" depth="5" NCoef="0" IVar="-1" Cut="0.0000000000000000E+00" cType="1" res="-2.2712220107473063E-02" rms="0.0e-00" purity="0.183680135273" nType="-99"/>
								<Node pos="r" depth="5" NCoef="0" IVar="-1" Cut="0.0000000000000000E+00" cType="1" res="3.1442119159029266E-02" rms="0.0e-00" purity="0.233611714496" nType="-99"/>
			 	 	 	 	</Node>
			 	 	 	</Node>
						<Node pos="r" depth="3" NCoef="0" IVar="0" Cut="6.0474991798400879E-02" cType="1" res="1.7730974755248947E-02" rms="0.0" purity="0.246660294454" nType="0">
							<Node pos="l" depth="4" NCoef="0" IVar="1" Cut="7.0147371292114258E-01" cType="1" res="1.2880683200248978E-02" rms="0.0" purity="0.246978580379" nType="0">
								<Node pos="l" depth="5" NCoef="0" IVar="-1" Cut="0.0000000000000000E+00" cType="1" res="5.0036781615218663E-02" rms="0.0e-00" purity="0.244856771773" nType="-99"/>
								<Node pos="r" depth="5" NCoef="0" IVar="-1" Cut="0.0000000000000000E+00" cType="1" res="8.3463149705574266E-02" rms="0.0e-00" purity="0.249039929321" nType="-99"/>
			 	 	 	 	</Node>
							<Node pos="r" depth="4" NCoef="0" IVar="0" Cut="1.6117107868194580E-01" cType="1" res="2.5391773246609923E-02" rms="0.0" purity="0.236573083413" nType="0">
								<Node pos="l" depth="5" NCoef="0" IVar="-1" Cut="0.0000000000000000E+00" cType="1" res="9.5807838728071415E-02" rms="0.0e-00" purity="0.244739146792" nType="-99"/>
								<Node pos="r" depth="5" NCoef="0" IVar="-1" Cut="0.0000000000000000E+00" cType="1" res="1.1958923842894020E-01" rms="0.0e-00" purity="0.230041798664" nType="-99"/>
			 	 	 	 	</Node>
			 	 	 	</Node>
			 	 	</Node>
					<Node pos="r" depth="2" NCoef="0" IVar="0" Cut="6.3462722301483154E-01" cType="1" res="4.0859410001553957E-02" rms="0.0" purity="0.150930201718" nType="0">
						<Node pos="l" depth="3" NCoef="0" IVar="1" Cut="-5.8759033679962158E-01" cType="1" res="3.5346410383891969E-02" rms="0.0" purity="0.189831627063" nType="0">
							<Node pos="l" depth="4" NCoef="0" IVar="-1" Cut="0.0000000000000000E+00" cType="1" res="3.4531386495842302E-02" rms="0.0e-00" purity="0.233685513131" nType="-99"/>
							<Node pos="r" depth="4" NCoef="0" IVar="0" Cut="4.6070259809494019E-01" cType="1" res="3.6812824469691099E-02" rms="0.0" purity="0.183226030575" nType="0">
								<Node pos="l" depth="5" NCoef="0" IVar="-1" Cut="0.0000000000000000E+00" cType="1" res="1.4194892641493040E-01" rms="0.0e-00" purity="0.203353346915" nType="-99"/>
								<Node pos="r" depth="5" NCoef="0" IVar="-1" Cut="0.0000000000000000E+00" cType="1" res="1.6390355798657308E-01" rms="0.0e-00" purity="0.167874347502" nType="-99"/>
			 	 	 	 	</Node>
			 	 	 	</Node>
						<Node pos="r" depth="3" NCoef="0" IVar="0" Cut="7.4143248796463013E-01" cType="1" res="4.8218140260430600E-02" rms="0.0" purity="0.0895327729868" nType="0">
							<Node pos="l" depth="4" NCoef="0" IVar="1" Cut="-1.9581964612007141E-01" cType="1" res="4.5942160747467618E-02" rms="0.0" purity="0.111314753535" nType="0">
								<Node pos="l" depth="5" NCoef="0" IVar="-1" Cut="0.0000000000000000E+00" cType="1" res="1.5924365621914621E-01" rms="0.0e-00" purity="0.17049473325" nType="-99"/>
								<Node pos="r" depth="5" NCoef="0" IVar="-1" Cut="0.0000000000000000E+00" cType="1" res="1.9171970532562380E-01" rms="0.0e-00" purity="0.106666821315" nType="-99"/>
			 	 	 	 	</Node>
							<Node pos="r" depth="4" NCoef="0" IVar="0" Cut="8.1293654441833496E-01" cType="1" res="5.0962360766382955E-02" rms="0.0" purity="0.0618918963206" nType="0">
								<Node pos="l" depth="5" NCoef="0" IVar="-1" Cut="0.0000000000000000E+00" cType="1" res="2.0472507594056455E-01" rms="0.0e-00" purity="0.0721647257391" nType="-99"/>
								<Node pos="r" depth="5" NCoef="0" IVar="-1" Cut="0.0000000000000000E+00" cType="1" res="2.1846238138290075E-01" rms="0.0e-00" purity="0.0355651960777" nType="-99"/>
			 	 	 	 	</Node>
			 	 	 	</Node>
			 	 	</Node>
			 	</Node>
			</Node>
		</BinaryTree>
		<BinaryTree type="DecisionTree" boostWeight="1.0" itree="3">
			<Node pos="s" depth="0" NCoef="0" IVar="0" Cut="-1.5449783205986023E-01" cType="1" res="-1.0594006560608264E-04" rms="0.0" purity="0.177135372433" nType="0">
				<Node pos="l" depth="1" NCoef="0" IVar="0" Cut="-4.2660441994667053E-01" cType="1" res="-1.0516863388081540E-02" rms="0.0" purity="0.1262360655" nType="0">
					<Node pos="l" depth="2" NCoef="0" IVar="0" Cut="-5.7910794019699097E-01" cType="1" res="-1.4865019973835521E-02" rms="0.0" purity="0.0864400673339" nType="0">
						<Node pos="l" depth="3" NCoef="0" IVar="1" Cut="-7.9681062698364258E-01" cType="1" res="-1.7598143111296372E-02" rms="0.0" purity="0.0564317753904" nType="0">
							<Node pos="l" depth="4" NCoef="0" IVar="1" Cut="-9.1748255491256714E-01" cType="1" res="-2.0942451849046712E-02" rms="0.0" purity="0.0156189464022" nType="0">
								<Node pos="l" depth="5" NCoef="0" IVar="-1" Cut="0.0000000000000000E+00" cType="1" res="-1.2291648259845071E-01" rms="0.0e-00" purity="0.010258640266" nType="-99"/>
								<Node pos="r" depth="5" NCoef="0" IVar="-1" Cut="0.0000000000000000E+00" cType="1" res="-1.1674475501742777E-01" rms="0.0e-00" purity="0.021543453962" nType="-99"/>
			 	 	 	 	</Node>
							<Node pos="r" depth="4" NCoef="0" IVar="0" Cut="-7.2690296173095703E-01" cType="1" res="-1.6988821797937849E-02" rms="0.0" purity="0.0636268264719" nType="0">
								<Node pos="l" depth="5" NCoef="0" IVar="-1" Cut="0.0000000000000000E+00" cType="1" res="-1.0952090761854094E-01" rms="0.0e-00" purity="0.0356119250023" nType="-99"/>
								<Node pos="r" depth="5" NCoef="0" IVar="-1" Cut="0.0000000000000000E+00" cType="1" res="-8.7096974509833169E-02" rms="0.0e-00" purity="0.0749196969572" nType="-99"/>
			 	 	 	 	</Node>
			 	 	 	</Node>
						<Node pos="r" depth="3" NCoef="0" IVar="1" Cut="-6.3765168190002441E-01" cType="1" res="-1.1637726835628743E-02" rms="0.0" purity="0.119950491681" nType="0">
							<Node pos="l" depth="4" NCoef="0" IVar="1" Cut="-7.6212513446807861E-01" cType="1" res="-1.8628029265233926E-02" rms="0.0" purity="0.0443904188817" nType="0">
								<Node pos="l" depth="5" NCoef="0" IVar="-1" Cut="0.0000000000000000E+00" cType="1" res="-1.1002375945172513E-01" rms="0.0e-00" purity="0.0340397214023" nType="-99"/>
								<Node pos="r" depth="5" NCoef="0" IVar="-1" Cut="0.0000000000000000E+00" cType="1" res="-8.5905093557804540E-02" rms="0.0e-00" purity="0.0770666810974" nType="-99"/>
			 	 	 	 	</Node>
							<Node pos="r" depth="4" NCoef="0" IVar="1" Cut="7.0968449115753174E-01" cType="1" res="-1.0237846846877058E-02" rms="0.0" purity="0.133907648892" nType="0">
								<Node pos="l" depth="5" NCoef="0" IVar="-1" Cut="0.0000000000000000E+00" cType="1" res="-5.6156119475175514E-02" rms="0.0e-00" purity="0.129462552999" nType="-99"/>
								<Node pos="r" depth="5" NCoef="0" IVar="-1" Cut="0.0000000000000000E+00" cType="1" res="-2.1900651154015436E-02" rms="0.0e-00" purity="0.173061055479" nType="-99"/>
			 	 	 	 	</Node>
			 	 	 	</Node>
			 	 	</Node>
					<Node pos="r" depth="2" NCoef="0" IVar="1" Cut="-4.6458250284194946E-01" cType="1" res="-1.1821875716644329E-03" rms="0.0" purity="0.198898121328" nType="0">
						<Node pos="l" depth="3" NCoef="0" IVar="1" Cut="-8.0844575166702271E-01" cType="1" res="-1.4143581294996611E-02" rms="0.0" purity="0.0963821872269" nType="0">
							<Node pos="l" depth="4" NCoef="0" IVar="1" Cut="-8.9290726184844971E-01" cType="1" res="-1.8265711382441693E-02" rms="0.0" purity="0.049586893312" nType="0">
								<Node pos="l" depth="5" NCoef="0" IVar="-1" Cut="0.0000000000000000E+00" cType="1" res="-1.0913661335408092E-01" rms="0.0e-00" purity="0.0360327593095" nType="-99"/>
								<Node pos="r" depth="5" NCoef="0" IVar="-1" Cut="0.0000000000000000E+00" cType="1" res="-8.9871359744026089E-02" rms="0.0e-00" purity="0.0705083125288" nType="-99"/>
			 	 	 	 	</Node>
							<Node pos="r" depth="4" NCoef="0" IVar="0" Cut="-3.0677354335784912E-01" cType="1" res="-1.0588439800699852E-02" rms="0.0" purity="0.134011527855" nType="0">
								<Node pos="l" depth="5" NCoef="0" IVar="-1" Cut="0.0000000000000000E+00" cType="1" res="-6.8373646325733672E-02" rms="0.0e-00" purity="0.111366699546" nType="-99"/>
								<Node pos="r" depth="5" NCoef="0" IVar="-1" Cut="0.0000000000000000E+00" cType="1" res="-3.4164070257835306E-02" rms="0.0e-00" purity="0.164973389372" nType="-99"/>
			 	 	 	 	</Node>
			 	 	 	</Node>
						<Node pos="r" depth="3" NCoef="0" IVar="0" Cut="-3.1215482950210571E-01" cType="1" res="1.1529994929654786E-03" rms="0.0" purity="0.213795847574" nType="0">
							<Node pos="l" depth="4" NCoef="0" IVar="0" Cut="-3.6877733469009399E-01" cType="1" res="-2.8262886024510484E-03" rms="0.0" purity="0.192760468786" nType="0">
								<Node pos="l" depth="5" NCoef="0" IVar="-1" Cut="0.0000000000000000E+00" cType="1" res="-2.3654132635401136E-02" rms="0.0e-00" purity="0.180094612764" nType="-99"/>
								<Node pos="r" depth="5" NCoef="0" IVar="-1" Cut="0.0000000000000000E+00" cType="1" res="-2.0907314684380251E-03" rms="0.0e-00" purity="0.206965282687" nType="-99"/>
			 	 	 	 	</Node>
							<Node pos="r" depth="4" NCoef="0" IVar="1" Cut="8.3688545227050781E-01" cType="1" res="5.4498313466668337E-03" rms="0.0" purity="0.232953721866" nType="0">
								<Node pos="l" depth="5" NCoef="0" IVar="-1" Cut="0.0000000000000000E+00" cType="1" res="2.0352937000299390E-02" rms="0.0e-00" purity="0.230129551324" nType="-99"/>
								<Node pos="r" depth="5" NCoef="0" IVar="-1" Cut="0.0000000000000000E+00" cType="1" res="7.4241191208467200E-02" rms="0.0e-00" purity="0.249577739151" nType="-99"/>
			 	 	 	 	</Node>
			 	 	 	</Node>
			 	 	</Node>
			 	</Node>
				<Node pos="r" depth="1" NCoef="0" IVar="0" Cut="3.4023827314376831E-01" cType="1" res="2.5131132506006008E-02" rms="0.0" purity="0.210555048334" nType="0">
					<Node pos="l" depth="2" NCoef="0" IVar="1" Cut="-4.7664240002632141E-01" cType="1" res="1.5048944161789035E-02" rms="0.0" purity="0.241988367673" nType="0">
						<Node pos="l" depth="3" NCoef="0" IVar="1" Cut="-7.7907359600067139E-01" cType="1" res="-6.5029669700542650E-03" rms="0.0" purity="0.164971171482" nType="0">
							<Node pos="l" depth="4" NCoef="0" IVar="1" Cut="-8.9352369308471680E-01" cType="1" res="-1.2903534779756733E-02" rms="0.0" purity="0.1100294811" nType="0">
								<Node pos="l" depth="5" NCoef="0" IVar="-1" Cut="0.0000000000000000E+00" cType="1" res="-8.8510489059325306E-02" rms="0.0e-00" purity="0.0750575356574" nType="-99"/>
								<Node pos="r" depth="5" NCoef="0" IVar="-1" Cut="0.0000000000000000E+00" cType="1" res="-4.2797392830266130E-02" rms="0.0e-00" purity="0.150853186491" nType="-99"/>
			 	 	 	 	</Node>
							<Node pos="r" depth="4" NCoef="0" IVar="0" Cut="1.4790374040603638E-01" cType="1" res="-9.1766987910520508E-05" rms="0.0" purity="0.211790246586" nType="0">
								<Node pos="l" depth="5" NCoef="0" IVar="-1" Cut="0.0000000000000000E+00" cType="1" res="-1.9319480989719893E-02" rms="0.0e-00" purity="0.193726116022" nType="-99"/>
								<Node pos="r" depth="5" NCoef="0" IVar="-1" Cut="0.0000000000000000E+00" cType="1" res="4.2930962739613526E-02" rms="0.0e-00" purity="0.24202568017" nType="-99"/>
			 	 	 	 	</Node>
			 	 	 	</Node>
						<Node pos="r" depth="3" NCoef="0" IVar="0" Cut="7.9027652740478516E-02" cType="1" res="1.7820758547077573E-02" rms="0.0" purity="0.245151546576" nType="0">
							<Node pos="l" depth="4" NCoef="0" IVar="2" Cut="1.2136869430541992E+00" cType="1" res="1.3574180254702570E-02" rms="0.0" purity="0.248945784004" nType="0">
								<Node pos="l" depth="5" NCoef="0" IVar="-1" Cut="0.0000000000000000E+00" cType="1" res="5.3717353221702964E-02" rms="0.0e-00" purity="0.24838624012" nType="-99"/>
								<Node pos="r" depth="5" NCoef="0" IVar="-1" Cut="0.0000000000000000E+00" cType="1" res="8.5073981685313493E-02" rms="0.0e-00" purity="0.246801437028" nType="-99"/>
			 	 	 	 	</Node>
							<Node pos="r" depth="4" NCoef="0" IVar="1" Cut="7.1806812286376953E-01" cType="1" res="2.3243883968413023E-02" rms="0.0" purity="0.235062084926" nType="0">
								<Node pos="l" depth="5" NCoef="0" IVar="-1" Cut="0.0000000000000000E+00" cType="1" res="9.0673415965133786E-02" rms="0.0e-00" purity="0.239093220684" nType="-99"/>
								<Node pos="r" depth="5" NCoef="0" IVar="-1" Cut="0.0000000000000000E+00" cType="1" res="1.2239259839330513E-01" rms="0.0e-00" purity="0.217063846854" nType="-99"/>
			 	 	 	 	</Node>
			 	 	 	</Node>
			 	 	</Node>
					<Node pos="r" depth="2" NCoef="0" IVar="0" Cut="5.8565914630889893E-01" cType="1" res="3.7131179811881666E-02" rms="0.0" purity="0.146643617512" nType="0">
						<Node pos="l" depth="3" NCoef="0" IVar="1" Cut="-7.4933373928070068E-01" cType="1" res="3.1226277719384469E-02" rms="0.0" purity="0.19248178902" nType="0">
							<Node pos="l" depth="4" NCoef="0" IVar="-1" Cut="0.0000000000000000E+00" cType="1" res="-1.3805562056279025E-02" rms="0.0e-00" purity="0.201026700628" nType="-99"/>
							<Node pos="r" depth="4" NCoef="0" IVar="2" Cut="9.2315006256103516E-01" cType="1" res="3.2388569179209958E-02" rms="0.0" purity="0.18808354277" nType="0">
								<Node pos="l" depth="5" NCoef="0" IVar="-1" Cut="0.0000000000000000E+00" cType="1" res="1.2465131042618453E-01" rms="0.0e-00" purity="0.198631916904" nType="-99"/>
								<Node pos="r" depth="5" NCoef="0" IVar="-1" Cut="0.0000000000000000E+00" cType="1" res="1.4671170727645422E-01" rms="0.0e-00" purity="0.168029888249" nType="-99"/>
			 	 	 	 	</Node>
			 	 	 	</Node>
						<Node pos="r" depth="3" NCoef="0" IVar="0" Cut="6.9324332475662231E-01" cType="1" res="4.2225953108769004E-02" rms="0.0" purity="0.101490173359" nType="0">
							<Node pos="l" depth="4" NCoef="0" IVar="1" Cut="1.7680151760578156E-01" cType="1" res="3.8699326657166286E-02" rms="0.0" purity="0.137571718071" nType="0">
								<Node pos="l" depth="5" NCoef="0" IVar="-1" Cut="0.0000000000000000E+00" cType="1" res="1.3690315549312121E-01" rms="0.0e-00" purity="0.176309860881" nType="-99"/>
								<Node pos="r" depth="5" NCoef="0" IVar="-1" Cut="0.0000000000000000E+00" cType="1" res="1.6058501832996641E-01" rms="0.0e-00" purity="0.129177047764" nType="-99"/>
			 	 	 	 	</Node>
							<Node pos="r" depth="4" NCoef="0" IVar="0" Cut="7.6795071363449097E-01" cType="1" res="4.4846862143218466E-02" rms="0.0" purity="0.0730639720784" nType="0">
								<Node pos="l" depth="5" NCoef="0" IVar="-1" Cut="0.0000000000000000E+00" cType="1" res="1.7459785732192409E-01" rms="0.0e-00" purity="0.0890470715538" nType="-99"/>
								<Node pos="r" depth="5" NCoef="0" IVar="-1" Cut="0.0000000000000000E+00" cType="1" res="1.8608368091540195E-01" rms="0.0e-00" purity="0.0544934369197" nType="-99"/>
			 	 	 	 	</Node>
			 	 	 	</Node>
			 	 	</Node>
			 	</Node>
			</Node>
		</BinaryTree>
		<BinaryTree type="DecisionTree" boostWeight="1.0" itree="4">
			<Node pos="s" depth="0" NCoef="0" IVar="0" Cut="-1.9528385996818542E-01" cType="1" res="-5.7521919991518256E-05" rms="0.0" purity="0.170358269666" nType="0">
				<Node pos="l" depth="1" NCoef="0" IVar="0" Cut="-4.8916372656822205E-01" cType="1" res="-9.9974650413790118E-03" rms="0.0" purity="0.120723083634" nType="0">
					<Node pos="l" depth="2" NCoef="0" IVar="0" Cut="-6.0658818483352661E-01" cType="1" res="-1.4483224793408220E-02" rms="0.0" purity="0.0740772780547" nType="0">
						<Node pos="l" depth="3" NCoef="0" IVar="1" Cut="-5.3660953044891357E-01" cType="1" res="-1.6302896264700072E-02" rms="0.0" purity="0.0518088583003" nType="0">
							<Node pos="l" depth="4" NCoef="0" IVar="1" Cut="-9.1115379333496094E-01" cType="1" res="-1.8453505169301263E-02" rms="0.0" purity="0.0241030572083" nType="0">
								<Node pos="l" depth="5" NCoef="0" IVar="-1" Cut="0.0000000000000000E+00" cType="1" res="-1.2119366833993345E-01" rms="0.0e-00" purity="0.00698940045811" nType="-99"/>
								<Node pos="r" depth="5" NCoef="0" IVar="-1" Cut="0.0000000000000000E+00" cType="1" res="-1.0662846905697329E-01" rms="0.0e-00" purity="0.0328415356726" nType="-99"/>
			 	 	 	 	</Node>
							<Node pos="r" depth="4" NCoef="0" IVar="0" Cut="-6.7518627643585205E-01" cType="1" res="-1.5567178841550299E-02" rms="0.0" purity="0.061074585006" nType="0">
								<Node pos="l" depth="5" NCoef="0" IVar="-1" Cut="0.0000000000000000E+00" cType="1" res="-9.8802339227181291E-02" rms="0.0e-00" purity="0.0464369044861" nType="-99"/>
								<Node pos="r" depth="5" NCoef="0" IVar="-1" Cut="0.0000000000000000E+00" cType="1" res="-7.8670201550122387E-02" rms="0.0e-00" purity="0.0816358146653" nType="-99"/>
			 	 	 	 	</Node>
			 	 	 	</Node>
						<Node pos="r" depth="3" NCoef="0" IVar="1" Cut="-4.7933554649353027E-01" cType="1" res="-1.2235802516688430E-02" rms="0.0" purity="0.100666295274" nType="0">
							<Node pos="l" depth="4" NCoef="0" IVar="1" Cut="-8.6311292648315430E-01" cType="1" res="-1.7098869934214125E-02" rms="0.0" purity="0.0433927343589" nType="0">
								<Node pos="l" depth="5" NCoef="0" IVar="-1" Cut="0.0000000000000000E+00" cType="1" res="-1.1398714037468205E-01" rms="0.0e-00" purity="0.0197896676387" nType="-99"/>
								<Node pos="r" depth="5" NCoef="0" IVar="-1" Cut="0.0000000000000000E+00" cType="1" res="-9.1968714784890659E-02" rms="0.0e-00" purity="0.0595019128805" nType="-99"/>
			 	 	 	 	</Node>
							<Node pos="r" depth="4" NCoef="0" IVar="1" Cut="7.1943509578704834E-01" cType="1" res="-1.0789324543399890E-02" rms="0.0" purity="0.116789166193" nType="0">
								<Node pos="l" depth="5" NCoef="0" IVar="-1" Cut="0.0000000000000000E+00" cType="1" res="-6.1241116544268656E-02" rms="0.0e-00" purity="0.113074985903" nType="-99"/>
								<Node pos="r" depth="5" NCoef="0" IVar="-1" Cut="0.0000000000000000E+00" cType="1" res="-2.8389804077373609E-02" rms="0.0e-00" purity="0.157254608416" nType="-99"/>
			 	 	 	 	</Node>
			 	 	 	</Node>
			 	 	</Node>
					<Node pos="r" depth="2" NCoef="0" IVar="1" Cut="-1.3060756027698517E-01" cType="1" res="-3.7240276508596830E-03" rms="0.0" purity="0.179208592357" nType="0">
						<Node pos="l" depth="3" NCoef="0" IVar="1" Cut="-6.4092224836349487E-01" cType="1" res="-1.0999557820125265E-02" rms="0.0" purity="0.116773970528" nType="0">
							<Node pos="l" depth="4" NCoef="0" IVar="1" Cut="-8.6429584026336670E-01" cType="1" res="-1.5029397915127557E-02" rms="0.0" purity="0.0677751240994" nType="0">
								<Node pos="l" depth="5" NCoef="0" IVar="-1" Cut="0.0000000000000000E+00" cType="1" res="-1.0243005931825531E-01" rms="0.0e-00" purity="0.0394838365976" nType="-99"/>
								<Node pos="r" depth="5" NCoef="0" IVar="-1" Cut="0.0000000000000000E+00" cType="1" res="-7.2619515571839821E-02" rms="0.0e-00" purity="0.0930850173631" nType="-99"/>
			 	 	 	 	</Node>
							<Node pos="r" depth="4" NCoef="0" IVar="0" Cut="-3.2882705330848694E-01" cType="1" res="-7.4970686644899275E-03" rms="0.0" purity="0.156722564022" nType="0">
								<Node pos="l" depth="5" NCoef="0" IVar="-1" Cut="0.0000000000000000E+00" cType="1" res="-4.9586571341120197E-02" rms="0.0e-00" purity="0.138325383507" nType="-99"/>
								<Node pos="r" depth="5" NCoef="0" IVar="-1" Cut="0.0000000000000000E+00" cType="1" res="-1.2723229036255786E-02" rms="0.0e-00" purity="0.19610646558" nType="-99"/>
			 	 	 	 	</Node>
			 	 	 	</Node>
						<Node pos="r" depth="3" NCoef="0" IVar="0" Cut="-3.8868668675422668E-01" cType="1" res="-1.0332501780451237E-03" rms="0.0" purity="0.199617661767" nType="0">
							<Node pos="l" depth="4" NCoef="0" IVar="1" Cut="6.3406044244766235E-01" cType="1" res="-5.3046340147088495E-03" rms="0.0" purity="0.168857976612" nType="0">
								<Node pos="l" depth="5" NCoef="0" IVar="-1" Cut="0.0000000000000000E+00" cType="1" res="-3.2938656587954959E-02" rms="0.0e-00" purity="0.16131009665" nType="-99"/>
								<Node pos="r" depth="5" NCoef="0" IVar="-1" Cut="0.0000000000000000E+00" cType="1" res="-7.9083389022169912E-03" rms="0.0e-00" purity="0.19173336266" nType="-99"/>
			 	 	 	 	</Node>
							<Node pos="r" depth="4" NCoef="0" IVar="1" Cut="5.1506948471069336E-01" cType="1" res="2.1914496234128169E-03" rms="0.0" purity="0.220422557891" nType="0">
								<Node pos="l" depth="5" NCoef="0" IVar="-1" Cut="0.0000000000000000E+00" cType="1" res="-3.6170003437616864E-04" rms="0.0e-00" purity="0.210374794036" nType="-99"/>
								<Node pos="r" depth="5" NCoef="0" IVar="-1" Cut="0.0000000000000000E+00" cType="1" res="2.2241592380150933E-02" rms="0.0e-00" purity="0.230766753791" nType="-99"/>
			 	 	 	 	</Node>
			 	 	 	</Node>
			 	 	</Node>
			 	</Node>
				<Node pos="r" depth="1" NCoef="0" IVar="0" Cut="3.1163448095321655E-01" cType="1" res="2.1618554735213392E-02" rms="0.0" purity="0.2100668062" nType="0">
					<Node pos="l" depth="2" NCoef="0" IVar="1" Cut="-5.9134662151336670E-01" cType="1" res="1.2408980301931209E-02" rms="0.0" purity="0.24021314503" nType="0">
						<Node pos="l" depth="3" NCoef="0" IVar="1" Cut="-8.2485073804855347E-01" cType="1" res="-8.5320858108416768E-03" rms="0.0" purity="0.139972081392" nType="0">
							<Node pos="l" depth="4" NCoef="0" IVar="1" Cut="-9.1283202171325684E-01" cType="1" res="-1.3243768431197298E-02" rms="0.0" purity="0.0925570060901" nType="0">
								<Node pos="l" depth="5" NCoef="0" IVar="-1" Cut="0.0000000000000000E+00" cType="1" res="-8.8111467201033550E-02" rms="0.0e-00" purity="0.0673767713163" nType="-99"/>
								<Node pos="r" depth="5" NCoef="0" IVar="-1" Cut="0.0000000000000000E+00" cType="1" res="-5.8796598448756308E-02" rms="0.0e-00" purity="0.117839436641" nType="-99"/>
			 	 	 	 	</Node>
							<Node pos="r" depth="4" NCoef="0" IVar="0" Cut="2.4054944515228271E-02" cType="1" res="-3.2198946212249275E-03" rms="0.0" purity="0.188105381112" nType="0">
								<Node pos="l" depth="5" NCoef="0" IVar="-1" Cut="0.0000000000000000E+00" cType="1" res="-3.5207348754985088E-02" rms="0.0e-00" purity="0.163474405999" nType="-99"/>
								<Node pos="r" depth="5" NCoef="0" IVar="-1" Cut="0.0000000000000000E+00" cType="1" res="7.5428144531707398E-03" rms="0.0e-00" purity="0.214828249511" nType="-99"/>
			 	 	 	 	</Node>
			 	 	 	</Node>
						<Node pos="r" depth="3" NCoef="0" IVar="0" Cut="4.8802912235260010E-02" cType="1" res="1.4579021694979979E-02" rms="0.0" purity="0.245585531351" nType="0">
							<Node pos="l" depth="4" NCoef="0" IVar="2" Cut="9.1191411018371582E-01" cType="1" res="1.1313866344165487E-02" rms="0.0" purity="0.247326978538" nType="0">
								<Node pos="l" depth="5" NCoef="0" IVar="-1" Cut="0.0000000000000000E+00" cType="1" res="4.0029952949105649E-02" rms="0.0e-00" purity="0.245288398592" nType="-99"/>
								<Node pos="r" depth="5" NCoef="0" IVar="-1" Cut="0.0000000000000000E+00" cType="1" res="6.6877655516487791E-02" rms="0.0e-00" purity="0.248443583192" nType="-99"/>
			 	 	 	 	</Node>
							<Node pos="r" depth="4" NCoef="0" IVar="2" Cut="9.0356314182281494E-01" cType="1" res="1.9212957127003948E-02" rms="0.0" purity="0.239453667459" nType="0">
								<Node pos="l" depth="5" NCoef="0" IVar="-1" Cut="0.0000000000000000E+00" cType="1" res="7.2136805005523760E-02" rms="0.0e-00" purity="0.243357284714" nType="-99"/>
								<Node pos="r" depth="5" NCoef="0" IVar="-1" Cut="0.0000000000000000E+00" cType="1" res="9.5780280224490644E-02" rms="0.0e-00" purity="0.229131774323" nType="-99"/>
			 	 	 	 	</Node>
			 	 	 	</Node>
			 	 	</Node>
					<Node pos="r" depth="2" NCoef="0" IVar="0" Cut="6.2418717145919800E-01" cType="1" res="3.2949040851693229E-02" rms="0.0" purity="0.149705052948" nType="0">
						<Node pos="l" depth="3" NCoef="0" IVar="1" Cut="-7.5634056329727173E-01" cType="1" res="2.8420005199557979E-02" rms="0.0" purity="0.189953539994" nType="0">
							<Node pos="l" depth="4" NCoef="0" IVar="-1" Cut="0.0000000000000000E+00" cType="1" res="1.0328618386417649E-03" rms="0.0e-00" purity="0.208451410537" nType="-99"/>
							<Node pos="r" depth="4" NCoef="0" IVar="1" Cut="-6.4593307673931122E-02" cType="1" res="2.9294451660932828E-02" rms="0.0" purity="0.186837417991" nType="0">
								<Node pos="l" depth="5" NCoef="0" IVar="-1" Cut="0.0000000000000000E+00" cType="1" res="8.7864454929186875E-02" rms="0.0e-00" purity="0.22405864466" nType="-99"/>
								<Node pos="r" depth="5" NCoef="0" IVar="-1" Cut="0.0000000000000000E+00" cType="1" res="1.2242352976995799E-01" rms="0.0e-00" purity="0.180840963242" nType="-99"/>
			 	 	 	 	</Node>
			 	 	 	</Node>
						<Node pos="r" depth="3" NCoef="0" IVar="0" Cut="7.0673716068267822E-01" cType="1" res="3.8809538503320952E-02" rms="0.0" purity="0.0915353890645" nType="0">
							<Node pos="l" depth="4" NCoef="0" IVar="1" Cut="2.0950968563556671E-01" cType="1" res="3.5835406774871723E-02" rms="0.0" purity="0.124916235295" nType="0">
								<Node pos="l" depth="5" NCoef="0" IVar="-1" Cut="0.0000000000000000E+00" cType="1" res="1.3055150491614290E-01" rms="0.0e-00" purity="0.155060611238" nType="-99"/>
								<Node pos="r" depth="5" NCoef="0" IVar="-1" Cut="0.0000000000000000E+00" cType="1" res="1.4605573339519967E-01" rms="0.0e-00" purity="0.118463244949" nType="-99"/>
			 	 	 	 	</Node>
							<Node pos="r" depth="4" NCoef="0" IVar="0" Cut="7.6724612712860107E-01" cType="1" res="4.0786112835390353E-02" rms="0.0" purity="0.0683723120894" nType="0">
								<Node pos="l" depth="5" NCoef="0" IVar="-1" Cut="0.0000000000000000E+00" cType="1" res="1.5743899310032322E-01" rms="0.0e-00" purity="0.0863226753017" nType="-99"/>
								<Node pos="r" depth="5" NCoef="0" IVar="-1" Cut="0.0000000000000000E+00" cType="1" res="1.6874046555340003E-01" rms="0.0e-00" purity="0.0519161286134" nType="-99"/>
			 	 	 	 	</Node>
			 	 	 	</Node>
			 	 	</Node>
			 	</Node>
			</Node>
		</BinaryTree>
		<BinaryTree type="DecisionTree" boostWeight="1.0" itree="5">
			<Node pos="s" depth="0" NCoef="0" IVar="0" Cut="-1.2010964751243591E-01" cType="1" res="-9.8586061912796295E-05" rms="0.0" purity="0.164561943924" nType="0">
				<Node pos="l" depth="1" NCoef="0" IVar="0" Cut="-4.3477490544319153E-01" cType="1" res="-8.2243825006318751E-03" rms="0.0" purity="0.12706761026" nType="0">
					<Node pos="l" depth="2" NCoef="0" IVar="0" Cut="-5.3739213943481445E-01" cType="1" res="-1.2383303634456427E-02" rms="0.0" purity="0.0832630190552" nType="0">
						<Node pos="l" depth="3" NCoef="0" IVar="1" Cut="-2.7914136648178101E-01" cType="1" res="-1.3936252984997840E-02" rms="0.0" purity="0.0635377347897" nType="0">
							<Node pos="l" depth="4" NCoef="0" IVar="1" Cut="-7.0652270317077637E-01" cType="1" res="-1.5951122791554338E-02" rms="0.0" purity="0.0371533411042" nType="0">
								<Node pos="l" depth="5" NCoef="0" IVar="-1" Cut="0.0000000000000000E+00" cType="1" res="-1.0964542991620277E-01" rms="0.0e-00" purity="0.0207869521463" nType="-99"/>
								<Node pos="r" depth="5" NCoef="0" IVar="-1" Cut="0.0000000000000000E+00" cType="1" res="-9.0812005461196346E-02" rms="0.0e-00" purity="0.0547440792203" nType="-99"/>
			 	 	 	 	</Node>
							<Node pos="r" depth="4" NCoef="0" IVar="0" Cut="-6.6982495784759521E-01" cType="1" res="-1.2835643254303225E-02" rms="0.0" purity="0.0776071481928" nType="0">
								<Node pos="l" depth="5" NCoef="0" IVar="-1" Cut="0.0000000000000000E+00" cType="1" res="-9.3431868571232077E-02" rms="0.0e-00" purity="0.0481939205231" nType="-99"/>
								<Node pos="r" depth="5" NCoef="0" IVar="-1" Cut="0.0000000000000000E+00" cType="1" res="-6.5891497484490386E-02" rms="0.0e-00" purity="0.0966603963049" nType="-99"/>
			 	 	 	 	</Node>
			 	 	 	</Node>
						<Node pos="r" depth="3" NCoef="0" IVar="1" Cut="-7.4315898120403290E-02" cType="1" res="-8.9094665425482212E-03" rms="0.0" purity="0.125640851349" nType="0">
							<Node pos="l" depth="4" NCoef="0" IVar="1" Cut="-7.3867905139923096E-01" cType="1" res="-1.2681065662185902E-02" rms="0.0" purity="0.0843408301423" nType="0">
								<Node pos="l" depth="5" NCoef="0" IVar="-1" Cut="0.0000000000000000E+00" cType="1" res="-9.7878212433213582E-02" rms="0.0e-00" purity="0.0401807999171" nType="-99"/>
								<Node pos="r" depth="5" NCoef="0" IVar="-1" Cut="0.0000000000000000E+00" cType="1" res="-6.1848973804361385E-02" rms="0.0e-00" purity="0.108460846906" nType="-99"/>
			 	 	 	 	</Node>
							<Node pos="r" depth="4" NCoef="0" IVar="0" Cut="-4.6963775157928467E-01" cType="1" res="-6.8634982631729643E-03" rms="0.0" purity="0.146854496523" nType="0">
								<Node pos="l" depth="5" NCoef="0" IVar="-1" Cut="0.0000000000000000E+00" cType="1" res="-4.3104073878051409E-02" rms="0.0e-00" purity="0.136279219336" nType="-99"/>
								<Node pos="r" depth="5" NCoef="0" IVar="-1" Cut="0.0000000000000000E+00" cType="1" res="-2.4448562735787067E-02" rms="0.0e-00" purity="0.167972168086" nType="-99"/>
			 	 	 	 	</Node>
			 	 	 	</Node>
			 	 	</Node>
					<Node pos="r" depth="2" NCoef="0" IVar="1" Cut="-5.3669357299804688E-01" cType="1" res="-4.8637798521168624E-04" rms="0.0" purity="0.199363699931" nType="0">
						<Node pos="l" depth="3" NCoef="0" IVar="1" Cut="-7.8367769718170166E-01" cType="1" res="-1.2010881400550771E-02" rms="0.0" purity="0.0891358851879" nType="0">
							<Node pos="l" depth="4" NCoef="0" IVar="1" Cut="-8.6052024364471436E-01" cType="1" res="-1.4557385991321239E-02" rms="0.0" purity="0.0557803857088" nType="0">
								<Node pos="l" depth="5" NCoef="0" IVar="-1" Cut="0.0000000000000000E+00" cType="1" res="-9.7294132813857015E-02" rms="0.0e-00" purity="0.0420243062559" nType="-99"/>
								<Node pos="r" depth="5" NCoef="0" IVar="-1" Cut="0.0000000000000000E+00" cType="1" res="-7.1144803977662638E-02" rms="0.0e-00" purity="0.0883248354638" nType="-99"/>
			 	 	 	 	</Node>
							<Node pos="r" depth="4" NCoef="0" IVar="0" Cut="-2.3775386810302734E-01" cType="1" res="-8.4791168070468530E-03" rms="0.0" purity="0.133250153434" nType="0">
								<Node pos="l" depth="5" NCoef="0" IVar="-1" Cut="0.0000000000000000E+00" cType="1" res="-5.4282154597702859E-02" rms="0.0e-00" purity="0.119436830539" nType="-99"/>
								<Node pos="r" depth="5" NCoef="0" IVar="-1" Cut="0.0000000000000000E+00" cType="1" res="-2.0502699363139060E-02" rms="0.0e-00" purity="0.17646664615" nType="-99"/>
			 	 	 	 	</Node>
			 	 	 	</Node>
						<Node pos="r" depth="3" NCoef="0" IVar="0" Cut="-2.6632916927337646E-01" cType="1" res="1.3259717497228255E-03" rms="0.0" purity="0.214281082374" nType="0">
							<Node pos="l" depth="4" NCoef="0" IVar="0" Cut="-3.7377396225929260E-01" cType="1" res="-1.1495100480551012E-03" rms="0.0" purity="0.199937615229" nType="0">
								<Node pos="l" depth="5" NCoef="0" IVar="-1" Cut="0.0000000000000000E+00" cType="1" res="-1.7317877809000168E-02" rms="0.0e-00" purity="0.180918475354" nType="-99"/>
								<Node pos="r" depth="5" NCoef="0" IVar="-1" Cut="0.0000000000000000E+00" cType="1" res="2.5663671981676389E-03" rms="0.0e-00" purity="0.213384381808" nType="-99"/>
			 	 	 	 	</Node>
							<Node pos="r" depth="4" NCoef="0" IVar="1" Cut="7.5033497810363770E-01" cType="1" res="5.8686794509631201E-03" rms="0.0" purity="0.23741433698" nType="0">
								<Node pos="l" depth="5" NCoef="0" IVar="-1" Cut="0.0000000000000000E+00" cType="1" res="1.8405925504090089E-02" rms="0.0e-00" purity="0.232996503101" nType="-99"/>
								<Node pos="r" depth="5" NCoef="0" IVar="-1" Cut="0.0000000000000000E+00" cType="1" res="6.0296624851234562E-02" rms="0.0e-00" purity="0.249390103492" nType="-99"/>
			 	 	 	 	</Node>
			 	 	 	</Node>
			 	 	</Node>
			 	</Node>
				<Node pos="r" depth="1" NCoef="0" IVar="0" Cut="3.5775440931320190E-01" cType="1" res="2.1401241232188086E-02" rms="0.0" purity="0.200072618382" nType="0">
					<Node pos="l" depth="2" NCoef="0" IVar="1" Cut="-5.4172724485397339E-01" cType="1" res="1.3336968773296112E-02" rms="0.0" purity="0.238367418675" nType="0">
						<Node pos="l" depth="3" NCoef="0" IVar="1" Cut="-8.9282119274139404E-01" cType="1" res="-5.6178925076967425E-03" rms="0.0" purity="0.160299857795" nType="0">
							<Node pos="l" depth="4" NCoef="0" IVar="1" Cut="-9.4022643566131592E-01" cType="1" res="-1.2957925573619154E-02" rms="0.0" purity="0.0804894873852" nType="0">
								<Node pos="l" depth="5" NCoef="0" IVar="-1" Cut="0.0000000000000000E+00" cType="1" res="-9.0647976164191013E-02" rms="0.0e-00" purity="0.0582810294285" nType="-99"/>
								<Node pos="r" depth="5" NCoef="0" IVar="-1" Cut="0.0000000000000000E+00" cType="1" res="-6.3301448352989190E-02" rms="0.0e-00" purity="0.0993566105578" nType="-99"/>
			 	 	 	 	</Node>
							<Node pos="r" depth="4" NCoef="0" IVar="1" Cut="-6.5855592489242554E-01" cType="1" res="-2.4031153915347499E-03" rms="0.0" purity="0.191861952715" nType="0">
								<Node pos="l" depth="5" NCoef="0" IVar="-1" Cut="0.0000000000000000E+00" cType="1" res="-2.1123324825134057E-02" rms="0.0e-00" purity="0.177277592068" nType="-99"/>
								<Node pos="r" depth="5" NCoef="0" IVar="-1" Cut="0.0000000000000000E+00" cType="1" res="7.5715137156908471E-03" rms="0.0e-00" purity="0.222522307369" nType="-99"/>
			 	 	 	 	</Node>
			 	 	 	</Node>
						<Node pos="r" depth="3" NCoef="0" IVar="0" Cut="7.9135477542877197E-02" cType="1" res="1.5380828839461978E-02" rms="0.0" purity="0.242493423406" nType="0">
							<Node pos="l" depth="4" NCoef="0" IVar="2" Cut="7.3593920469284058E-01" cType="1" res="1.1644754765003901E-02" rms="0.0" purity="0.248868493525" nType="0">
								<Node pos="l" depth="5" NCoef="0" IVar="-1" Cut="0.0000000000000000E+00" cType="1" res="4.0636428421600486E-02" rms="0.0e-00" purity="0.248028539177" nType="-99"/>
								<Node pos="r" depth="5" NCoef="0" IVar="-1" Cut="0.0000000000000000E+00" cType="1" res="5.9658541851508665E-02" rms="0.0e-00" purity="0.248636216606" nType="-99"/>
			 	 	 	 	</Node>
							<Node pos="r" depth="4" NCoef="0" IVar="2" Cut="6.5321570634841919E-01" cType="1" res="1.9032911240302659E-02" rms="0.0" purity="0.233563457307" nType="0">
								<Node pos="l" depth="5" NCoef="0" IVar="-1" Cut="0.0000000000000000E+00" cType="1" res="6.4186674469998373E-02" rms="0.0e-00" purity="0.242218016211" nType="-99"/>
								<Node pos="r" depth="5" NCoef="0" IVar="-1" Cut="0.0000000000000000E+00" cType="1" res="8.8839258889847963E-02" rms="0.0e-00" purity="0.224550551747" nType="-99"/>
			 	 	 	 	</Node>
			 	 	 	</Node>
			 	 	</Node>
					<Node pos="r" depth="2" NCoef="0" IVar="0" Cut="6.4427298307418823E-01" cType="1" res="3.0418595229227286E-02" rms="0.0" purity="0.141848813749" nType="0">
						<Node pos="l" depth="3" NCoef="0" IVar="1" Cut="-4.0677630901336670E-01" cType="1" res="2.6492908038336913E-02" rms="0.0" purity="0.181469666291" nType="0">
							<Node pos="l" depth="4" NCoef="0" IVar="1" Cut="-7.5674521923065186E-01" cType="1" res="1.0030113750567528E-02" rms="0.0" purity="0.233560442306" nType="0">
								<Node pos="l" depth="5" NCoef="0" IVar="-1" Cut="0.0000000000000000E+00" cType="1" res="1.4539847183892526E-03" rms="0.0e-00" purity="0.216894493297" nType="-99"/>
								<Node pos="r" depth="5" NCoef="0" IVar="-1" Cut="0.0000000000000000E+00" cType="1" res="6.5709383499232110E-02" rms="0.0e-00" purity="0.23433588208" nType="-99"/>
			 	 	 	 	</Node>
							<Node pos="r" depth="4" NCoef="0" IVar="0" Cut="4.8121750354766846E-01" cType="1" res="2.7743050734724186E-02" rms="0.0" purity="0.175299655464" nType="0">
								<Node pos="l" depth="5" NCoef="0" IVar="-1" Cut="0.0000000000000000E+00" cType="1" res="1.0113560636474489E-01" rms="0.0e-00" purity="0.194439124318" nType="-99"/>
								<Node pos="r" depth="5" NCoef="0" IVar="-1" Cut="0.0000000000000000E+00" cType="1" res="1.1804436370913335E-01" rms="0.0e-00" purity="0.161180348855" nType="-99"/>
			 	 	 	 	</Node>
			 	 	 	</Node>
						<Node pos="r" depth="3" NCoef="0" IVar="0" Cut="8.0232495069503784E-01" cType="1" res="3.5713285675519638E-02" rms="0.0" purity="0.0835290933005" nType="0">
							<Node pos="l" depth="4" NCoef="0" IVar="0" Cut="7.0872479677200317E-01" cType="1" res="3.4847445610135690E-02" rms="0.0" purity="0.0941611871943" nType="0">
								<Node pos="l" depth="5" NCoef="0" IVar="-1" Cut="0.0000000000000000E+00" cType="1" res="1.3390635720964705E-01" rms="0.0e-00" purity="0.115683163196" nType="-99"/>
								<Node pos="r" depth="5" NCoef="0" IVar="-1" Cut="0.0000000000000000E+00" cType="1" res="1.4556237075074385E-01" rms="0.0e-00" purity="0.0783784430305" nType="-99"/>
			 	 	 	 	</Node>
							<Node pos="r" depth="4" NCoef="0" IVar="2" Cut="1.3045457601547241E+00" cType="1" res="3.9570988937126877E-02" rms="0.0" purity="0.0343361750821" nType="0">
								<Node pos="l" depth="5" NCoef="0" IVar="-1" Cut="0.0000000000000000E+00" cType="1" res="1.5814817103861523E-01" rms="0.0e-00" purity="0.0415501781529" nType="-99"/>
								<Node pos="r" depth="5" NCoef="0" IVar="-1" Cut="0.0000000000000000E+00" cType="1" res="1.6642087396046046E-01" rms="0.0e-00" purity="0.0225669917122" nType="-99"/>
			 	 	 	 	</Node>
			 	 	 	</Node>
			 	 	</Node>
			 	</Node>
			</Node>
		</BinaryTree>
		<BinaryTree type="DecisionTree" boostWeight="1.0" itree="6">
			<Node pos="s" depth="0" NCoef="0" IVar="0" Cut="-1.1987712979316711E-01" cType="1" res="-1.4571857265248511E-04" rms="0.0" purity="0.159763540174" nType="0">
				<Node pos="l" depth="1" NCoef="0" IVar="0" Cut="-3.8350629806518555E-01" cType="1" res="-7.5353650195515119E-03" rms="0.0" purity="0.125343799002" nType="0">
					<Node pos="l" depth="2" NCoef="0" IVar="0" Cut="-5.2742117643356323E-01" cType="1" res="-1.0486983818189442E-02" rms="0.0" purity="0.0921999239521" nType="0">
						<Node pos="l" depth="3" NCoef="0" IVar="1" Cut="-3.3593061566352844E-01" cType="1" res="-1.2473778193730417E-02" rms="0.0" purity="0.0651823991109" nType="0">
							<Node pos="l" depth="4" NCoef="0" IVar="1" Cut="-8.6197400093078613E-01" cType="1" res="-1.4359071922951328E-02" rms="0.0" purity="0.0370024926681" nType="0">
								<Node pos="l" depth="5" NCoef="0" IVar="-1" Cut="0.0000000000000000E+00" cType="1" res="-1.1053942338623068E-01" rms="0.0e-00" purity="0.0140683946084" nType="-99"/>
								<Node pos="r" depth="5" NCoef="0" IVar="-1" Cut="0.0000000000000000E+00" cType="1" res="-8.9249282949070627E-02" rms="0.0e-00" purity="0.0492056945452" nType="-99"/>
			 	 	 	 	</Node>
							<Node pos="r" depth="4" NCoef="0" IVar="0" Cut="-6.4784628152847290E-01" cType="1" res="-1.1566095641938411E-02" rms="0.0" purity="0.0784962193558" nType="0">
								<Node pos="l" depth="5" NCoef="0" IVar="-1" Cut="0.0000000000000000E+00" cType="1" res="-8.6459814513836941E-02" rms="0.0e-00" purity="0.0532251453403" nType="-99"/>
								<Node pos="r" depth="5" NCoef="0" IVar="-1" Cut="0.0000000000000000E+00" cType="1" res="-6.0199409031588234E-02" rms="0.0e-00" purity="0.0997231927443" nType="-99"/>
			 	 	 	 	</Node>
			 	 	 	</Node>
						<Node pos="r" depth="3" NCoef="0" IVar="1" Cut="-4.2878755927085876E-01" cType="1" res="-6.9380906707268916E-03" rms="0.0" purity="0.138495172415" nType="0">
							<Node pos="l" depth="4" NCoef="0" IVar="1" Cut="-9.2360794544219971E-01" cType="1" res="-1.2652470508022781E-02" rms="0.0" purity="0.0655574429294" nType="0">
								<Node pos="l" depth="5" NCoef="0" IVar="-1" Cut="0.0000000000000000E+00" cType="1" res="-1.0942607391110262E-01" rms="0.0e-00" purity="0.0175051328392" nType="-99"/>
								<Node pos="r" depth="5" NCoef="0" IVar="-1" Cut="0.0000000000000000E+00" cType="1" res="-7.2594092118355311E-02" rms="0.0e-00" purity="0.0781432834748" nType="-99"/>
			 	 	 	 	</Node>
							<Node pos="r" depth="4" NCoef="0" IVar="2" Cut="2.6607661247253418E+00" cType="1" res="-5.4465394023410479E-03" rms="0.0" purity="0.156458370774" nType="0">
								<Node pos="l" depth="5" NCoef="0" IVar="-1" Cut="0.0000000000000000E+00" cType="1" res="-3.0038326174383779E-02" rms="0.0e-00" purity="0.155360673337" nType="-99"/>
								<Node pos="r" depth="5" NCoef="0" IVar="-1" Cut="0.0000000000000000E+00" cType="1" res="3.6802028110773689E-02" rms="0.0e-00" purity="0.219747692136" nType="-99"/>
			 	 	 	 	</Node>
			 	 	 	</Node>
			 	 	</Node>
					<Node pos="r" depth="2" NCoef="0" IVar="1" Cut="-2.8554776310920715E-01" cType="1" res="6.9436366815792139E-04" rms="0.0" purity="0.208553888246" nType="0">
						<Node pos="l" depth="3" NCoef="0" IVar="1" Cut="-7.3390966653823853E-01" cType="1" res="-8.0328280107921125E-03" rms="0.0" purity="0.128613858392" nType="0">
							<Node pos="l" depth="4" NCoef="0" IVar="1" Cut="-8.4217751026153564E-01" cType="1" res="-1.2083288745547245E-02" rms="0.0" purity="0.0714540943415" nType="0">
								<Node pos="l" depth="5" NCoef="0" IVar="-1" Cut="0.0000000000000000E+00" cType="1" res="-8.6799144725544994E-02" rms="0.0e-00" purity="0.0519120989737" nType="-99"/>
								<Node pos="r" depth="5" NCoef="0" IVar="-1" Cut="0.0000000000000000E+00" cType="1" res="-5.5914173351865736E-02" rms="0.0e-00" purity="0.111454419065" nType="-99"/>
			 	 	 	 	</Node>
							<Node pos="r" depth="4" NCoef="0" IVar="0" Cut="-2.5635084509849548E-01" cType="1" res="-4.6943420266933756E-03" rms="0.0" purity="0.17325950464" nType="0">
								<Node pos="l" depth="5" NCoef="0" IVar="-1" Cut="0.0000000000000000E+00" cType="1" res="-3.3037740012482060E-02" rms="0.0e-00" purity="0.157193004183" nType="-99"/>
								<Node pos="r" depth="5" NCoef="0" IVar="-1" Cut="0.0000000000000000E+00" cType="1" res="-9.0517681140787308E-03" rms="0.0e-00" purity="0.199505123905" nType="-99"/>
			 	 	 	 	</Node>
			 	 	 	</Node>
						<Node pos="r" depth="3" NCoef="0" IVar="0" Cut="-2.4385356903076172E-01" cType="1" res="2.6878604114792689E-03" rms="0.0" purity="0.224676913755" nType="0">
							<Node pos="l" depth="4" NCoef="0" IVar="1" Cut="5.3207111358642578E-01" cType="1" res="3.5681170341719250E-04" rms="0.0" purity="0.213327065774" nType="0">
								<Node pos="l" depth="5" NCoef="0" IVar="-1" Cut="0.0000000000000000E+00" cType="1" res="-8.1609001291640167E-03" rms="0.0e-00" purity="0.202346254526" nType="-99"/>
								<Node pos="r" depth="5" NCoef="0" IVar="-1" Cut="0.0000000000000000E+00" cType="1" res="1.5502704478247205E-02" rms="0.0e-00" purity="0.227787685788" nType="-99"/>
			 	 	 	 	</Node>
							<Node pos="r" depth="4" NCoef="0" IVar="2" Cut="1.2182170152664185E+00" cType="1" res="6.5984789057152386E-03" rms="0.0" purity="0.241276790011" nType="0">
								<Node pos="l" depth="5" NCoef="0" IVar="-1" Cut="0.0000000000000000E+00" cType="1" res="2.3098539615767927E-02" rms="0.0e-00" purity="0.238458078415" nType="-99"/>
								<Node pos="r" depth="5" NCoef="0" IVar="-1" Cut="0.0000000000000000E+00" cType="1" res="5.3504409613266822E-02" rms="0.0e-00" purity="0.24888055968" nType="-99"/>
			 	 	 	 	</Node>
			 	 	 	</Node>
			 	 	</Node>
			 	</Node>
				<Node pos="r" depth="1" NCoef="0" IVar="0" Cut="4.1223555803298950E-01" cType="1" res="1.9292334498030927E-02" rms="0.0" purity="0.198154926031" nType="0">
					<Node pos="l" depth="2" NCoef="0" IVar="1" Cut="-6.4442586898803711E-01" cType="1" res="1.2822131393454979E-02" rms="0.0" purity="0.235281169031" nType="0">
						<Node pos="l" depth="3" NCoef="0" IVar="1" Cut="-8.7307369709014893E-01" cType="1" res="-5.8082862748200948E-03" rms="0.0" purity="0.151229500309" nType="0">
							<Node pos="l" depth="4" NCoef="0" IVar="1" Cut="-9.4079136848449707E-01" cType="1" res="-1.1779234375684023E-02" rms="0.0" purity="0.0871105101036" nType="0">
								<Node pos="l" depth="5" NCoef="0" IVar="-1" Cut="0.0000000000000000E+00" cType="1" res="-9.0359872958770238E-02" rms="0.0e-00" purity="0.0560021288734" nType="-99"/>
								<Node pos="r" depth="5" NCoef="0" IVar="-1" Cut="0.0000000000000000E+00" cType="1" res="-5.8430867219125993E-02" rms="0.0e-00" purity="0.104828493424" nType="-99"/>
			 	 	 	 	</Node>
							<Node pos="r" depth="4" NCoef="0" IVar="2" Cut="3.5105958580970764E-01" cType="1" res="-1.3071100141688148E-03" rms="0.0" purity="0.194851666707" nType="0">
								<Node pos="l" depth="5" NCoef="0" IVar="-1" Cut="0.0000000000000000E+00" cType="1" res="1.9886991277050934E-02" rms="0.0e-00" purity="0.218147727697" nType="-99"/>
								<Node pos="r" depth="5" NCoef="0" IVar="-1" Cut="0.0000000000000000E+00" cType="1" res="-1.6677057233899791E-02" rms="0.0e-00" purity="0.184293590179" nType="-99"/>
			 	 	 	 	</Node>
			 	 	 	</Node>
						<Node pos="r" depth="3" NCoef="0" IVar="0" Cut="1.6619539260864258E-01" cType="1" res="1.4411420084340543E-02" rms="0.0" purity="0.23923779591" nType="0">
							<Node pos="l" depth="4" NCoef="0" IVar="1" Cut="-3.2723760604858398E-01" cType="1" res="1.1179971569665034E-02" rms="0.0" purity="0.24746181085" nType="0">
								<Node pos="l" depth="5" NCoef="0" IVar="-1" Cut="0.0000000000000000E+00" cType="1" res="6.3954184976369143E-03" rms="0.0e-00" purity="0.233568863435" nType="-99"/>
								<Node pos="r" depth="5" NCoef="0" IVar="-1" Cut="0.0000000000000000E+00" cType="1" res="4.9639310505919035E-02" rms="0.0e-00" purity="0.247737892718" nType="-99"/>
			 	 	 	 	</Node>
							<Node pos="r" depth="4" NCoef="0" IVar="2" Cut="6.1013579368591309E-01" cType="1" res="1.9266156464674507E-02" rms="0.0" purity="0.22295689457" nType="0">
								<Node pos="l" depth="5" NCoef="0" IVar="-1" Cut="0.0000000000000000E+00" cType="1" res="6.4199652378669966E-02" rms="0.0e-00" purity="0.235223700464" nType="-99"/>
								<Node pos="r" depth="5" NCoef="0" IVar="-1" Cut="0.0000000000000000E+00" cType="1" res="8.6716733978791580E-02" rms="0.0e-00" purity="0.213306940079" nType="-99"/>
			 	 	 	 	</Node>
			 	 	 	</Node>
			 	 	</Node>
					<Node pos="r" depth="2" NCoef="0" IVar="0" Cut="6.5531879663467407E-01" cType="1" res="2.8210314656165157E-02" rms="0.0" purity="0.133260104678" nType="0">
						<Node pos="l" depth="3" NCoef="0" IVar="1" Cut="-2.6974502205848694E-01" cType="1" res="2.4925291978359097E-02" rms="0.0" purity="0.172644500926" nType="0">
							<Node pos="l" depth="4" NCoef="0" IVar="1" Cut="-6.5854793787002563E-01" cType="1" res="1.4731639103927316E-02" rms="0.0" purity="0.226915159634" nType="0">
								<Node pos="l" depth="5" NCoef="0" IVar="-1" Cut="0.0000000000000000E+00" cType="1" res="3.6172709261734715E-02" rms="0.0e-00" purity="0.239400149345" nType="-99"/>
								<Node pos="r" depth="5" NCoef="0" IVar="-1" Cut="0.0000000000000000E+00" cType="1" res="7.5564164837079811E-02" rms="0.0e-00" purity="0.214595668055" nType="-99"/>
			 	 	 	 	</Node>
							<Node pos="r" depth="4" NCoef="0" IVar="0" Cut="5.1708126068115234E-01" cType="1" res="2.5851590856380124E-02" rms="0.0" purity="0.166682877548" nType="0">
								<Node pos="l" depth="5" NCoef="0" IVar="-1" Cut="0.0000000000000000E+00" cType="1" res="9.3692306165486128E-02" rms="0.0e-00" purity="0.187076847701" nType="-99"/>
								<Node pos="r" depth="5" NCoef="0" IVar="-1" Cut="0.0000000000000000E+00" cType="1" res="1.1070045190055929E-01" rms="0.0e-00" purity="0.152364002007" nType="-99"/>
			 	 	 	 	</Node>
			 	 	 	</Node>
						<Node pos="r" depth="3" NCoef="0" IVar="0" Cut="7.7599745988845825E-01" cType="1" res="3.2228497105720913E-02" rms="0.0" purity="0.0821512369746" nType="0">
							<Node pos="l" depth="4" NCoef="0" IVar="1" Cut="-1.7414864897727966E-01" cType="1" res="3.1069914011000264E-02" rms="0.0" purity="0.0984356805465" nType="0">
								<Node pos="l" depth="5" NCoef="0" IVar="-1" Cut="0.0000000000000000E+00" cType="1" res="1.0403809779394403E-01" rms="0.0e-00" purity="0.149717612741" nType="-99"/>
								<Node pos="r" depth="5" NCoef="0" IVar="-1" Cut="0.0000000000000000E+00" cType="1" res="1.2889201575631457E-01" rms="0.0e-00" purity="0.0951865532347" nType="-99"/>
			 	 	 	 	</Node>
							<Node pos="r" depth="4" NCoef="0" IVar="1" Cut="3.6547607183456421E-01" cType="1" res="3.4720239507321192E-02" rms="0.0" purity="0.0462190299809" nType="0">
								<Node pos="l" depth="5" NCoef="0" IVar="-1" Cut="0.0000000000000000E+00" cType="1" res="1.3302943877411566E-01" rms="0.0e-00" purity="0.0719576013822" nType="-99"/>
								<Node pos="r" depth="5" NCoef="0" IVar="-1" Cut="0.0000000000000000E+00" cType="1" res="1.4728308640680529E-01" rms="0.0e-00" purity="0.0416244532798" nType="-99"/>
			 	 	 	 	</Node>
			 	 	 	</Node>
			 	 	</Node>
			 	</Node>
			</Node>
		</BinaryTree>
		<BinaryTree type="DecisionTree" boostWeight="1.0" itree="7">
			<Node pos="s" depth="0" NCoef="0" IVar="0" Cut="-2.1631366014480591E-01" cType="1" res="-2.7537069876188179E-04" rms="0.0" purity="0.155646289285" nType="0">
				<Node pos="l" depth="1" NCoef="0" IVar="0" Cut="-4.7202721238136292E-01" cType="1" res="-7.6556078152269624E-03" rms="0.0" purity="0.115252812975" nType="0">
					<Node pos="l" depth="2" NCoef="0" IVar="0" Cut="-6.0621750354766846E-01" cType="1" res="-1.0648404129596820E-02" rms="0.0" purity="0.0751585285067" nType="0">
						<Node pos="l" depth="3" NCoef="0" IVar="0" Cut="-7.4793827533721924E-01" cType="1" res="-1.2158191221913018E-02" rms="0.0" purity="0.050834152419" nType="0">
							<Node pos="l" depth="4" NCoef="0" IVar="1" Cut="7.0493513345718384E-01" cType="1" res="-1.3760878236224905E-02" rms="0.0" purity="0.0294108374729" nType="0">
								<Node pos="l" depth="5" NCoef="0" IVar="-1" Cut="0.0000000000000000E+00" cType="1" res="-1.0009682829255169E-01" rms="0.0e-00" purity="0.0272354664991" nType="-99"/>
								<Node pos="r" depth="5" NCoef="0" IVar="-1" Cut="0.0000000000000000E+00" cType="1" res="-7.1275676256591675E-02" rms="0.0e-00" purity="0.0648070047638" nType="-99"/>
			 	 	 	 	</Node>
							<Node pos="r" depth="4" NCoef="0" IVar="1" Cut="-7.3132401704788208E-01" cType="1" res="-1.1594745808442828E-02" rms="0.0" purity="0.0582437470007" nType="0">
								<Node pos="l" depth="5" NCoef="0" IVar="-1" Cut="0.0000000000000000E+00" cType="1" res="-1.0472075734630326E-01" rms="0.0e-00" purity="0.0182853676763" nType="-99"/>
								<Node pos="r" depth="5" NCoef="0" IVar="-1" Cut="0.0000000000000000E+00" cType="1" res="-7.3970411636478689E-02" rms="0.0e-00" purity="0.067159272876" nType="-99"/>
			 	 	 	 	</Node>
			 	 	 	</Node>
						<Node pos="r" depth="3" NCoef="0" IVar="1" Cut="-2.4042508006095886E-01" cType="1" res="-8.9859771702824991E-03" rms="0.0" purity="0.101414747916" nType="0">
							<Node pos="l" depth="4" NCoef="0" IVar="1" Cut="-7.5276309251785278E-01" cType="1" res="-1.2134860593433196E-02" rms="0.0" purity="0.0565322172227" nType="0">
								<Node pos="l" depth="5" NCoef="0" IVar="-1" Cut="0.0000000000000000E+00" cType="1" res="-9.9099106516305241E-02" rms="0.0e-00" purity="0.0272551119086" nType="-99"/>
								<Node pos="r" depth="5" NCoef="0" IVar="-1" Cut="0.0000000000000000E+00" cType="1" res="-6.8987582956707552E-02" rms="0.0e-00" purity="0.0804307363009" nType="-99"/>
			 	 	 	 	</Node>
							<Node pos="r" depth="4" NCoef="0" IVar="1" Cut="7.4753797054290771E-01" cType="1" res="-7.5669975307979124E-03" rms="0.0" purity="0.120991968059" nType="0">
								<Node pos="l" depth="5" NCoef="0" IVar="-1" Cut="0.0000000000000000E+00" cType="1" res="-4.7267190565036796E-02" rms="0.0e-00" purity="0.11723378649" nType="-99"/>
								<Node pos="r" depth="5" NCoef="0" IVar="-1" Cut="0.0000000000000000E+00" cType="1" res="-1.1908904787380114E-02" rms="0.0e-00" purity="0.164800904542" nType="-99"/>
			 	 	 	 	</Node>
			 	 	 	</Node>
			 	 	</Node>
					<Node pos="r" depth="2" NCoef="0" IVar="1" Cut="-4.5524412393569946E-01" cType="1" res="-2.5500161423873003E-03" rms="0.0" purity="0.179517363966" nType="0">
						<Node pos="l" depth="3" NCoef="0" IVar="1" Cut="-7.9944813251495361E-01" cType="1" res="-1.0031659788553204E-02" rms="0.0" purity="0.0858339979191" nType="0">
							<Node pos="l" depth="4" NCoef="0" IVar="1" Cut="-9.1445100307464600E-01" cType="1" res="-1.2480116416391294E-02" rms="0.0" purity="0.0460352436944" nType="0">
								<Node pos="l" depth="5" NCoef="0" IVar="-1" Cut="0.0000000000000000E+00" cType="1" res="-9.9206991706883865E-02" rms="0.0e-00" purity="0.0277333855958" nType="-99"/>
								<Node pos="r" depth="5" NCoef="0" IVar="-1" Cut="0.0000000000000000E+00" cType="1" res="-7.6746516597787570E-02" rms="0.0e-00" purity="0.0624835834813" nType="-99"/>
			 	 	 	 	</Node>
							<Node pos="r" depth="4" NCoef="0" IVar="0" Cut="-2.9849064350128174E-01" cType="1" res="-7.6761389558674996E-03" rms="0.0" purity="0.12299052837" nType="0">
								<Node pos="l" depth="5" NCoef="0" IVar="-1" Cut="0.0000000000000000E+00" cType="1" res="-5.0605195782445184E-02" rms="0.0e-00" purity="0.112483463226" nType="-99"/>
								<Node pos="r" depth="5" NCoef="0" IVar="-1" Cut="0.0000000000000000E+00" cType="1" res="-2.3346125622251086E-02" rms="0.0e-00" purity="0.162772808669" nType="-99"/>
			 	 	 	 	</Node>
			 	 	 	</Node>
						<Node pos="r" depth="3" NCoef="0" IVar="0" Cut="-3.5894179344177246E-01" cType="1" res="-1.0381243522137431E-03" rms="0.0" purity="0.197089188891" nType="0">
							<Node pos="l" depth="4" NCoef="0" IVar="1" Cut="6.8227440118789673E-01" cType="1" res="-3.0770441286778957E-03" rms="0.0" purity="0.176646037296" nType="0">
								<Node pos="l" depth="5" NCoef="0" IVar="-1" Cut="0.0000000000000000E+00" cType="1" res="-2.0477300090989956E-02" rms="0.0e-00" purity="0.170711585993" nType="-99"/>
								<Node pos="r" depth="5" NCoef="0" IVar="-1" Cut="0.0000000000000000E+00" cType="1" res="5.8357578564331722E-03" rms="0.0e-00" purity="0.204336505563" nType="-99"/>
			 	 	 	 	</Node>
							<Node pos="r" depth="4" NCoef="0" IVar="1" Cut="7.3638153076171875E-01" cType="1" res="1.2932448392474055E-03" rms="0.0" purity="0.219445697717" nType="0">
								<Node pos="l" depth="5" NCoef="0" IVar="-1" Cut="0.0000000000000000E+00" cType="1" res="1.4018611240068967E-03" rms="0.0e-00" purity="0.214765310716" nType="-99"/>
								<Node pos="r" depth="5" NCoef="0" IVar="-1" Cut="0.0000000000000000E+00" cType="1" res="2.8287015133037482E-02" rms="0.0e-00" purity="0.240319423983" nType="-99"/>
			 	 	 	 	</Node>
			 	 	 	</Node>
			 	 	</Node>
			 	</Node>
				<Node pos="r" depth="1" NCoef="0" IVar="0" Cut="2.6201319694519043E-01" cType="1" res="1.5007331303008329E-02" rms="0.0" purity="0.204656401777" nType="0">
					<Node pos="l" depth="2" NCoef="0" IVar="1" Cut="-3.6481195688247681E-01" cType="1" res="7.8854762624629860E-03" rms="0.0" purity="0.236496874748" nType="0">
						<Node pos="l" depth="3" NCoef="0" IVar="1" Cut="-7.7062380313873291E-01" cType="1" res="-4.5019965512271935E-03" rms="0.0" purity="0.165406585368" nType="0">
							<Node pos="l" depth="4" NCoef="0" IVar="2" Cut="2.7474188804626465E-01" cType="1" res="-9.0852949851128167E-03" rms="0.0" purity="0.103189877137" nType="0">
								<Node pos="l" depth="5" NCoef="0" IVar="-1" Cut="0.0000000000000000E+00" cType="1" res="-3.0713786900009470E-02" rms="0.0e-00" purity="0.131236496473" nType="-99"/>
								<Node pos="r" depth="5" NCoef="0" IVar="-1" Cut="0.0000000000000000E+00" cType="1" res="-6.0756784429735144E-02" rms="0.0e-00" purity="0.0961438212846" nType="-99"/>
			 	 	 	 	</Node>
							<Node pos="r" depth="4" NCoef="0" IVar="0" Cut="1.4810109138488770E-01" cType="1" res="-9.5131876340097746E-04" rms="0.0" purity="0.210717708733" nType="0">
								<Node pos="l" depth="5" NCoef="0" IVar="-1" Cut="0.0000000000000000E+00" cType="1" res="-1.2038556953534143E-02" rms="0.0e-00" purity="0.202354859338" nType="-99"/>
								<Node pos="r" depth="5" NCoef="0" IVar="-1" Cut="0.0000000000000000E+00" cType="1" res="3.3570498142068236E-02" rms="0.0e-00" purity="0.246664328826" nType="-99"/>
			 	 	 	 	</Node>
			 	 	 	</Node>
						<Node pos="r" depth="3" NCoef="0" IVar="0" Cut="-1.2603282928466797E-02" cType="1" res="9.9192778697844170E-03" rms="0.0" purity="0.245235628401" nType="0">
							<Node pos="l" depth="4" NCoef="0" IVar="2" Cut="1.3066813945770264E+00" cType="1" res="7.2282114038212802E-03" rms="0.0" purity="0.245724696655" nType="0">
								<Node pos="l" depth="5" NCoef="0" IVar="-1" Cut="0.0000000000000000E+00" cType="1" res="2.6682419941276774E-02" rms="0.0e-00" purity="0.244616603523" nType="-99"/>
								<Node pos="r" depth="5" NCoef="0" IVar="-1" Cut="0.0000000000000000E+00" cType="1" res="5.1077502568187938E-02" rms="0.0e-00" purity="0.248220529087" nType="-99"/>
			 	 	 	 	</Node>
							<Node pos="r" depth="4" NCoef="0" IVar="2" Cut="8.1927657127380371E-01" cType="1" res="1.3122000790420613E-02" rms="0.0" purity="0.242765955439" nType="0">
								<Node pos="l" depth="5" NCoef="0" IVar="-1" Cut="0.0000000000000000E+00" cType="1" res="4.7531088282878997E-02" rms="0.0e-00" purity="0.246481043682" nType="-99"/>
								<Node pos="r" depth="5" NCoef="0" IVar="-1" Cut="0.0000000000000000E+00" cType="1" res="6.2349062652413217E-02" rms="0.0e-00" purity="0.236278593412" nType="-99"/>
			 	 	 	 	</Node>
			 	 	 	</Node>
			 	 	</Node>
					<Node pos="r" depth="2" NCoef="0" IVar="0" Cut="5.4534596204757690E-01" cType="1" res="2.3047631950255835E-02" rms="0.0" purity="0.156518902407" nType="0">
						<Node pos="l" depth="3" NCoef="0" IVar="1" Cut="-4.0578895807266235E-01" cType="1" res="1.8273547221249541E-02" rms="0.0" purity="0.20524609155" nType="0">
							<Node pos="l" depth="4" NCoef="0" IVar="1" Cut="-8.3090686798095703E-01" cType="1" res="3.6066859167050071E-03" rms="0.0" purity="0.222475736795" nType="0">
								<Node pos="l" depth="5" NCoef="0" IVar="-1" Cut="0.0000000000000000E+00" cType="1" res="-3.0599441818828906E-02" rms="0.0e-00" purity="0.163797587285" nType="-99"/>
								<Node pos="r" depth="5" NCoef="0" IVar="-1" Cut="0.0000000000000000E+00" cType="1" res="3.3592442198393760E-02" rms="0.0e-00" purity="0.243172794972" nType="-99"/>
			 	 	 	 	</Node>
							<Node pos="r" depth="4" NCoef="0" IVar="2" Cut="6.3025283813476562E-01" cType="1" res="1.9732584253024557E-02" rms="0.0" purity="0.201179284389" nType="0">
								<Node pos="l" depth="5" NCoef="0" IVar="-1" Cut="0.0000000000000000E+00" cType="1" res="6.5323156248294573E-02" rms="0.0e-00" purity="0.21881960354" nType="-99"/>
								<Node pos="r" depth="5" NCoef="0" IVar="-1" Cut="0.0000000000000000E+00" cType="1" res="8.7647980846027540E-02" rms="0.0e-00" purity="0.189517031369" nType="-99"/>
			 	 	 	 	</Node>
			 	 	 	</Node>
						<Node pos="r" depth="3" NCoef="0" IVar="0" Cut="6.6138982772827148E-01" cType="1" res="2.7146960023037535E-02" rms="0.0" purity="0.111041183785" nType="0">
							<Node pos="l" depth="4" NCoef="0" IVar="1" Cut="4.9925160408020020E-01" cType="1" res="2.4567495704853511E-02" rms="0.0" purity="0.152999615067" nType="0">
								<Node pos="l" depth="5" NCoef="0" IVar="-1" Cut="0.0000000000000000E+00" cType="1" res="9.0501843314860414E-02" rms="0.0e-00" purity="0.172237565086" nType="-99"/>
								<Node pos="r" depth="5" NCoef="0" IVar="-1" Cut="0.0000000000000000E+00" cType="1" res="1.0708321010279036E-01" rms="0.0e-00" purity="0.138963628333" nType="-99"/>
			 	 	 	 	</Node>
							<Node pos="r" depth="4" NCoef="0" IVar="0" Cut="8.0266630649566650E-01" cType="1" res="2.8803513278401992E-02" rms="0.0" purity="0.0833934143579" nType="0">
								<Node pos="l" depth="5" NCoef="0" IVar="-1" Cut="0.0000000000000000E+00" cType="1" res="1.1871011546411656E-01" rms="0.0e-00" purity="0.0937391636884" nType="-99"/>
								<Node pos="r" depth="5" NCoef="0" IVar="-1" Cut="0.0000000000000000E+00" cType="1" res="1.3723155034637741E-01" rms="0.0e-00" purity="0.0407780626352" nType="-99"/>
			 	 	 	 	</Node>
			 	 	 	</Node>
			 	 	</Node>
			 	</Node>
			</Node>
		</BinaryTree>
		<BinaryTree type="DecisionTree" boostWeight="1.0" itree="8">
			<Node pos="s" depth="0" NCoef="0" IVar="0" Cut="-1.1348581314086914E-01" cType="1" res="-2.1314843568525179E-05" rms="0.0" purity="0.153563854595" nType="0">
				<Node pos="l" depth="1" NCoef="0" IVar="0" Cut="-4.4979161024093628E-01" cType="1" res="-5.9429953219786160E-03" rms="0.0" purity="0.125475343846" nType="0">
					<Node pos="l" depth="2" NCoef="0" IVar="0" Cut="-5.5531060695648193E-01" cType="1" res="-9.0919673827131852E-03" rms="0.0" purity="0.0815778143179" nType="0">
						<Node pos="l" depth="3" NCoef="0" IVar="0" Cut="-7.1926450729370117E-01" cType="1" res="-1.0413741775942701E-02" rms="0.0" purity="0.0604837786952" nType="0">
							<Node pos="l" depth="4" NCoef="0" IVar="0" Cut="-8.2179880142211914E-01" cType="1" res="-1.1982098556346606E-02" rms="0.0" purity="0.0344539318659" nType="0">
								<Node pos="l" depth="5" NCoef="0" IVar="-1" Cut="0.0000000000000000E+00" cType="1" res="-1.0735313196179756E-01" rms="0.0e-00" purity="0.0142944535343" nType="-99"/>
								<Node pos="r" depth="5" NCoef="0" IVar="-1" Cut="0.0000000000000000E+00" cType="1" res="-8.7314886269313080E-02" rms="0.0e-00" purity="0.0391593604912" nType="-99"/>
			 	 	 	 	</Node>
							<Node pos="r" depth="4" NCoef="0" IVar="1" Cut="-7.9362672567367554E-01" cType="1" res="-9.8021261148358903E-03" rms="0.0" purity="0.0705013667433" nType="0">
								<Node pos="l" depth="5" NCoef="0" IVar="-1" Cut="0.0000000000000000E+00" cType="1" res="-1.0205357868887333E-01" rms="0.0e-00" purity="0.0178899016786" nType="-99"/>
								<Node pos="r" depth="5" NCoef="0" IVar="-1" Cut="0.0000000000000000E+00" cType="1" res="-6.2870844513074106E-02" rms="0.0e-00" purity="0.0797453773356" nType="-99"/>
			 	 	 	 	</Node>
			 	 	 	</Node>
						<Node pos="r" depth="3" NCoef="0" IVar="1" Cut="-2.2428730130195618E-01" cType="1" res="-6.5615390373868947E-03" rms="0.0" purity="0.120985838" nType="0">
							<Node pos="l" depth="4" NCoef="0" IVar="1" Cut="-8.4122282266616821E-01" cType="1" res="-1.0049955834016817E-02" rms="0.0" purity="0.0703547769974" nType="0">
								<Node pos="l" depth="5" NCoef="0" IVar="-1" Cut="0.0000000000000000E+00" cType="1" res="-9.5762684128124304E-02" rms="0.0e-00" purity="0.0272578698502" nType="-99"/>
								<Node pos="r" depth="5" NCoef="0" IVar="-1" Cut="0.0000000000000000E+00" cType="1" res="-5.8252478313400052E-02" rms="0.0e-00" purity="0.0907903696607" nType="-99"/>
			 	 	 	 	</Node>
							<Node pos="r" depth="4" NCoef="0" IVar="1" Cut="7.6479446887969971E-01" cType="1" res="-5.1029918916564530E-03" rms="0.0" purity="0.14143372836" nType="0">
								<Node pos="l" depth="5" NCoef="0" IVar="-1" Cut="0.0000000000000000E+00" cType="1" res="-3.1425617296094333E-02" rms="0.0e-00" purity="0.13861076494" nType="-99"/>
								<Node pos="r" depth="5" NCoef="0" IVar="-1" Cut="0.0000000000000000E+00" cType="1" res="-6.6299035233715036E-03" rms="0.0e-00" purity="0.176594584434" nType="-99"/>
			 	 	 	 	</Node>
			 	 	 	</Node>
			 	 	</Node>
					<Node pos="r" depth="2" NCoef="0" IVar="1" Cut="-3.2146948575973511E-01" cType="1" res="-7.1464592251988597E-04" rms="0.0" purity="0.193980004343" nType="0">
						<Node pos="l" depth="3" NCoef="0" IVar="1" Cut="-7.4105292558670044E-01" cType="1" res="-7.9882117119707621E-03" rms="0.0" purity="0.109359236267" nType="0">
							<Node pos="l" depth="4" NCoef="0" IVar="0" Cut="-3.1946870684623718E-01" cType="1" res="-1.0433927255916379E-02" rms="0.0" purity="0.0628018797432" nType="0">
								<Node pos="l" depth="5" NCoef="0" IVar="-1" Cut="0.0000000000000000E+00" cType="1" res="-8.2590726246516158E-02" rms="0.0e-00" purity="0.049199310177" nType="-99"/>
								<Node pos="r" depth="5" NCoef="0" IVar="-1" Cut="0.0000000000000000E+00" cType="1" res="-6.0342230202344575E-02" rms="0.0e-00" purity="0.082352677388" nType="-99"/>
			 	 	 	 	</Node>
							<Node pos="r" depth="4" NCoef="0" IVar="2" Cut="7.6223355531692505E-01" cType="1" res="-5.7385700118556520E-03" rms="0.0" purity="0.151127786599" nType="0">
								<Node pos="l" depth="5" NCoef="0" IVar="-1" Cut="0.0000000000000000E+00" cType="1" res="-2.5951929198199285E-02" rms="0.0e-00" purity="0.156197941322" nType="-99"/>
								<Node pos="r" depth="5" NCoef="0" IVar="-1" Cut="0.0000000000000000E+00" cType="1" res="-5.0304510797897994E-02" rms="0.0e-00" purity="0.130504297249" nType="-99"/>
			 	 	 	 	</Node>
			 	 	 	</Node>
						<Node pos="r" depth="3" NCoef="0" IVar="0" Cut="-3.0382034182548523E-01" cType="1" res="9.8659931051262180E-04" rms="0.0" purity="0.212245480188" nType="0">
							<Node pos="l" depth="4" NCoef="0" IVar="1" Cut="6.4402365684509277E-01" cType="1" res="-1.5483577865630295E-03" rms="0.0" purity="0.191728091941" nType="0">
								<Node pos="l" depth="5" NCoef="0" IVar="-1" Cut="0.0000000000000000E+00" cType="1" res="-1.1918699088689207E-02" rms="0.0e-00" purity="0.185388416225" nType="-99"/>
								<Node pos="r" depth="5" NCoef="0" IVar="-1" Cut="0.0000000000000000E+00" cType="1" res="5.2890343978130401E-03" rms="0.0e-00" purity="0.211733233659" nType="-99"/>
			 	 	 	 	</Node>
							<Node pos="r" depth="4" NCoef="0" IVar="2" Cut="1.0208530426025391E+00" cType="1" res="4.1426189707955878E-03" rms="0.0" purity="0.235993529516" nType="0">
								<Node pos="l" depth="5" NCoef="0" IVar="-1" Cut="0.0000000000000000E+00" cType="1" res="1.1941179213965871E-02" rms="0.0e-00" purity="0.231355117445" nType="-99"/>
								<Node pos="r" depth="5" NCoef="0" IVar="-1" Cut="0.0000000000000000E+00" cType="1" res="3.4098125211242510E-02" rms="0.0e-00" purity="0.245984808016" nType="-99"/>
			 	 	 	 	</Node>
			 	 	 	</Node>
			 	 	</Node>
			 	</Node>
				<Node pos="r" depth="1" NCoef="0" IVar="0" Cut="4.6069961786270142E-01" cType="1" res="1.5830580014259729E-02" rms="0.0" purity="0.194239450168" nType="0">
					<Node pos="l" depth="2" NCoef="0" IVar="1" Cut="-4.7664260864257812E-01" cType="1" res="1.1157678212533446E-02" rms="0.0" purity="0.230707109266" nType="0">
						<Node pos="l" depth="3" NCoef="0" IVar="1" Cut="-8.7908667325973511E-01" cType="1" res="-2.6120338374921556E-03" rms="0.0" purity="0.175679985487" nType="0">
							<Node pos="l" depth="4" NCoef="0" IVar="2" Cut="4.5252478122711182E-01" cType="1" res="-9.9904795470312502E-03" rms="0.0" purity="0.0902489623687" nType="0">
								<Node pos="l" depth="5" NCoef="0" IVar="-1" Cut="0.0000000000000000E+00" cType="1" res="-4.5458022779326770E-02" rms="0.0e-00" purity="0.109650737083" nType="-99"/>
								<Node pos="r" depth="5" NCoef="0" IVar="-1" Cut="0.0000000000000000E+00" cType="1" res="-7.5367209989314787E-02" rms="0.0e-00" purity="0.0754043193932" nType="-99"/>
			 	 	 	 	</Node>
							<Node pos="r" depth="4" NCoef="0" IVar="0" Cut="-5.2246898412704468E-02" cType="1" res="7.0463202948046978E-04" rms="0.0" purity="0.210534650492" nType="0">
								<Node pos="l" depth="5" NCoef="0" IVar="-1" Cut="0.0000000000000000E+00" cType="1" res="-2.5574751067689971E-02" rms="0.0e-00" purity="0.170940321317" nType="-99"/>
								<Node pos="r" depth="5" NCoef="0" IVar="-1" Cut="0.0000000000000000E+00" cType="1" res="8.8612846823590379E-03" rms="0.0e-00" purity="0.217827378776" nType="-99"/>
			 	 	 	 	</Node>
			 	 	 	</Node>
						<Node pos="r" depth="3" NCoef="0" IVar="0" Cut="2.1177494525909424E-01" cType="1" res="1.2767000774715875E-02" rms="0.0" purity="0.234663371531" nType="0">
							<Node pos="l" depth="4" NCoef="0" IVar="1" Cut="6.2623649835586548E-02" cType="1" res="1.0378419664944785E-02" rms="0.0" purity="0.245951588544" nType="0">
								<Node pos="l" depth="5" NCoef="0" IVar="-1" Cut="0.0000000000000000E+00" cType="1" res="2.5592147544593824E-02" rms="0.0e-00" purity="0.247084012389" nType="-99"/>
