
        <?xml version="1.0"?>
        <MethodSetup Method="BDT::bdt">
        <GeneralInfo>
        <Info name="TMVA Release" value=""/>
        <Info name="ROOT Release" value=""/>
        <Info name="Creator" value="mlglue"/>
        <Info name="Date" value=""/>
        <Info name="Host" value=""/>
        <Info name="Dir" value=""/>
        <Info name="Training events" value="-1"/>
        <Info name="TrainingTime" value="-1"/>
        <Info name="AnalysisType" value="Multiclass"/>
        </GeneralInfo>
        <Options>
        <Option name="NTrees" modified="Yes">1000</Option>
        <Option name="MaxDepth" modified="Yes">3</Option>
        <Option name="BoostType" modified="Yes">Grad</Option>
        <Option name="Shrinkage" modified="Yes">0.2</Option>
        <Option name="UseNvars" modified="Yes">16</Option>
        </Options>

        <Variables NVar="16">
        <Variable VarIndex="0" Expression="leadingJet_bDis" Label="leadingJet_bDis" Title="leadingJet_bDis" Unit="" Internal="leadingJet_bDis" Type="F" Min="0.0000000000000000000000000000000000000000000000000000000000000000E+00" Max="0.0000000000000000000000000000000000000000000000000000000000000000E+00"/>
<Variable VarIndex="1" Expression="subleadingJet_bDis" Label="subleadingJet_bDis" Title="subleadingJet_bDis" Unit="" Internal="subleadingJet_bDis" Type="F" Min="0.0000000000000000000000000000000000000000000000000000000000000000E+00" Max="0.0000000000000000000000000000000000000000000000000000000000000000E+00"/>
<Variable VarIndex="2" Expression="absCosThetaStar_CS" Label="absCosThetaStar_CS" Title="absCosThetaStar_CS" Unit="" Internal="absCosThetaStar_CS" Type="F" Min="0.0000000000000000000000000000000000000000000000000000000000000000E+00" Max="0.0000000000000000000000000000000000000000000000000000000000000000E+00"/>
<Variable VarIndex="3" Expression="absCosTheta_bb" Label="absCosTheta_bb" Title="absCosTheta_bb" Unit="" Internal="absCosTheta_bb" Type="F" Min="0.0000000000000000000000000000000000000000000000000000000000000000E+00" Max="0.0000000000000000000000000000000000000000000000000000000000000000E+00"/>
<Variable VarIndex="4" Expression="absCosTheta_gg" Label="absCosTheta_gg" Title="absCosTheta_gg" Unit="" Internal="absCosTheta_gg" Type="F" Min="0.0000000000000000000000000000000000000000000000000000000000000000E+00" Max="0.0000000000000000000000000000000000000000000000000000000000000000E+00"/>
<Variable VarIndex="5" Expression="diphotonCandidatePtOverdiHiggsM" Label="diphotonCandidatePtOverdiHiggsM" Title="diphotonCandidatePtOverdiHiggsM" Unit="" Internal="diphotonCandidatePtOverdiHiggsM" Type="F" Min="0.0000000000000000000000000000000000000000000000000000000000000000E+00" Max="0.0000000000000000000000000000000000000000000000000000000000000000E+00"/>
<Variable VarIndex="6" Expression="dijetCandidatePtOverdiHiggsM" Label="dijetCandidatePtOverdiHiggsM" Title="dijetCandidatePtOverdiHiggsM" Unit="" Internal="dijetCandidatePtOverdiHiggsM" Type="F" Min="0.0000000000000000000000000000000000000000000000000000000000000000E+00" Max="0.0000000000000000000000000000000000000000000000000000000000000000E+00"/>
<Variable VarIndex="7" Expression="customLeadingPhotonIDMVA" Label="customLeadingPhotonIDMVA" Title="customLeadingPhotonIDMVA" Unit="" Internal="customLeadingPhotonIDMVA" Type="F" Min="0.0000000000000000000000000000000000000000000000000000000000000000E+00" Max="0.0000000000000000000000000000000000000000000000000000000000000000E+00"/>
<Variable VarIndex="8" Expression="customSubLeadingPhotonIDMVA" Label="customSubLeadingPhotonIDMVA" Title="customSubLeadingPhotonIDMVA" Unit="" Internal="customSubLeadingPhotonIDMVA" Type="F" Min="0.0000000000000000000000000000000000000000000000000000000000000000E+00" Max="0.0000000000000000000000000000000000000000000000000000000000000000E+00"/>
<Variable VarIndex="9" Expression="leadingPhotonSigOverE" Label="leadingPhotonSigOverE" Title="leadingPhotonSigOverE" Unit="" Internal="leadingPhotonSigOverE" Type="F" Min="0.0000000000000000000000000000000000000000000000000000000000000000E+00" Max="0.0000000000000000000000000000000000000000000000000000000000000000E+00"/>
<Variable VarIndex="10" Expression="subleadingPhotonSigOverE" Label="subleadingPhotonSigOverE" Title="subleadingPhotonSigOverE" Unit="" Internal="subleadingPhotonSigOverE" Type="F" Min="0.0000000000000000000000000000000000000000000000000000000000000000E+00" Max="0.0000000000000000000000000000000000000000000000000000000000000000E+00"/>
<Variable VarIndex="11" Expression="sigmaMOverMDecorr" Label="sigmaMOverMDecorr" Title="sigmaMOverMDecorr" Unit="" Internal="sigmaMOverMDecorr" Type="F" Min="0.0000000000000000000000000000000000000000000000000000000000000000E+00" Max="0.0000000000000000000000000000000000000000000000000000000000000000E+00"/>
<Variable VarIndex="12" Expression="PhoJetMinDr" Label="PhoJetMinDr" Title="PhoJetMinDr" Unit="" Internal="PhoJetMinDr" Type="F" Min="0.0000000000000000000000000000000000000000000000000000000000000000E+00" Max="0.0000000000000000000000000000000000000000000000000000000000000000E+00"/>
<Variable VarIndex="13" Expression="(leadingJet_bRegNNResolution*1.4826)" Label="(leadingJet_bRegNNResolution*1.4826)" Title="(leadingJet_bRegNNResolution*1.4826)" Unit="" Internal="_leadingJet_bRegNNResolution*1.4826_" Type="F" Min="0.0000000000000000000000000000000000000000000000000000000000000000E+00" Max="0.0000000000000000000000000000000000000000000000000000000000000000E+00"/>
<Variable VarIndex="14" Expression="(subleadingJet_bRegNNResolution*1.4826)" Label="(subleadingJet_bRegNNResolution*1.4826)" Title="(subleadingJet_bRegNNResolution*1.4826)" Unit="" Internal="_subleadingJet_bRegNNResolution*1.4826_" Type="F" Min="0.0000000000000000000000000000000000000000000000000000000000000000E+00" Max="0.0000000000000000000000000000000000000000000000000000000000000000E+00"/>
<Variable VarIndex="15" Expression="(sigmaMJets*1.4826)" Label="(sigmaMJets*1.4826)" Title="(sigmaMJets*1.4826)" Unit="" Internal="_sigmaMJets*1.4826_" Type="F" Min="0.0000000000000000000000000000000000000000000000000000000000000000E+00" Max="0.0000000000000000000000000000000000000000000000000000000000000000E+00"/>

        </Variables>

        <Classes NClass="3">
        <Class Name="Background" Index="0"/>
<Class Name="Background2" Index="1"/>
<Class Name="Signal" Index="2"/>

        </Classes>

        <Targets NTrgt="0">
        
        </Targets>

        <Transformations NTransformations="0"/>
        <MVAPdfs/>
        <Weights NTrees="1000" AnalysisType="1">
        <BinaryTree type="DecisionTree" boostWeight="0.0" itree="0">
    <Node pos="c" depth="1" NCoef="0"     IVar="0" Cut="     7.947450E-01" cType="1"     res="     0.000000E+00" rms="0.0"     purity="0.00000000E+00" nType="0">
        <Node pos="l" depth="2" NCoef="0"     IVar="5" Cut="     3.627650E-01" cType="1"     res="     0.000000E+00" rms="0.0"     purity="0.00000000E+00" nType="0">
            <Node pos="l" depth="3" NCoef="0"     IVar="1" Cut="     8.887550E-01" cType="1"     res="     0.000000E+00" rms="0.0"     purity="0.00000000E+00" nType="0">
                <Node pos="l" depth="4" NCoef="0"     IVar="-1" Cut="     0.000000E+00" cType="1"     res="    -1.264940E-01" rms="0.0e-00"     purity="0.00000000E+00" nType="-99">
                </Node>
                <Node pos="r" depth="4" NCoef="0"     IVar="-1" Cut="     0.000000E+00" cType="1"     res="     2.777360E-02" rms="0.0e-00"     purity="0.00000000E+00" nType="-99">
                </Node>
            </Node>
            <Node pos="r" depth="3" NCoef="0"     IVar="1" Cut="     5.576650E-01" cType="1"     res="     0.000000E+00" rms="0.0"     purity="0.00000000E+00" nType="0">
                <Node pos="l" depth="4" NCoef="0"     IVar="-1" Cut="     0.000000E+00" cType="1"     res="    -6.848220E-03" rms="0.0e-00"     purity="0.00000000E+00" nType="-99">
                </Node>
                <Node pos="r" depth="4" NCoef="0"     IVar="-1" Cut="     0.000000E+00" cType="1"     res="     9.550950E-02" rms="0.0e-00"     purity="0.00000000E+00" nType="-99">
                </Node>
            </Node>
        </Node>
        <Node pos="r" depth="2" NCoef="0"     IVar="5" Cut="     2.218750E-01" cType="1"     res="     0.000000E+00" rms="0.0"     purity="0.00000000E+00" nType="0">
            <Node pos="l" depth="3" NCoef="0"     IVar="1" Cut="     6.093350E-01" cType="1"     res="     0.000000E+00" rms="0.0"     purity="0.00000000E+00" nType="0">
                <Node pos="l" depth="4" NCoef="0"     IVar="-1" Cut="     0.000000E+00" cType="1"     res="    -2.387440E-02" rms="0.0e-00"     purity="0.00000000E+00" nType="-99">
                </Node>
                <Node pos="r" depth="4" NCoef="0"     IVar="-1" Cut="     0.000000E+00" cType="1"     res="     4.487400E-02" rms="0.0e-00"     purity="0.00000000E+00" nType="-99">
                </Node>
            </Node>
            <Node pos="r" depth="3" NCoef="0"     IVar="13" Cut="     2.148350E-01" cType="1"     res="     0.000000E+00" rms="0.0"     purity="0.00000000E+00" nType="0">
                <Node pos="l" depth="4" NCoef="0"     IVar="-1" Cut="     0.000000E+00" cType="1"     res="     1.848500E-01" rms="0.0e-00"     purity="0.00000000E+00" nType="-99">
                </Node>
                <Node pos="r" depth="4" NCoef="0"     IVar="-1" Cut="     0.000000E+00" cType="1"     res="     7.964310E-03" rms="0.0e-00"     purity="0.00000000E+00" nType="-99">
                </Node>
            </Node>
        </Node>
    </Node>
</BinaryTree>
<BinaryTree type="DecisionTree" boostWeight="0.0" itree="1">
    <Node pos="c" depth="1" NCoef="0"     IVar="0" Cut="     7.881250E-01" cType="1"     res="     0.000000E+00" rms="0.0"     purity="0.00000000E+00" nType="0">
        <Node pos="l" depth="2" NCoef="0"     IVar="5" Cut="     3.794850E-01" cType="1"     res="     0.000000E+00" rms="0.0"     purity="0.00000000E+00" nType="0">
            <Node pos="l" depth="3" NCoef="0"     IVar="1" Cut="     8.887550E-01" cType="1"     res="     0.000000E+00" rms="0.0"     purity="0.00000000E+00" nType="0">
                <Node pos="l" depth="4" NCoef="0"     IVar="-1" Cut="     0.000000E+00" cType="1"     res="    -1.166290E-01" rms="0.0e-00"     purity="0.00000000E+00" nType="-99">
                </Node>
                <Node pos="r" depth="4" NCoef="0"     IVar="-1" Cut="     0.000000E+00" cType="1"     res="     2.915080E-02" rms="0.0e-00"     purity="0.00000000E+00" nType="-99">
                </Node>
            </Node>
            <Node pos="r" depth="3" NCoef="0"     IVar="15" Cut="     1.234250E-01" cType="1"     res="     0.000000E+00" rms="0.0"     purity="0.00000000E+00" nType="0">
                <Node pos="l" depth="4" NCoef="0"     IVar="-1" Cut="     0.000000E+00" cType="1"     res="     8.064060E-02" rms="0.0e-00"     purity="0.00000000E+00" nType="-99">
                </Node>
                <Node pos="r" depth="4" NCoef="0"     IVar="-1" Cut="     0.000000E+00" cType="1"     res="    -6.371020E-03" rms="0.0e-00"     purity="0.00000000E+00" nType="-99">
                </Node>
            </Node>
        </Node>
        <Node pos="r" depth="2" NCoef="0"     IVar="13" Cut="     1.396550E-01" cType="1"     res="     0.000000E+00" rms="0.0"     purity="0.00000000E+00" nType="0">
            <Node pos="l" depth="3" NCoef="0"     IVar="2" Cut="     9.444300E-01" cType="1"     res="     0.000000E+00" rms="0.0"     purity="0.00000000E+00" nType="0">
                <Node pos="l" depth="4" NCoef="0"     IVar="-1" Cut="     0.000000E+00" cType="1"     res="     1.573590E-01" rms="0.0e-00"     purity="0.00000000E+00" nType="-99">
                </Node>
                <Node pos="r" depth="4" NCoef="0"     IVar="-1" Cut="     0.000000E+00" cType="1"     res="     5.722820E-03" rms="0.0e-00"     purity="0.00000000E+00" nType="-99">
                </Node>
            </Node>
            <Node pos="r" depth="3" NCoef="0"     IVar="5" Cut="     2.547050E-01" cType="1"     res="     0.000000E+00" rms="0.0"     purity="0.00000000E+00" nType="0">
                <Node pos="l" depth="4" NCoef="0"     IVar="-1" Cut="     0.000000E+00" cType="1"     res="    -2.278870E-02" rms="0.0e-00"     purity="0.00000000E+00" nType="-99">
                </Node>
                <Node pos="r" depth="4" NCoef="0"     IVar="-1" Cut="     0.000000E+00" cType="1"     res="     3.637930E-02" rms="0.0e-00"     purity="0.00000000E+00" nType="-99">
                </Node>
            </Node>
        </Node>
    </Node>
</BinaryTree>
<BinaryTree type="DecisionTree" boostWeight="0.0" itree="2">
    <Node pos="c" depth="1" NCoef="0"     IVar="5" Cut="     3.248750E-01" cType="1"     res="     0.000000E+00" rms="0.0"     purity="0.00000000E+00" nType="0">
        <Node pos="l" depth="2" NCoef="0"     IVar="0" Cut="     8.866950E-01" cType="1"     res="     0.000000E+00" rms="0.0"     purity="0.00000000E+00" nType="0">
            <Node pos="l" depth="3" NCoef="0"     IVar="1" Cut="     8.974550E-01" cType="1"     res="     0.000000E+00" rms="0.0"     purity="0.00000000E+00" nType="0">
                <Node pos="l" depth="4" NCoef="0"     IVar="-1" Cut="     0.000000E+00" cType="1"     res="    -1.100330E-01" rms="0.0e-00"     purity="0.00000000E+00" nType="-99">
                </Node>
                <Node pos="r" depth="4" NCoef="0"     IVar="-1" Cut="     0.000000E+00" cType="1"     res="     2.597960E-02" rms="0.0e-00"     purity="0.00000000E+00" nType="-99">
                </Node>
            </Node>
            <Node pos="r" depth="3" NCoef="0"     IVar="15" Cut="     1.396250E-01" cType="1"     res="     0.000000E+00" rms="0.0"     purity="0.00000000E+00" nType="0">
                <Node pos="l" depth="4" NCoef="0"     IVar="-1" Cut="     0.000000E+00" cType="1"     res="     7.015150E-02" rms="0.0e-00"     purity="0.00000000E+00" nType="-99">
                </Node>
                <Node pos="r" depth="4" NCoef="0"     IVar="-1" Cut="     0.000000E+00" cType="1"     res="     1.515310E-03" rms="0.0e-00"     purity="0.00000000E+00" nType="-99">
                </Node>
            </Node>
        </Node>
        <Node pos="r" depth="2" NCoef="0"     IVar="0" Cut="     4.097150E-01" cType="1"     res="     0.000000E+00" rms="0.0"     purity="0.00000000E+00" nType="0">
            <Node pos="l" depth="3" NCoef="0"     IVar="1" Cut="     7.385150E-01" cType="1"     res="     0.000000E+00" rms="0.0"     purity="0.00000000E+00" nType="0">
                <Node pos="l" depth="4" NCoef="0"     IVar="-1" Cut="     0.000000E+00" cType="1"     res="    -3.281790E-02" rms="0.0e-00"     purity="0.00000000E+00" nType="-99">
                </Node>
                <Node pos="r" depth="4" NCoef="0"     IVar="-1" Cut="     0.000000E+00" cType="1"     res="     4.287460E-02" rms="0.0e-00"     purity="0.00000000E+00" nType="-99">
                </Node>
            </Node>
            <Node pos="r" depth="3" NCoef="0"     IVar="13" Cut="     1.911550E-01" cType="1"     res="     0.000000E+00" rms="0.0"     purity="0.00000000E+00" nType="0">
                <Node pos="l" depth="4" NCoef="0"     IVar="-1" Cut="     0.000000E+00" cType="1"     res="     1.432120E-01" rms="0.0e-00"     purity="0.00000000E+00" nType="-99">
                </Node>
                <Node pos="r" depth="4" NCoef="0"     IVar="-1" Cut="     0.000000E+00" cType="1"     res="     4.811080E-03" rms="0.0e-00"     purity="0.00000000E+00" nType="-99">
                </Node>
            </Node>
        </Node>
    </Node>
</BinaryTree>
<BinaryTree type="DecisionTree" boostWeight="0.0" itree="3">
    <Node pos="c" depth="1" NCoef="0"     IVar="1" Cut="     7.846750E-01" cType="1"     res="     0.000000E+00" rms="0.0"     purity="0.00000000E+00" nType="0">
        <Node pos="l" depth="2" NCoef="0"     IVar="0" Cut="     8.603750E-01" cType="1"     res="     0.000000E+00" rms="0.0"     purity="0.00000000E+00" nType="0">
            <Node pos="l" depth="3" NCoef="0"     IVar="5" Cut="     4.030450E-01" cType="1"     res="     0.000000E+00" rms="0.0"     purity="0.00000000E+00" nType="0">
                <Node pos="l" depth="4" NCoef="0"     IVar="-1" Cut="     0.000000E+00" cType="1"     res="    -1.031600E-01" rms="0.0e-00"     purity="0.00000000E+00" nType="-99">
                </Node>
                <Node pos="r" depth="4" NCoef="0"     IVar="-1" Cut="     0.000000E+00" cType="1"     res="     2.111580E-02" rms="0.0e-00"     purity="0.00000000E+00" nType="-99">
                </Node>
            </Node>
            <Node pos="r" depth="3" NCoef="0"     IVar="5" Cut="     2.418350E-01" cType="1"     res="     0.000000E+00" rms="0.0"     purity="0.00000000E+00" nType="0">
                <Node pos="l" depth="4" NCoef="0"     IVar="-1" Cut="     0.000000E+00" cType="1"     res="    -3.595780E-03" rms="0.0e-00"     purity="0.00000000E+00" nType="-99">
                </Node>
                <Node pos="r" depth="4" NCoef="0"     IVar="-1" Cut="     0.000000E+00" cType="1"     res="     7.689650E-02" rms="0.0e-00"     purity="0.00000000E+00" nType="-99">
                </Node>
            </Node>
        </Node>
        <Node pos="r" depth="2" NCoef="0"     IVar="13" Cut="     1.535150E-01" cType="1"     res="     0.000000E+00" rms="0.0"     purity="0.00000000E+00" nType="0">
            <Node pos="l" depth="3" NCoef="0"     IVar="0" Cut="     1.418850E-01" cType="1"     res="     0.000000E+00" rms="0.0"     purity="0.00000000E+00" nType="0">
                <Node pos="l" depth="4" NCoef="0"     IVar="-1" Cut="     0.000000E+00" cType="1"     res="     4.255470E-03" rms="0.0e-00"     purity="0.00000000E+00" nType="-99">
                </Node>
                <Node pos="r" depth="4" NCoef="0"     IVar="-1" Cut="     0.000000E+00" cType="1"     res="     1.337940E-01" rms="0.0e-00"     purity="0.00000000E+00" nType="-99">
                </Node>
            </Node>
            <Node pos="r" depth="3" NCoef="0"     IVar="0" Cut="     5.671150E-01" cType="1"     res="     0.000000E+00" rms="0.0"     purity="0.00000000E+00" nType="0">
                <Node pos="l" depth="4" NCoef="0"     IVar="-1" Cut="     0.000000E+00" cType="1"     res="    -1.663050E-02" rms="0.0e-00"     purity="0.00000000E+00" nType="-99">
                </Node>
                <Node pos="r" depth="4" NCoef="0"     IVar="-1" Cut="     0.000000E+00" cType="1"     res="     2.560320E-02" rms="0.0e-00"     purity="0.00000000E+00" nType="-99">
                </Node>
            </Node>
        </Node>
    </Node>
</BinaryTree>
<BinaryTree type="DecisionTree" boostWeight="0.0" itree="4">
    <Node pos="c" depth="1" NCoef="0"     IVar="5" Cut="     3.123950E-01" cType="1"     res="     0.000000E+00" rms="0.0"     purity="0.00000000E+00" nType="0">
        <Node pos="l" depth="2" NCoef="0"     IVar="0" Cut="     8.899150E-01" cType="1"     res="     0.000000E+00" rms="0.0"     purity="0.00000000E+00" nType="0">
            <Node pos="l" depth="3" NCoef="0"     IVar="1" Cut="     9.132750E-01" cType="1"     res="     0.000000E+00" rms="0.0"     purity="0.00000000E+00" nType="0">
                <Node pos="l" depth="4" NCoef="0"     IVar="-1" Cut="     0.000000E+00" cType="1"     res="    -9.899870E-02" rms="0.0e-00"     purity="0.00000000E+00" nType="-99">
                </Node>
                <Node pos="r" depth="4" NCoef="0"     IVar="-1" Cut="     0.000000E+00" cType="1"     res="     2.287290E-02" rms="0.0e-00"     purity="0.00000000E+00" nType="-99">
                </Node>
            </Node>
            <Node pos="r" depth="3" NCoef="0"     IVar="1" Cut="     5.562900E-01" cType="1"     res="     0.000000E+00" rms="0.0"     purity="0.00000000E+00" nType="0">
                <Node pos="l" depth="4" NCoef="0"     IVar="-1" Cut="     0.000000E+00" cType="1"     res="     3.461940E-03" rms="0.0e-00"     purity="0.00000000E+00" nType="-99">
                </Node>
                <Node pos="r" depth="4" NCoef="0"     IVar="-1" Cut="     0.000000E+00" cType="1"     res="     5.891850E-02" rms="0.0e-00"     purity="0.00000000E+00" nType="-99">
                </Node>
            </Node>
        </Node>
        <Node pos="r" depth="2" NCoef="0"     IVar="0" Cut="     5.573300E-01" cType="1"     res="     0.000000E+00" rms="0.0"     purity="0.00000000E+00" nType="0">
            <Node pos="l" depth="3" NCoef="0"     IVar="1" Cut="     5.585850E-01" cType="1"     res="     0.000000E+00" rms="0.0"     purity="0.00000000E+00" nType="0">
                <Node pos="l" depth="4" NCoef="0"     IVar="-1" Cut="     0.000000E+00" cType="1"     res="    -3.104160E-02" rms="0.0e-00"     purity="0.00000000E+00" nType="-99">
                </Node>
                <Node pos="r" depth="4" NCoef="0"     IVar="-1" Cut="     0.000000E+00" cType="1"     res="     4.886530E-02" rms="0.0e-00"     purity="0.00000000E+00" nType="-99">
                </Node>
            </Node>
            <Node pos="r" depth="3" NCoef="0"     IVar="11" Cut="     1.896500E-02" cType="1"     res="     0.000000E+00" rms="0.0"     purity="0.00000000E+00" nType="0">
                <Node pos="l" depth="4" NCoef="0"     IVar="-1" Cut="     0.000000E+00" cType="1"     res="     1.190610E-01" rms="0.0e-00"     purity="0.00000000E+00" nType="-99">
                </Node>
                <Node pos="r" depth="4" NCoef="0"     IVar="-1" Cut="     0.000000E+00" cType="1"     res="     5.396340E-03" rms="0.0e-00"     purity="0.00000000E+00" nType="-99">
                </Node>
            </Node>
        </Node>
    </Node>
</BinaryTree>
<BinaryTree type="DecisionTree" boostWeight="0.0" itree="5">
    <Node pos="c" depth="1" NCoef="0"     IVar="0" Cut="     6.191950E-01" cType="1"     res="     0.000000E+00" rms="0.0"     purity="0.00000000E+00" nType="0">
        <Node pos="l" depth="2" NCoef="0"     IVar="15" Cut="     9.155500E-02" cType="1"     res="     0.000000E+00" rms="0.0"     purity="0.00000000E+00" nType="0">
            <Node pos="l" depth="3" NCoef="0"     IVar="1" Cut="     3.295250E-01" cType="1"     res="     0.000000E+00" rms="0.0"     purity="0.00000000E+00" nType="0">
                <Node pos="l" depth="4" NCoef="0"     IVar="-1" Cut="     0.000000E+00" cType="1"     res="    -8.460160E-03" rms="0.0e-00"     purity="0.00000000E+00" nType="-99">
                </Node>
                <Node pos="r" depth="4" NCoef="0"     IVar="-1" Cut="     0.000000E+00" cType="1"     res="     5.342880E-02" rms="0.0e-00"     purity="0.00000000E+00" nType="-99">
                </Node>
            </Node>
            <Node pos="r" depth="3" NCoef="0"     IVar="5" Cut="     4.295400E-01" cType="1"     res="     0.000000E+00" rms="0.0"     purity="0.00000000E+00" nType="0">
                <Node pos="l" depth="4" NCoef="0"     IVar="-1" Cut="     0.000000E+00" cType="1"     res="    -9.466850E-02" rms="0.0e-00"     purity="0.00000000E+00" nType="-99">
                </Node>
                <Node pos="r" depth="4" NCoef="0"     IVar="-1" Cut="     0.000000E+00" cType="1"     res="     1.129460E-02" rms="0.0e-00"     purity="0.00000000E+00" nType="-99">
                </Node>
            </Node>
        </Node>
        <Node pos="r" depth="2" NCoef="0"     IVar="15" Cut="     1.246650E-01" cType="1"     res="     0.000000E+00" rms="0.0"     purity="0.00000000E+00" nType="0">
            <Node pos="l" depth="3" NCoef="0"     IVar="11" Cut="     1.824500E-02" cType="1"     res="     0.000000E+00" rms="0.0"     purity="0.00000000E+00" nType="0">
                <Node pos="l" depth="4" NCoef="0"     IVar="-1" Cut="     0.000000E+00" cType="1"     res="     1.096290E-01" rms="0.0e-00"     purity="0.00000000E+00" nType="-99">
                </Node>
                <Node pos="r" depth="4" NCoef="0"     IVar="-1" Cut="     0.000000E+00" cType="1"     res="     6.173660E-03" rms="0.0e-00"     purity="0.00000000E+00" nType="-99">
                </Node>
            </Node>
            <Node pos="r" depth="3" NCoef="0"     IVar="5" Cut="     2.873500E-01" cType="1"     res="     0.000000E+00" rms="0.0"     purity="0.00000000E+00" nType="0">
                <Node pos="l" depth="4" NCoef="0"     IVar="-1" Cut="     0.000000E+00" cType="1"     res="    -3.344110E-02" rms="0.0e-00"     purity="0.00000000E+00" nType="-99">
                </Node>
                <Node pos="r" depth="4" NCoef="0"     IVar="-1" Cut="     0.000000E+00" cType="1"     res="     3.271060E-02" rms="0.0e-00"     purity="0.00000000E+00" nType="-99">
                </Node>
            </Node>
        </Node>
    </Node>
</BinaryTree>
<BinaryTree type="DecisionTree" boostWeight="0.0" itree="6">
    <Node pos="c" depth="1" NCoef="0"     IVar="1" Cut="     6.700500E-01" cType="1"     res="     0.000000E+00" rms="0.0"     purity="0.00000000E+00" nType="0">
        <Node pos="l" depth="2" NCoef="0"     IVar="5" Cut="     3.502450E-01" cType="1"     res="     0.000000E+00" rms="0.0"     purity="0.00000000E+00" nType="0">
            <Node pos="l" depth="3" NCoef="0"     IVar="0" Cut="     9.476500E-01" cType="1"     res="     0.000000E+00" rms="0.0"     purity="0.00000000E+00" nType="0">
                <Node pos="l" depth="4" NCoef="0"     IVar="-1" Cut="     0.000000E+00" cType="1"     res="    -9.117740E-02" rms="0.0e-00"     purity="0.00000000E+00" nType="-99">
                </Node>
                <Node pos="r" depth="4" NCoef="0"     IVar="-1" Cut="     0.000000E+00" cType="1"     res="     1.997790E-02" rms="0.0e-00"     purity="0.00000000E+00" nType="-99">
                </Node>
            </Node>
            <Node pos="r" depth="3" NCoef="0"     IVar="0" Cut="     4.442400E-01" cType="1"     res="     0.000000E+00" rms="0.0"     purity="0.00000000E+00" nType="0">
                <Node pos="l" depth="4" NCoef="0"     IVar="-1" Cut="     0.000000E+00" cType="1"     res="    -1.543110E-02" rms="0.0e-00"     purity="0.00000000E+00" nType="-99">
                </Node>
                <Node pos="r" depth="4" NCoef="0"     IVar="-1" Cut="     0.000000E+00" cType="1"     res="     5.157190E-02" rms="0.0e-00"     purity="0.00000000E+00" nType="-99">
                </Node>
            </Node>
        </Node>
        <Node pos="r" depth="2" NCoef="0"     IVar="6" Cut="     2.131150E-01" cType="1"     res="     0.000000E+00" rms="0.0"     purity="0.00000000E+00" nType="0">
            <Node pos="l" depth="3" NCoef="0"     IVar="0" Cut="     6.179050E-01" cType="1"     res="     0.000000E+00" rms="0.0"     purity="0.00000000E+00" nType="0">
                <Node pos="l" depth="4" NCoef="0"     IVar="-1" Cut="     0.000000E+00" cType="1"     res="    -2.378970E-02" rms="0.0e-00"     purity="0.00000000E+00" nType="-99">
                </Node>
                <Node pos="r" depth="4" NCoef="0"     IVar="-1" Cut="     0.000000E+00" cType="1"     res="     2.865060E-02" rms="0.0e-00"     purity="0.00000000E+00" nType="-99">
                </Node>
            </Node>
            <Node pos="r" depth="3" NCoef="0"     IVar="0" Cut="     1.508350E-01" cType="1"     res="     0.000000E+00" rms="0.0"     purity="0.00000000E+00" nType="0">
                <Node pos="l" depth="4" NCoef="0"     IVar="-1" Cut="     0.000000E+00" cType="1"     res="     4.809730E-03" rms="0.0e-00"     purity="0.00000000E+00" nType="-99">
                </Node>
                <Node pos="r" depth="4" NCoef="0"     IVar="-1" Cut="     0.000000E+00" cType="1"     res="     1.063700E-01" rms="0.0e-00"     purity="0.00000000E+00" nType="-99">
                </Node>
            </Node>
        </Node>
    </Node>
</BinaryTree>
<BinaryTree type="DecisionTree" boostWeight="0.0" itree="7">
    <Node pos="c" depth="1" NCoef="0"     IVar="15" Cut="     1.075650E-01" cType="1"     res="     0.000000E+00" rms="0.0"     purity="0.00000000E+00" nType="0">
        <Node pos="l" depth="2" NCoef="0"     IVar="0" Cut="     3.367700E-01" cType="1"     res="     0.000000E+00" rms="0.0"     purity="0.00000000E+00" nType="0">
            <Node pos="l" depth="3" NCoef="0"     IVar="1" Cut="     7.500600E-01" cType="1"     res="     0.000000E+00" rms="0.0"     purity="0.00000000E+00" nType="0">
                <Node pos="l" depth="4" NCoef="0"     IVar="-1" Cut="     0.000000E+00" cType="1"     res="    -2.855600E-02" rms="0.0e-00"     purity="0.00000000E+00" nType="-99">
                </Node>
                <Node pos="r" depth="4" NCoef="0"     IVar="-1" Cut="     0.000000E+00" cType="1"     res="     2.724720E-02" rms="0.0e-00"     purity="0.00000000E+00" nType="-99">
                </Node>
            </Node>
            <Node pos="r" depth="3" NCoef="0"     IVar="11" Cut="     1.610500E-02" cType="1"     res="     0.000000E+00" rms="0.0"     purity="0.00000000E+00" nType="0">
                <Node pos="l" depth="4" NCoef="0"     IVar="-1" Cut="     0.000000E+00" cType="1"     res="     9.916210E-02" rms="0.0e-00"     purity="0.00000000E+00" nType="-99">
                </Node>
                <Node pos="r" depth="4" NCoef="0"     IVar="-1" Cut="     0.000000E+00" cType="1"     res="     9.582120E-03" rms="0.0e-00"     purity="0.00000000E+00" nType="-99">
                </Node>
            </Node>
        </Node>
        <Node pos="r" depth="2" NCoef="0"     IVar="0" Cut="     8.731150E-01" cType="1"     res="     0.000000E+00" rms="0.0"     purity="0.00000000E+00" nType="0">
            <Node pos="l" depth="3" NCoef="0"     IVar="5" Cut="     4.211350E-01" cType="1"     res="     0.000000E+00" rms="0.0"     purity="0.00000000E+00" nType="0">
                <Node pos="l" depth="4" NCoef="0"     IVar="-1" Cut="     0.000000E+00" cType="1"     res="    -8.592940E-02" rms="0.0e-00"     purity="0.00000000E+00" nType="-99">
                </Node>
                <Node pos="r" depth="4" NCoef="0"     IVar="-1" Cut="     0.000000E+00" cType="1"     res="     1.400620E-02" rms="0.0e-00"     purity="0.00000000E+00" nType="-99">
                </Node>
            </Node>
            <Node pos="r" depth="3" NCoef="0"     IVar="11" Cut="     1.460500E-02" cType="1"     res="     0.000000E+00" rms="0.0"     purity="0.00000000E+00" nType="0">
                <Node pos="l" depth="4" NCoef="0"     IVar="-1" Cut="     0.000000E+00" cType="1"     res="     4.523630E-02" rms="0.0e-00"     purity="0.00000000E+00" nType="-99">
                </Node>
                <Node pos="r" depth="4" NCoef="0"     IVar="-1" Cut="     0.000000E+00" cType="1"     res="    -6.729900E-03" rms="0.0e-00"     purity="0.00000000E+00" nType="-99">
                </Node>
            </Node>
        </Node>
    </Node>
</BinaryTree>
<BinaryTree type="DecisionTree" boostWeight="0.0" itree="8">
    <Node pos="c" depth="1" NCoef="0"     IVar="5" Cut="     2.953250E-01" cType="1"     res="     0.000000E+00" rms="0.0"     purity="0.00000000E+00" nType="0">
        <Node pos="l" depth="2" NCoef="0"     IVar="1" Cut="     8.602850E-01" cType="1"     res="     0.000000E+00" rms="0.0"     purity="0.00000000E+00" nType="0">
            <Node pos="l" depth="3" NCoef="0"     IVar="0" Cut="     9.475000E-01" cType="1"     res="     0.000000E+00" rms="0.0"     purity="0.00000000E+00" nType="0">
                <Node pos="l" depth="4" NCoef="0"     IVar="-1" Cut="     0.000000E+00" cType="1"     res="    -8.418660E-02" rms="0.0e-00"     purity="0.00000000E+00" nType="-99">
                </Node>
                <Node pos="r" depth="4" NCoef="0"     IVar="-1" Cut="     0.000000E+00" cType="1"     res="     1.815290E-02" rms="0.0e-00"     purity="0.00000000E+00" nType="-99">
                </Node>
            </Node>
            <Node pos="r" depth="3" NCoef="0"     IVar="0" Cut="     5.568300E-01" cType="1"     res="     0.000000E+00" rms="0.0"     purity="0.00000000E+00" nType="0">
                <Node pos="l" depth="4" NCoef="0"     IVar="-1" Cut="     0.000000E+00" cType="1"     res="    -1.938580E-03" rms="0.0e-00"     purity="0.00000000E+00" nType="-99">
                </Node>
                <Node pos="r" depth="4" NCoef="0"     IVar="-1" Cut="     0.000000E+00" cType="1"     res="     4.408710E-02" rms="0.0e-00"     purity="0.00000000E+00" nType="-99">
                </Node>
            </Node>
        </Node>
        <Node pos="r" depth="2" NCoef="0"     IVar="1" Cut="     5.577550E-01" cType="1"     res="     0.000000E+00" rms="0.0"     purity="0.00000000E+00" nType="0">
            <Node pos="l" depth="3" NCoef="0"     IVar="0" Cut="     6.332650E-01" cType="1"     res="     0.000000E+00" rms="0.0"     purity="0.00000000E+00" nType="0">
                <Node pos="l" depth="4" NCoef="0"     IVar="-1" Cut="     0.000000E+00" cType="1"     res="    -2.496720E-02" rms="0.0e-00"     purity="0.00000000E+00" nType="-99">
                </Node>
                <Node pos="r" depth="4" NCoef="0"     IVar="-1" Cut="     0.000000E+00" cType="1"     res="     4.100090E-02" rms="0.0e-00"     purity="0.00000000E+00" nType="-99">
                </Node>
            </Node>
            <Node pos="r" depth="3" NCoef="0"     IVar="0" Cut="     8.516500E-02" cType="1"     res="     0.000000E+00" rms="0.0"     purity="0.00000000E+00" nType="0">
                <Node pos="l" depth="4" NCoef="0"     IVar="-1" Cut="     0.000000E+00" cType="1"     res="     1.312060E-03" rms="0.0e-00"     purity="0.00000000E+00" nType="-99">
                </Node>
                <Node pos="r" depth="4" NCoef="0"     IVar="-1" Cut="     0.000000E+00" cType="1"     res="     9.331890E-02" rms="0.0e-00"     purity="0.00000000E+00" nType="-99">
                </Node>
            </Node>
        </Node>
    </Node>
</BinaryTree>
<BinaryTree type="DecisionTree" boostWeight="0.0" itree="9">
    <Node pos="c" depth="1" NCoef="0"     IVar="0" Cut="     5.873850E-01" cType="1"     res="     0.000000E+00" rms="0.0"     purity="0.00000000E+00" nType="0">
        <Node pos="l" depth="2" NCoef="0"     IVar="15" Cut="     8.981500E-02" cType="1"     res="     0.000000E+00" rms="0.0"     purity="0.00000000E+00" nType="0">
            <Node pos="l" depth="3" NCoef="0"     IVar="11" Cut="     1.336500E-02" cType="1"     res="     0.000000E+00" rms="0.0"     purity="0.00000000E+00" nType="0">
                <Node pos="l" depth="4" NCoef="0"     IVar="-1" Cut="     0.000000E+00" cType="1"     res="     4.004640E-02" rms="0.0e-00"     purity="0.00000000E+00" nType="-99">
                </Node>
                <Node pos="r" depth="4" NCoef="0"     IVar="-1" Cut="     0.000000E+00" cType="1"     res="    -5.189360E-03" rms="0.0e-00"     purity="0.00000000E+00" nType="-99">
                </Node>
            </Node>
            <Node pos="r" depth="3" NCoef="0"     IVar="5" Cut="     4.424300E-01" cType="1"     res="     0.000000E+00" rms="0.0"     purity="0.00000000E+00" nType="0">
                <Node pos="l" depth="4" NCoef="0"     IVar="-1" Cut="     0.000000E+00" cType="1"     res="    -8.051690E-02" rms="0.0e-00"     purity="0.00000000E+00" nType="-99">
                </Node>
                <Node pos="r" depth="4" NCoef="0"     IVar="-1" Cut="     0.000000E+00" cType="1"     res="     1.073750E-02" rms="0.0e-00"     purity="0.00000000E+00" nType="-99">
                </Node>
            </Node>
        </Node>
        <Node pos="r" depth="2" NCoef="0"     IVar="13" Cut="     1.338750E-01" cType="1"     res="     0.000000E+00" rms="0.0"     purity="0.00000000E+00" nType="0">
            <Node pos="l" depth="3" NCoef="0"     IVar="11" Cut="     1.538500E-02" cType="1"     res="     0.000000E+00" rms="0.0"     purity="0.00000000E+00" nType="0">
                <Node pos="l" depth="4" NCoef="0"     IVar="-1" Cut="     0.000000E+00" cType="1"     res="     8.609240E-02" rms="0.0e-00"     purity="0.00000000E+00" nType="-99">
                </Node>
                <Node pos="r" depth="4" NCoef="0"     IVar="-1" Cut="     0.000000E+00" cType="1"     res="     9.354060E-03" rms="0.0e-00"     purity="0.00000000E+00" nType="-99">
                </Node>
            </Node>
            <Node pos="r" depth="3" NCoef="0"     IVar="1" Cut="     6.076850E-01" cType="1"     res="     0.000000E+00" rms="0.0"     purity="0.00000000E+00" nType="0">
                <Node pos="l" depth="4" NCoef="0"     IVar="-1" Cut="     0.000000E+00" cType="1"     res="    -2.995160E-02" rms="0.0e-00"     purity="0.00000000E+00" nType="-99">
                </Node>
                <Node pos="r" depth="4" NCoef="0"     IVar="-1" Cut="     0.000000E+00" cType="1"     res="     2.347160E-02" rms="0.0e-00"     purity="0.00000000E+00" nType="-99">
                </Node>
            </Node>
        </Node>
    </Node>
</BinaryTree>
<BinaryTree type="DecisionTree" boostWeight="0.0" itree="10">
    <Node pos="c" depth="1" NCoef="0"     IVar="5" Cut="     2.894450E-01" cType="1"     res="     0.000000E+00" rms="0.0"     purity="0.00000000E+00" nType="0">
        <Node pos="l" depth="2" NCoef="0"     IVar="0" Cut="     8.985550E-01" cType="1"     res="     0.000000E+00" rms="0.0"     purity="0.00000000E+00" nType="0">
            <Node pos="l" depth="3" NCoef="0"     IVar="1" Cut="     9.280050E-01" cType="1"     res="     0.000000E+00" rms="0.0"     purity="0.00000000E+00" nType="0">
                <Node pos="l" depth="4" NCoef="0"     IVar="-1" Cut="     0.000000E+00" cType="1"     res="    -7.812190E-02" rms="0.0e-00"     purity="0.00000000E+00" nType="-99">
                </Node>
                <Node pos="r" depth="4" NCoef="0"     IVar="-1" Cut="     0.000000E+00" cType="1"     res="     1.741630E-02" rms="0.0e-00"     purity="0.00000000E+00" nType="-99">
                </Node>
            </Node>
            <Node pos="r" depth="3" NCoef="0"     IVar="3" Cut="     7.768100E-01" cType="1"     res="     0.000000E+00" rms="0.0"     purity="0.00000000E+00" nType="0">
                <Node pos="l" depth="4" NCoef="0"     IVar="-1" Cut="     0.000000E+00" cType="1"     res="     3.341270E-02" rms="0.0e-00"     purity="0.00000000E+00" nType="-99">
                </Node>
                <Node pos="r" depth="4" NCoef="0"     IVar="-1" Cut="     0.000000E+00" cType="1"     res="    -2.611130E-03" rms="0.0e-00"     purity="0.00000000E+00" nType="-99">
                </Node>
            </Node>
        </Node>
        <Node pos="r" depth="2" NCoef="0"     IVar="1" Cut="     5.577550E-01" cType="1"     res="     0.000000E+00" rms="0.0"     purity="0.00000000E+00" nType="0">
            <Node pos="l" depth="3" NCoef="0"     IVar="0" Cut="     5.800300E-01" cType="1"     res="     0.000000E+00" rms="0.0"     purity="0.00000000E+00" nType="0">
                <Node pos="l" depth="4" NCoef="0"     IVar="-1" Cut="     0.000000E+00" cType="1"     res="    -2.370280E-02" rms="0.0e-00"     purity="0.00000000E+00" nType="-99">
                </Node>
                <Node pos="r" depth="4" NCoef="0"     IVar="-1" Cut="     0.000000E+00" cType="1"     res="     3.500850E-02" rms="0.0e-00"     purity="0.00000000E+00" nType="-99">
                </Node>
            </Node>
            <Node pos="r" depth="3" NCoef="0"     IVar="6" Cut="     5.749500E-02" cType="1"     res="     0.000000E+00" rms="0.0"     purity="0.00000000E+00" nType="0">
                <Node pos="l" depth="4" NCoef="0"     IVar="-1" Cut="     0.000000E+00" cType="1"     res="     8.090630E-04" rms="0.0e-00"     purity="0.00000000E+00" nType="-99">
                </Node>
                <Node pos="r" depth="4" NCoef="0"     IVar="-1" Cut="     0.000000E+00" cType="1"     res="     8.251020E-02" rms="0.0e-00"     purity="0.00000000E+00" nType="-99">
                </Node>
            </Node>
        </Node>
    </Node>
</BinaryTree>
<BinaryTree type="DecisionTree" boostWeight="0.0" itree="11">
    <Node pos="c" depth="1" NCoef="0"     IVar="15" Cut="     1.080850E-01" cType="1"     res="     0.000000E+00" rms="0.0"     purity="0.00000000E+00" nType="0">
        <Node pos="l" depth="2" NCoef="0"     IVar="1" Cut="     3.285950E-01" cType="1"     res="     0.000000E+00" rms="0.0"     purity="0.00000000E+00" nType="0">
            <Node pos="l" depth="3" NCoef="0"     IVar="0" Cut="     6.020150E-01" cType="1"     res="     0.000000E+00" rms="0.0"     purity="0.00000000E+00" nType="0">
                <Node pos="l" depth="4" NCoef="0"     IVar="-1" Cut="     0.000000E+00" cType="1"     res="    -2.105310E-02" rms="0.0e-00"     purity="0.00000000E+00" nType="-99">
                </Node>
                <Node pos="r" depth="4" NCoef="0"     IVar="-1" Cut="     0.000000E+00" cType="1"     res="     2.172560E-02" rms="0.0e-00"     purity="0.00000000E+00" nType="-99">
                </Node>
            </Node>
            <Node pos="r" depth="3" NCoef="0"     IVar="0" Cut="     1.235950E-01" cType="1"     res="     0.000000E+00" rms="0.0"     purity="0.00000000E+00" nType="0">
                <Node pos="l" depth="4" NCoef="0"     IVar="-1" Cut="     0.000000E+00" cType="1"     res="     4.317180E-04" rms="0.0e-00"     purity="0.00000000E+00" nType="-99">
                </Node>
                <Node pos="r" depth="4" NCoef="0"     IVar="-1" Cut="     0.000000E+00" cType="1"     res="     8.011780E-02" rms="0.0e-00"     purity="0.00000000E+00" nType="-99">
                </Node>
            </Node>
        </Node>
        <Node pos="r" depth="2" NCoef="0"     IVar="0" Cut="     8.403850E-01" cType="1"     res="     0.000000E+00" rms="0.0"     purity="0.00000000E+00" nType="0">
            <Node pos="l" depth="3" NCoef="0"     IVar="5" Cut="     4.440950E-01" cType="1"     res="     0.000000E+00" rms="0.0"     purity="0.00000000E+00" nType="0">
                <Node pos="l" depth="4" NCoef="0"     IVar="-1" Cut="     0.000000E+00" cType="1"     res="    -7.384640E-02" rms="0.0e-00"     purity="0.00000000E+00" nType="-99">
                </Node>
                <Node pos="r" depth="4" NCoef="0"     IVar="-1" Cut="     0.000000E+00" cType="1"     res="     1.113150E-02" rms="0.0e-00"     purity="0.00000000E+00" nType="-99">
                </Node>
            </Node>
            <Node pos="r" depth="3" NCoef="0"     IVar="11" Cut="     1.417500E-02" cType="1"     res="     0.000000E+00" rms="0.0"     purity="0.00000000E+00" nType="0">
                <Node pos="l" depth="4" NCoef="0"     IVar="-1" Cut="     0.000000E+00" cType="1"     res="     3.470250E-02" rms="0.0e-00"     purity="0.00000000E+00" nType="-99">
                </Node>
                <Node pos="r" depth="4" NCoef="0"     IVar="-1" Cut="     0.000000E+00" cType="1"     res="    -1.001130E-02" rms="0.0e-00"     purity="0.00000000E+00" nType="-99">
                </Node>
            </Node>
        </Node>
    </Node>
</BinaryTree>
<BinaryTree type="DecisionTree" boostWeight="0.0" itree="12">
    <Node pos="c" depth="1" NCoef="0"     IVar="6" Cut="     2.915950E-01" cType="1"     res="     0.000000E+00" rms="0.0"     purity="0.00000000E+00" nType="0">
        <Node pos="l" depth="2" NCoef="0"     IVar="0" Cut="     8.996750E-01" cType="1"     res="     0.000000E+00" rms="0.0"     purity="0.00000000E+00" nType="0">
            <Node pos="l" depth="3" NCoef="0"     IVar="1" Cut="     9.230450E-01" cType="1"     res="     0.000000E+00" rms="0.0"     purity="0.00000000E+00" nType="0">
                <Node pos="l" depth="4" NCoef="0"     IVar="-1" Cut="     0.000000E+00" cType="1"     res="    -6.962610E-02" rms="0.0e-00"     purity="0.00000000E+00" nType="-99">
                </Node>
                <Node pos="r" depth="4" NCoef="0"     IVar="-1" Cut="     0.000000E+00" cType="1"     res="     1.898540E-02" rms="0.0e-00"     purity="0.00000000E+00" nType="-99">
                </Node>
            </Node>
            <Node pos="r" depth="3" NCoef="0"     IVar="11" Cut="     1.502500E-02" cType="1"     res="     0.000000E+00" rms="0.0"     purity="0.00000000E+00" nType="0">
                <Node pos="l" depth="4" NCoef="0"     IVar="-1" Cut="     0.000000E+00" cType="1"     res="     3.442490E-02" rms="0.0e-00"     purity="0.00000000E+00" nType="-99">
                </Node>
                <Node pos="r" depth="4" NCoef="0"     IVar="-1" Cut="     0.000000E+00" cType="1"     res="    -2.496790E-03" rms="0.0e-00"     purity="0.00000000E+00" nType="-99">
                </Node>
            </Node>
        </Node>
        <Node pos="r" depth="2" NCoef="0"     IVar="0" Cut="     2.495550E-01" cType="1"     res="     0.000000E+00" rms="0.0"     purity="0.00000000E+00" nType="0">
            <Node pos="l" depth="3" NCoef="0"     IVar="1" Cut="     7.484750E-01" cType="1"     res="     0.000000E+00" rms="0.0"     purity="0.00000000E+00" nType="0">
                <Node pos="l" depth="4" NCoef="0"     IVar="-1" Cut="     0.000000E+00" cType="1"     res="    -2.080110E-02" rms="0.0e-00"     purity="0.00000000E+00" nType="-99">
                </Node>
                <Node pos="r" depth="4" NCoef="0"     IVar="-1" Cut="     0.000000E+00" cType="1"     res="     1.462780E-02" rms="0.0e-00"     purity="0.00000000E+00" nType="-99">
                </Node>
            </Node>
            <Node pos="r" depth="3" NCoef="0"     IVar="11" Cut="     1.604500E-02" cType="1"     res="     0.000000E+00" rms="0.0"     purity="0.00000000E+00" nType="0">
                <Node pos="l" depth="4" NCoef="0"     IVar="-1" Cut="     0.000000E+00" cType="1"     res="     7.580960E-02" rms="0.0e-00"     purity="0.00000000E+00" nType="-99">
                </Node>
                <Node pos="r" depth="4" NCoef="0"     IVar="-1" Cut="     0.000000E+00" cType="1"     res="     4.086100E-03" rms="0.0e-00"     purity="0.00000000E+00" nType="-99">
                </Node>
            </Node>
        </Node>
    </Node>
</BinaryTree>
<BinaryTree type="DecisionTree" boostWeight="0.0" itree="13">
    <Node pos="c" depth="1" NCoef="0"     IVar="1" Cut="     5.661450E-01" cType="1"     res="     0.000000E+00" rms="0.0"     purity="0.00000000E+00" nType="0">
        <Node pos="l" depth="2" NCoef="0"     IVar="5" Cut="     3.782450E-01" cType="1"     res="     0.000000E+00" rms="0.0"     purity="0.00000000E+00" nType="0">
            <Node pos="l" depth="3" NCoef="0"     IVar="0" Cut="     9.489100E-01" cType="1"     res="     0.000000E+00" rms="0.0"     purity="0.00000000E+00" nType="0">
                <Node pos="l" depth="4" NCoef="0"     IVar="-1" Cut="     0.000000E+00" cType="1"     res="    -7.006050E-02" rms="0.0e-00"     purity="0.00000000E+00" nType="-99">
                </Node>
                <Node pos="r" depth="4" NCoef="0"     IVar="-1" Cut="     0.000000E+00" cType="1"     res="     1.309220E-02" rms="0.0e-00"     purity="0.00000000E+00" nType="-99">
                </Node>
            </Node>
            <Node pos="r" depth="3" NCoef="0"     IVar="11" Cut="     1.183500E-02" cType="1"     res="     0.000000E+00" rms="0.0"     purity="0.00000000E+00" nType="0">
                <Node pos="l" depth="4" NCoef="0"     IVar="-1" Cut="     0.000000E+00" cType="1"     res="     3.623380E-02" rms="0.0e-00"     purity="0.00000000E+00" nType="-99">
                </Node>
                <Node pos="r" depth="4" NCoef="0"     IVar="-1" Cut="     0.000000E+00" cType="1"     res="    -1.119850E-02" rms="0.0e-00"     purity="0.00000000E+00" nType="-99">
                </Node>
            </Node>
        </Node>
        <Node pos="r" depth="2" NCoef="0"     IVar="15" Cut="     1.280650E-01" cType="1"     res="     0.000000E+00" rms="0.0"     purity="0.00000000E+00" nType="0">
            <Node pos="l" depth="3" NCoef="0"     IVar="11" Cut="     1.783500E-02" cType="1"     res="     0.000000E+00" rms="0.0"     purity="0.00000000E+00" nType="0">
                <Node pos="l" depth="4" NCoef="0"     IVar="-1" Cut="     0.000000E+00" cType="1"     res="     7.193760E-02" rms="0.0e-00"     purity="0.00000000E+00" nType="-99">
                </Node>
                <Node pos="r" depth="4" NCoef="0"     IVar="-1" Cut="     0.000000E+00" cType="1"     res="     3.476530E-03" rms="0.0e-00"     purity="0.00000000E+00" nType="-99">
                </Node>
            </Node>
            <Node pos="r" depth="3" NCoef="0"     IVar="0" Cut="     5.626950E-01" cType="1"     res="     0.000000E+00" rms="0.0"     purity="0.00000000E+00" nType="0">
                <Node pos="l" depth="4" NCoef="0"     IVar="-1" Cut="     0.000000E+00" cType="1"     res="    -2.099880E-02" rms="0.0e-00"     purity="0.00000000E+00" nType="-99">
                </Node>
                <Node pos="r" depth="4" NCoef="0"     IVar="-1" Cut="     0.000000E+00" cType="1"     res="     1.860390E-02" rms="0.0e-00"     purity="0.00000000E+00" nType="-99">
                </Node>
            </Node>
        </Node>
    </Node>
</BinaryTree>
<BinaryTree type="DecisionTree" boostWeight="0.0" itree="14">
    <Node pos="c" depth="1" NCoef="0"     IVar="0" Cut="     5.618450E-01" cType="1"     res="     0.000000E+00" rms="0.0"     purity="0.00000000E+00" nType="0">
        <Node pos="l" depth="2" NCoef="0"     IVar="5" Cut="     3.518350E-01" cType="1"     res="     0.000000E+00" rms="0.0"     purity="0.00000000E+00" nType="0">
            <Node pos="l" depth="3" NCoef="0"     IVar="1" Cut="     9.447950E-01" cType="1"     res="     0.000000E+00" rms="0.0"     purity="0.00000000E+00" nType="0">
                <Node pos="l" depth="4" NCoef="0"     IVar="-1" Cut="     0.000000E+00" cType="1"     res="    -7.022210E-02" rms="0.0e-00"     purity="0.00000000E+00" nType="-99">
                </Node>
                <Node pos="r" depth="4" NCoef="0"     IVar="-1" Cut="     0.000000E+00" cType="1"     res="     9.665510E-03" rms="0.0e-00"     purity="0.00000000E+00" nType="-99">
                </Node>
            </Node>
            <Node pos="r" depth="3" NCoef="0"     IVar="11" Cut="     1.179500E-02" cType="1"     res="     0.000000E+00" rms="0.0"     purity="0.00000000E+00" nType="0">
                <Node pos="l" depth="4" NCoef="0"     IVar="-1" Cut="     0.000000E+00" cType="1"     res="     2.998150E-02" rms="0.0e-00"     purity="0.00000000E+00" nType="-99">
                </Node>
                <Node pos="r" depth="4" NCoef="0"     IVar="-1" Cut="     0.000000E+00" cType="1"     res="    -1.581280E-02" rms="0.0e-00"     purity="0.00000000E+00" nType="-99">
                </Node>
            </Node>
        </Node>
        <Node pos="r" depth="2" NCoef="0"     IVar="15" Cut="     1.276550E-01" cType="1"     res="     0.000000E+00" rms="0.0"     purity="0.00000000E+00" nType="0">
            <Node pos="l" depth="3" NCoef="0"     IVar="11" Cut="     1.538500E-02" cType="1"     res="     0.000000E+00" rms="0.0"     purity="0.00000000E+00" nType="0">
                <Node pos="l" depth="4" NCoef="0"     IVar="-1" Cut="     0.000000E+00" cType="1"     res="     6.836240E-02" rms="0.0e-00"     purity="0.00000000E+00" nType="-99">
                </Node>
                <Node pos="r" depth="4" NCoef="0"     IVar="-1" Cut="     0.000000E+00" cType="1"     res="     7.323660E-03" rms="0.0e-00"     purity="0.00000000E+00" nType="-99">
                </Node>
            </Node>
            <Node pos="r" depth="3" NCoef="0"     IVar="11" Cut="     1.172500E-02" cType="1"     res="     0.000000E+00" rms="0.0"     purity="0.00000000E+00" nType="0">
                <Node pos="l" depth="4" NCoef="0"     IVar="-1" Cut="     0.000000E+00" cType="1"     res="     1.689180E-02" rms="0.0e-00"     purity="0.00000000E+00" nType="-99">
                </Node>
                <Node pos="r" depth="4" NCoef="0"     IVar="-1" Cut="     0.000000E+00" cType="1"     res="    -2.549270E-02" rms="0.0e-00"     purity="0.00000000E+00" nType="-99">
                </Node>
            </Node>
        </Node>
    </Node>
</BinaryTree>
<BinaryTree type="DecisionTree" boostWeight="0.0" itree="15">
    <Node pos="c" depth="1" NCoef="0"     IVar="13" Cut="     1.081750E-01" cType="1"     res="     0.000000E+00" rms="0.0"     purity="0.00000000E+00" nType="0">
        <Node pos="l" depth="2" NCoef="0"     IVar="11" Cut="     1.285500E-02" cType="1"     res="     0.000000E+00" rms="0.0"     purity="0.00000000E+00" nType="0">
            <Node pos="l" depth="3" NCoef="0"     IVar="0" Cut="     1.520550E-01" cType="1"     res="     0.000000E+00" rms="0.0"     purity="0.00000000E+00" nType="0">
                <Node pos="l" depth="4" NCoef="0"     IVar="-1" Cut="     0.000000E+00" cType="1"     res="     1.065280E-03" rms="0.0e-00"     purity="0.00000000E+00" nType="-99">
                </Node>
                <Node pos="r" depth="4" NCoef="0"     IVar="-1" Cut="     0.000000E+00" cType="1"     res="     6.738340E-02" rms="0.0e-00"     purity="0.00000000E+00" nType="-99">
                </Node>
            </Node>
            <Node pos="r" depth="3" NCoef="0"     IVar="1" Cut="     5.988300E-01" cType="1"     res="     0.000000E+00" rms="0.0"     purity="0.00000000E+00" nType="0">
                <Node pos="l" depth="4" NCoef="0"     IVar="-1" Cut="     0.000000E+00" cType="1"     res="    -1.811240E-02" rms="0.0e-00"     purity="0.00000000E+00" nType="-99">
                </Node>
                <Node pos="r" depth="4" NCoef="0"     IVar="-1" Cut="     0.000000E+00" cType="1"     res="     1.879010E-02" rms="0.0e-00"     purity="0.00000000E+00" nType="-99">
                </Node>
            </Node>
        </Node>
        <Node pos="r" depth="2" NCoef="0"     IVar="1" Cut="     8.200850E-01" cType="1"     res="     0.000000E+00" rms="0.0"     purity="0.00000000E+00" nType="0">
            <Node pos="l" depth="3" NCoef="0"     IVar="5" Cut="     4.379600E-01" cType="1"     res="     0.000000E+00" rms="0.0"     purity="0.00000000E+00" nType="0">
                <Node pos="l" depth="4" NCoef="0"     IVar="-1" Cut="     0.000000E+00" cType="1"     res="    -6.358920E-02" rms="0.0e-00"     purity="0.00000000E+00" nType="-99">
                </Node>
                <Node pos="r" depth="4" NCoef="0"     IVar="-1" Cut="     0.000000E+00" cType="1"     res="     1.169550E-02" rms="0.0e-00"     purity="0.00000000E+00" nType="-99">
                </Node>
            </Node>
            <Node pos="r" depth="3" NCoef="0"     IVar="11" Cut="     1.409500E-02" cType="1"     res="     0.000000E+00" rms="0.0"     purity="0.00000000E+00" nType="0">
                <Node pos="l" depth="4" NCoef="0"     IVar="-1" Cut="     0.000000E+00" cType="1"     res="     3.253270E-02" rms="0.0e-00"     purity="0.00000000E+00" nType="-99">
                </Node>
                <Node pos="r" depth="4" NCoef="0"     IVar="-1" Cut="     0.000000E+00" cType="1"     res="    -5.320680E-03" rms="0.0e-00"     purity="0.00000000E+00" nType="-99">
                </Node>
            </Node>
        </Node>
    </Node>
</BinaryTree>
<BinaryTree type="DecisionTree" boostWeight="0.0" itree="16">
    <Node pos="c" depth="1" NCoef="0"     IVar="5" Cut="     2.858750E-01" cType="1"     res="     0.000000E+00" rms="0.0"     purity="0.00000000E+00" nType="0">
        <Node pos="l" depth="2" NCoef="0"     IVar="0" Cut="     9.298750E-01" cType="1"     res="     0.000000E+00" rms="0.0"     purity="0.00000000E+00" nType="0">
            <Node pos="l" depth="3" NCoef="0"     IVar="1" Cut="     9.279650E-01" cType="1"     res="     0.000000E+00" rms="0.0"     purity="0.00000000E+00" nType="0">
                <Node pos="l" depth="4" NCoef="0"     IVar="-1" Cut="     0.000000E+00" cType="1"     res="    -6.289160E-02" rms="0.0e-00"     purity="0.00000000E+00" nType="-99">
                </Node>
                <Node pos="r" depth="4" NCoef="0"     IVar="-1" Cut="     0.000000E+00" cType="1"     res="     1.331000E-02" rms="0.0e-00"     purity="0.00000000E+00" nType="-99">
                </Node>
            </Node>
            <Node pos="r" depth="3" NCoef="0"     IVar="3" Cut="     8.101050E-01" cType="1"     res="     0.000000E+00" rms="0.0"     purity="0.00000000E+00" nType="0">
                <Node pos="l" depth="4" NCoef="0"     IVar="-1" Cut="     0.000000E+00" cType="1"     res="     2.579410E-02" rms="0.0e-00"     purity="0.00000000E+00" nType="-99">
                </Node>
                <Node pos="r" depth="4" NCoef="0"     IVar="-1" Cut="     0.000000E+00" cType="1"     res="    -1.969960E-03" rms="0.0e-00"     purity="0.00000000E+00" nType="-99">
                </Node>
            </Node>
        </Node>
        <Node pos="r" depth="2" NCoef="0"     IVar="11" Cut="     1.184500E-02" cType="1"     res="     0.000000E+00" rms="0.0"     purity="0.00000000E+00" nType="0">
            <Node pos="l" depth="3" NCoef="0"     IVar="0" Cut="     1.774300E-01" cType="1"     res="     0.000000E+00" rms="0.0"     purity="0.00000000E+00" nType="0">
                <Node pos="l" depth="4" NCoef="0"     IVar="-1" Cut="     0.000000E+00" cType="1"     res="     1.977320E-03" rms="0.0e-00"     purity="0.00000000E+00" nType="-99">
                </Node>
                <Node pos="r" depth="4" NCoef="0"     IVar="-1" Cut="     0.000000E+00" cType="1"     res="     6.293680E-02" rms="0.0e-00"     purity="0.00000000E+00" nType="-99">
                </Node>
            </Node>
            <Node pos="r" depth="3" NCoef="0"     IVar="0" Cut="     6.971850E-01" cType="1"     res="     0.000000E+00" rms="0.0"     purity="0.00000000E+00" nType="0">
                <Node pos="l" depth="4" NCoef="0"     IVar="-1" Cut="     0.000000E+00" cType="1"     res="    -2.317640E-02" rms="0.0e-00"     purity="0.00000000E+00" nType="-99">
                </Node>
                <Node pos="r" depth="4" NCoef="0"     IVar="-1" Cut="     0.000000E+00" cType="1"     res="     1.876450E-02" rms="0.0e-00"     purity="0.00000000E+00" nType="-99">
                </Node>
            </Node>
        </Node>
    </Node>
</BinaryTree>
<BinaryTree type="DecisionTree" boostWeight="0.0" itree="17">
    <Node pos="c" depth="1" NCoef="0"     IVar="0" Cut="     5.618450E-01" cType="1"     res="     0.000000E+00" rms="0.0"     purity="0.00000000E+00" nType="0">
        <Node pos="l" depth="2" NCoef="0"     IVar="5" Cut="     3.861750E-01" cType="1"     res="     0.000000E+00" rms="0.0"     purity="0.00000000E+00" nType="0">
            <Node pos="l" depth="3" NCoef="0"     IVar="1" Cut="     9.412300E-01" cType="1"     res="     0.000000E+00" rms="0.0"     purity="0.00000000E+00" nType="0">
                <Node pos="l" depth="4" NCoef="0"     IVar="-1" Cut="     0.000000E+00" cType="1"     res="    -6.233130E-02" rms="0.0e-00"     purity="0.00000000E+00" nType="-99">
                </Node>
                <Node pos="r" depth="4" NCoef="0"     IVar="-1" Cut="     0.000000E+00" cType="1"     res="     1.010080E-02" rms="0.0e-00"     purity="0.00000000E+00" nType="-99">
                </Node>
            </Node>
            <Node pos="r" depth="3" NCoef="0"     IVar="11" Cut="     1.206500E-02" cType="1"     res="     0.000000E+00" rms="0.0"     purity="0.00000000E+00" nType="0">
                <Node pos="l" depth="4" NCoef="0"     IVar="-1" Cut="     0.000000E+00" cType="1"     res="     2.625700E-02" rms="0.0e-00"     purity="0.00000000E+00" nType="-99">
                </Node>
                <Node pos="r" depth="4" NCoef="0"     IVar="-1" Cut="     0.000000E+00" cType="1"     res="    -1.016510E-02" rms="0.0e-00"     purity="0.00000000E+00" nType="-99">
                </Node>
            </Node>
        </Node>
        <Node pos="r" depth="2" NCoef="0"     IVar="6" Cut="     2.053950E-01" cType="1"     res="     0.000000E+00" rms="0.0"     purity="0.00000000E+00" nType="0">
            <Node pos="l" depth="3" NCoef="0"     IVar="3" Cut="     5.554850E-01" cType="1"     res="     0.000000E+00" rms="0.0"     purity="0.00000000E+00" nType="0">
                <Node pos="l" depth="4" NCoef="0"     IVar="-1" Cut="     0.000000E+00" cType="1"     res="     1.409410E-02" rms="0.0e-00"     purity="0.00000000E+00" nType="-99">
                </Node>
                <Node pos="r" depth="4" NCoef="0"     IVar="-1" Cut="     0.000000E+00" cType="1"     res="    -2.156270E-02" rms="0.0e-00"     purity="0.00000000E+00" nType="-99">
                </Node>
            </Node>
            <Node pos="r" depth="3" NCoef="0"     IVar="11" Cut="     1.896500E-02" cType="1"     res="     0.000000E+00" rms="0.0"     purity="0.00000000E+00" nType="0">
                <Node pos="l" depth="4" NCoef="0"     IVar="-1" Cut="     0.000000E+00" cType="1"     res="     5.685420E-02" rms="0.0e-00"     purity="0.00000000E+00" nType="-99">
                </Node>
                <Node pos="r" depth="4" NCoef="0"     IVar="-1" Cut="     0.000000E+00" cType="1"     res="     8.022260E-04" rms="0.0e-00"     purity="0.00000000E+00" nType="-99">
                </Node>
            </Node>
        </Node>
    </Node>
</BinaryTree>
<BinaryTree type="DecisionTree" boostWeight="0.0" itree="18">
    <Node pos="c" depth="1" NCoef="0"     IVar="15" Cut="     1.121950E-01" cType="1"     res="     0.000000E+00" rms="0.0"     purity="0.00000000E+00" nType="0">
        <Node pos="l" depth="2" NCoef="0"     IVar="11" Cut="     1.206500E-02" cType="1"     res="     0.000000E+00" rms="0.0"     purity="0.00000000E+00" nType="0">
            <Node pos="l" depth="3" NCoef="0"     IVar="0" Cut="     1.238900E-01" cType="1"     res="     0.000000E+00" rms="0.0"     purity="0.00000000E+00" nType="0">
                <Node pos="l" depth="4" NCoef="0"     IVar="-1" Cut="     0.000000E+00" cType="1"     res="     8.414290E-04" rms="0.0e-00"     purity="0.00000000E+00" nType="-99">
                </Node>
                <Node pos="r" depth="4" NCoef="0"     IVar="-1" Cut="     0.000000E+00" cType="1"     res="     6.004120E-02" rms="0.0e-00"     purity="0.00000000E+00" nType="-99">
                </Node>
            </Node>
            <Node pos="r" depth="3" NCoef="0"     IVar="1" Cut="     6.044300E-01" cType="1"     res="     0.000000E+00" rms="0.0"     purity="0.00000000E+00" nType="0">
                <Node pos="l" depth="4" NCoef="0"     IVar="-1" Cut="     0.000000E+00" cType="1"     res="    -1.909990E-02" rms="0.0e-00"     purity="0.00000000E+00" nType="-99">
                </Node>
                <Node pos="r" depth="4" NCoef="0"     IVar="-1" Cut="     0.000000E+00" cType="1"     res="     1.941330E-02" rms="0.0e-00"     purity="0.00000000E+00" nType="-99">
                </Node>
            </Node>
        </Node>
        <Node pos="r" depth="2" NCoef="0"     IVar="0" Cut="     6.969350E-01" cType="1"     res="     0.000000E+00" rms="0.0"     purity="0.00000000E+00" nType="0">
            <Node pos="l" depth="3" NCoef="0"     IVar="5" Cut="     4.695050E-01" cType="1"     res="     0.000000E+00" rms="0.0"     purity="0.00000000E+00" nType="0">
                <Node pos="l" depth="4" NCoef="0"     IVar="-1" Cut="     0.000000E+00" cType="1"     res="    -6.032530E-02" rms="0.0e-00"     purity="0.00000000E+00" nType="-99">
                </Node>
                <Node pos="r" depth="4" NCoef="0"     IVar="-1" Cut="     0.000000E+00" cType="1"     res="     6.823090E-03" rms="0.0e-00"     purity="0.00000000E+00" nType="-99">
                </Node>
            </Node>
            <Node pos="r" depth="3" NCoef="0"     IVar="11" Cut="     1.261500E-02" cType="1"     res="     0.000000E+00" rms="0.0"     purity="0.00000000E+00" nType="0">
                <Node pos="l" depth="4" NCoef="0"     IVar="-1" Cut="     0.000000E+00" cType="1"     res="     2.253260E-02" rms="0.0e-00"     purity="0.00000000E+00" nType="-99">
                </Node>
                <Node pos="r" depth="4" NCoef="0"     IVar="-1" Cut="     0.000000E+00" cType="1"     res="    -1.546390E-02" rms="0.0e-00"     purity="0.00000000E+00" nType="-99">
                </Node>
            </Node>
        </Node>
    </Node>
</BinaryTree>
<BinaryTree type="DecisionTree" boostWeight="0.0" itree="19">
    <Node pos="c" depth="1" NCoef="0"     IVar="1" Cut="     5.621450E-01" cType="1"     res="     0.000000E+00" rms="0.0"     purity="0.00000000E+00" nType="0">
        <Node pos="l" depth="2" NCoef="0"     IVar="5" Cut="     4.048650E-01" cType="1"     res="     0.000000E+00" rms="0.0"     purity="0.00000000E+00" nType="0">
            <Node pos="l" depth="3" NCoef="0"     IVar="0" Cut="     9.566500E-01" cType="1"     res="     0.000000E+00" rms="0.0"     purity="0.00000000E+00" nType="0">
                <Node pos="l" depth="4" NCoef="0"     IVar="-1" Cut="     0.000000E+00" cType="1"     res="    -5.624700E-02" rms="0.0e-00"     purity="0.00000000E+00" nType="-99">
                </Node>
                <Node pos="r" depth="4" NCoef="0"     IVar="-1" Cut="     0.000000E+00" cType="1"     res="     1.244150E-02" rms="0.0e-00"     purity="0.00000000E+00" nType="-99">
                </Node>
            </Node>
            <Node pos="r" depth="3" NCoef="0"     IVar="11" Cut="     1.184500E-02" cType="1"     res="     0.000000E+00" rms="0.0"     purity="0.00000000E+00" nType="0">
                <Node pos="l" depth="4" NCoef="0"     IVar="-1" Cut="     0.000000E+00" cType="1"     res="     2.730910E-02" rms="0.0e-00"     purity="0.00000000E+00" nType="-99">
                </Node>
                <Node pos="r" depth="4" NCoef="0"     IVar="-1" Cut="     0.000000E+00" cType="1"     res="    -5.655260E-03" rms="0.0e-00"     purity="0.00000000E+00" nType="-99">
                </Node>
            </Node>
        </Node>
        <Node pos="r" depth="2" NCoef="0"     IVar="5" Cut="     2.345650E-01" cType="1"     res="     0.000000E+00" rms="0.0"     purity="0.00000000E+00" nType="0">
            <Node pos="l" depth="3" NCoef="0"     IVar="0" Cut="     5.680950E-01" cType="1"     res="     0.000000E+00" rms="0.0"     purity="0.00000000E+00" nType="0">
                <Node pos="l" depth="4" NCoef="0"     IVar="-1" Cut="     0.000000E+00" cType="1"     res="    -1.664650E-02" rms="0.0e-00"     purity="0.00000000E+00" nType="-99">
                </Node>
                <Node pos="r" depth="4" NCoef="0"     IVar="-1" Cut="     0.000000E+00" cType="1"     res="     1.508960E-02" rms="0.0e-00"     purity="0.00000000E+00" nType="-99">
                </Node>
            </Node>
            <Node pos="r" depth="3" NCoef="0"     IVar="11" Cut="     1.797500E-02" cType="1"     res="     0.000000E+00" rms="0.0"     purity="0.00000000E+00" nType="0">
                <Node pos="l" depth="4" NCoef="0"     IVar="-1" Cut="     0.000000E+00" cType="1"     res="     5.715730E-02" rms="0.0e-00"     purity="0.00000000E+00" nType="-99">
                </Node>
                <Node pos="r" depth="4" NCoef="0"     IVar="-1" Cut="     0.000000E+00" cType="1"     res="     2.617930E-03" rms="0.0e-00"     purity="0.00000000E+00" nType="-99">
                </Node>
            </Node>
        </Node>
    </Node>
</BinaryTree>
<BinaryTree type="DecisionTree" boostWeight="0.0" itree="20">
    <Node pos="c" depth="1" NCoef="0"     IVar="6" Cut="     2.726350E-01" cType="1"     res="     0.000000E+00" rms="0.0"     purity="0.00000000E+00" nType="0">
        <Node pos="l" depth="2" NCoef="0"     IVar="0" Cut="     9.186450E-01" cType="1"     res="     0.000000E+00" rms="0.0"     purity="0.00000000E+00" nType="0">
            <Node pos="l" depth="3" NCoef="0"     IVar="5" Cut="     5.041650E-01" cType="1"     res="     0.000000E+00" rms="0.0"     purity="0.00000000E+00" nType="0">
                <Node pos="l" depth="4" NCoef="0"     IVar="-1" Cut="     0.000000E+00" cType="1"     res="    -5.279520E-02" rms="0.0e-00"     purity="0.00000000E+00" nType="-99">
                </Node>
                <Node pos="r" depth="4" NCoef="0"     IVar="-1" Cut="     0.000000E+00" cType="1"     res="     1.335050E-02" rms="0.0e-00"     purity="0.00000000E+00" nType="-99">
                </Node>
            </Node>
            <Node pos="r" depth="3" NCoef="0"     IVar="3" Cut="     7.798300E-01" cType="1"     res="     0.000000E+00" rms="0.0"     purity="0.00000000E+00" nType="0">
                <Node pos="l" depth="4" NCoef="0"     IVar="-1" Cut="     0.000000E+00" cType="1"     res="     2.330360E-02" rms="0.0e-00"     purity="0.00000000E+00" nType="-99">
                </Node>
                <Node pos="r" depth="4" NCoef="0"     IVar="-1" Cut="     0.000000E+00" cType="1"     res="    -3.316200E-03" rms="0.0e-00"     purity="0.00000000E+00" nType="-99">
                </Node>
            </Node>
        </Node>
        <Node pos="r" depth="2" NCoef="0"     IVar="0" Cut="     2.929200E-01" cType="1"     res="     0.000000E+00" rms="0.0"     purity="0.00000000E+00" nType="0">
            <Node pos="l" depth="3" NCoef="0"     IVar="1" Cut="     7.562350E-01" cType="1"     res="     0.000000E+00" rms="0.0"     purity="0.00000000E+00" nType="0">
                <Node pos="l" depth="4" NCoef="0"     IVar="-1" Cut="     0.000000E+00" cType="1"     res="    -1.667210E-02" rms="0.0e-00"     purity="0.00000000E+00" nType="-99">
                </Node>
                <Node pos="r" depth="4" NCoef="0"     IVar="-1" Cut="     0.000000E+00" cType="1"     res="     1.232030E-02" rms="0.0e-00"     purity="0.00000000E+00" nType="-99">
                </Node>
            </Node>
            <Node pos="r" depth="3" NCoef="0"     IVar="11" Cut="     1.449500E-02" cType="1"     res="     0.000000E+00" rms="0.0"     purity="0.00000000E+00" nType="0">
                <Node pos="l" depth="4" NCoef="0"     IVar="-1" Cut="     0.000000E+00" cType="1"     res="     5.579690E-02" rms="0.0e-00"     purity="0.00000000E+00" nType="-99">
                </Node>
                <Node pos="r" depth="4" NCoef="0"     IVar="-1" Cut="     0.000000E+00" cType="1"     res="     6.248320E-03" rms="0.0e-00"     purity="0.00000000E+00" nType="-99">
                </Node>
            </Node>
        </Node>
    </Node>
</BinaryTree>
<BinaryTree type="DecisionTree" boostWeight="0.0" itree="21">
    <Node pos="c" depth="1" NCoef="0"     IVar="15" Cut="     1.151250E-01" cType="1"     res="     0.000000E+00" rms="0.0"     purity="0.00000000E+00" nType="0">
        <Node pos="l" depth="2" NCoef="0"     IVar="11" Cut="     1.214500E-02" cType="1"     res="     0.000000E+00" rms="0.0"     purity="0.00000000E+00" nType="0">
            <Node pos="l" depth="3" NCoef="0"     IVar="1" Cut="     1.806300E-01" cType="1"     res="     0.000000E+00" rms="0.0"     purity="0.00000000E+00" nType="0">
                <Node pos="l" depth="4" NCoef="0"     IVar="-1" Cut="     0.000000E+00" cType="1"     res="     3.741420E-03" rms="0.0e-00"     purity="0.00000000E+00" nType="-99">
                </Node>
                <Node pos="r" depth="4" NCoef="0"     IVar="-1" Cut="     0.000000E+00" cType="1"     res="     5.477550E-02" rms="0.0e-00"     purity="0.00000000E+00" nType="-99">
                </Node>
            </Node>
            <Node pos="r" depth="3" NCoef="0"     IVar="0" Cut="     6.806900E-01" cType="1"     res="     0.000000E+00" rms="0.0"     purity="0.00000000E+00" nType="0">
                <Node pos="l" depth="4" NCoef="0"     IVar="-1" Cut="     0.000000E+00" cType="1"     res="    -1.896800E-02" rms="0.0e-00"     purity="0.00000000E+00" nType="-99">
                </Node>
                <Node pos="r" depth="4" NCoef="0"     IVar="-1" Cut="     0.000000E+00" cType="1"     res="     1.687940E-02" rms="0.0e-00"     purity="0.00000000E+00" nType="-99">
                </Node>
            </Node>
        </Node>
        <Node pos="r" depth="2" NCoef="0"     IVar="0" Cut="     8.098450E-01" cType="1"     res="     0.000000E+00" rms="0.0"     purity="0.00000000E+00" nType="0">
            <Node pos="l" depth="3" NCoef="0"     IVar="5" Cut="     4.695050E-01" cType="1"     res="     0.000000E+00" rms="0.0"     purity="0.00000000E+00" nType="0">
                <Node pos="l" depth="4" NCoef="0"     IVar="-1" Cut="     0.000000E+00" cType="1"     res="    -5.321920E-02" rms="0.0e-00"     purity="0.00000000E+00" nType="-99">
                </Node>
                <Node pos="r" depth="4" NCoef="0"     IVar="-1" Cut="     0.000000E+00" cType="1"     res="     7.499420E-03" rms="0.0e-00"     purity="0.00000000E+00" nType="-99">
                </Node>
            </Node>
            <Node pos="r" depth="3" NCoef="0"     IVar="11" Cut="     1.301500E-02" cType="1"     res="     0.000000E+00" rms="0.0"     purity="0.00000000E+00" nType="0">
                <Node pos="l" depth="4" NCoef="0"     IVar="-1" Cut="     0.000000E+00" cType="1"     res="     1.980070E-02" rms="0.0e-00"     purity="0.00000000E+00" nType="-99">
                </Node>
                <Node pos="r" depth="4" NCoef="0"     IVar="-1" Cut="     0.000000E+00" cType="1"     res="    -1.007120E-02" rms="0.0e-00"     purity="0.00000000E+00" nType="-99">
                </Node>
            </Node>
        </Node>
    </Node>
</BinaryTree>
<BinaryTree type="DecisionTree" boostWeight="0.0" itree="22">
    <Node pos="c" depth="1" NCoef="0"     IVar="1" Cut="     5.621450E-01" cType="1"     res="     0.000000E+00" rms="0.0"     purity="0.00000000E+00" nType="0">
        <Node pos="l" depth="2" NCoef="0"     IVar="13" Cut="     9.755500E-02" cType="1"     res="     0.000000E+00" rms="0.0"     purity="0.00000000E+00" nType="0">
            <Node pos="l" depth="3" NCoef="0"     IVar="11" Cut="     1.172500E-02" cType="1"     res="     0.000000E+00" rms="0.0"     purity="0.00000000E+00" nType="0">
                <Node pos="l" depth="4" NCoef="0"     IVar="-1" Cut="     0.000000E+00" cType="1"     res="     2.530930E-02" rms="0.0e-00"     purity="0.00000000E+00" nType="-99">
                </Node>
                <Node pos="r" depth="4" NCoef="0"     IVar="-1" Cut="     0.000000E+00" cType="1"     res="    -6.777940E-03" rms="0.0e-00"     purity="0.00000000E+00" nType="-99">
                </Node>
            </Node>
            <Node pos="r" depth="3" NCoef="0"     IVar="5" Cut="     4.455050E-01" cType="1"     res="     0.000000E+00" rms="0.0"     purity="0.00000000E+00" nType="0">
                <Node pos="l" depth="4" NCoef="0"     IVar="-1" Cut="     0.000000E+00" cType="1"     res="    -5.130090E-02" rms="0.0e-00"     purity="0.00000000E+00" nType="-99">
                </Node>
                <Node pos="r" depth="4" NCoef="0"     IVar="-1" Cut="     0.000000E+00" cType="1"     res="     8.164170E-03" rms="0.0e-00"     purity="0.00000000E+00" nType="-99">
                </Node>
            </Node>
        </Node>
        <Node pos="r" depth="2" NCoef="0"     IVar="11" Cut="     1.404500E-02" cType="1"     res="     0.000000E+00" rms="0.0"     purity="0.00000000E+00" nType="0">
            <Node pos="l" depth="3" NCoef="0"     IVar="5" Cut="     1.285350E-01" cType="1"     res="     0.000000E+00" rms="0.0"     purity="0.00000000E+00" nType="0">
                <Node pos="l" depth="4" NCoef="0"     IVar="-1" Cut="     0.000000E+00" cType="1"     res="     2.042380E-03" rms="0.0e-00"     purity="0.00000000E+00" nType="-99">
                </Node>
                <Node pos="r" depth="4" NCoef="0"     IVar="-1" Cut="     0.000000E+00" cType="1"     res="     5.054780E-02" rms="0.0e-00"     purity="0.00000000E+00" nType="-99">
                </Node>
            </Node>
            <Node pos="r" depth="3" NCoef="0"     IVar="15" Cut="     1.037050E-01" cType="1"     res="     0.000000E+00" rms="0.0"     purity="0.00000000E+00" nType="0">
                <Node pos="l" depth="4" NCoef="0"     IVar="-1" Cut="     0.000000E+00" cType="1"     res="     1.161410E-02" rms="0.0e-00"     purity="0.00000000E+00" nType="-99">
                </Node>
                <Node pos="r" depth="4" NCoef="0"     IVar="-1" Cut="     0.000000E+00" cType="1"     res="    -1.481220E-02" rms="0.0e-00"     purity="0.00000000E+00" nType="-99">
                </Node>
            </Node>
        </Node>
    </Node>
</BinaryTree>
<BinaryTree type="DecisionTree" boostWeight="0.0" itree="23">
    <Node pos="c" depth="1" NCoef="0"     IVar="0" Cut="     5.562650E-01" cType="1"     res="     0.000000E+00" rms="0.0"     purity="0.00000000E+00" nType="0">
        <Node pos="l" depth="2" NCoef="0"     IVar="11" Cut="     8.915000E-03" cType="1"     res="     0.000000E+00" rms="0.0"     purity="0.00000000E+00" nType="0">
            <Node pos="l" depth="3" NCoef="0"     IVar="5" Cut="     2.552950E-01" cType="1"     res="     0.000000E+00" rms="0.0"     purity="0.00000000E+00" nType="0">
                <Node pos="l" depth="4" NCoef="0"     IVar="-1" Cut="     0.000000E+00" cType="1"     res="    -1.231550E-02" rms="0.0e-00"     purity="0.00000000E+00" nType="-99">
                </Node>
                <Node pos="r" depth="4" NCoef="0"     IVar="-1" Cut="     0.000000E+00" cType="1"     res="     2.191390E-02" rms="0.0e-00"     purity="0.00000000E+00" nType="-99">
                </Node>
            </Node>
            <Node pos="r" depth="3" NCoef="0"     IVar="1" Cut="     9.525300E-01" cType="1"     res="     0.000000E+00" rms="0.0"     purity="0.00000000E+00" nType="0">
                <Node pos="l" depth="4" NCoef="0"     IVar="-1" Cut="     0.000000E+00" cType="1"     res="    -5.310690E-02" rms="0.0e-00"     purity="0.00000000E+00" nType="-99">
                </Node>
                <Node pos="r" depth="4" NCoef="0"     IVar="-1" Cut="     0.000000E+00" cType="1"     res="     7.734440E-03" rms="0.0e-00"     purity="0.00000000E+00" nType="-99">
                </Node>
            </Node>
        </Node>
        <Node pos="r" depth="2" NCoef="0"     IVar="11" Cut="     1.261500E-02" cType="1"     res="     0.000000E+00" rms="0.0"     purity="0.00000000E+00" nType="0">
            <Node pos="l" depth="3" NCoef="0"     IVar="15" Cut="     1.635950E-01" cType="1"     res="     0.000000E+00" rms="0.0"     purity="0.00000000E+00" nType="0">
                <Node pos="l" depth="4" NCoef="0"     IVar="-1" Cut="     0.000000E+00" cType="1"     res="     4.752040E-02" rms="0.0e-00"     purity="0.00000000E+00" nType="-99">
                </Node>
                <Node pos="r" depth="4" NCoef="0"     IVar="-1" Cut="     0.000000E+00" cType="1"     res="     1.909460E-03" rms="0.0e-00"     purity="0.00000000E+00" nType="-99">
                </Node>
            </Node>
            <Node pos="r" depth="3" NCoef="0"     IVar="15" Cut="     1.151750E-01" cType="1"     res="     0.000000E+00" rms="0.0"     purity="0.00000000E+00" nType="0">
                <Node pos="l" depth="4" NCoef="0"     IVar="-1" Cut="     0.000000E+00" cType="1"     res="     1.354180E-02" rms="0.0e-00"     purity="0.00000000E+00" nType="-99">
                </Node>
                <Node pos="r" depth="4" NCoef="0"     IVar="-1" Cut="     0.000000E+00" cType="1"     res="    -1.826970E-02" rms="0.0e-00"     purity="0.00000000E+00" nType="-99">
                </Node>
            </Node>
        </Node>
    </Node>
</BinaryTree>
<BinaryTree type="DecisionTree" boostWeight="0.0" itree="24">
    <Node pos="c" depth="1" NCoef="0"     IVar="5" Cut="     2.765450E-01" cType="1"     res="     0.000000E+00" rms="0.0"     purity="0.00000000E+00" nType="0">
        <Node pos="l" depth="2" NCoef="0"     IVar="1" Cut="     9.279650E-01" cType="1"     res="     0.000000E+00" rms="0.0"     purity="0.00000000E+00" nType="0">
            <Node pos="l" depth="3" NCoef="0"     IVar="0" Cut="     9.630650E-01" cType="1"     res="     0.000000E+00" rms="0.0"     purity="0.00000000E+00" nType="0">
                <Node pos="l" depth="4" NCoef="0"     IVar="-1" Cut="     0.000000E+00" cType="1"     res="    -4.837500E-02" rms="0.0e-00"     purity="0.00000000E+00" nType="-99">
                </Node>
                <Node pos="r" depth="4" NCoef="0"     IVar="-1" Cut="     0.000000E+00" cType="1"     res="     1.179660E-02" rms="0.0e-00"     purity="0.00000000E+00" nType="-99">
                </Node>
            </Node>
            <Node pos="r" depth="3" NCoef="0"     IVar="1" Cut="     9.519950E-01" cType="1"     res="     0.000000E+00" rms="0.0"     purity="0.00000000E+00" nType="0">
                <Node pos="l" depth="4" NCoef="0"     IVar="-1" Cut="     0.000000E+00" cType="1"     res="    -4.345580E-04" rms="0.0e-00"     purity="0.00000000E+00" nType="-99">
                </Node>
                <Node pos="r" depth="4" NCoef="0"     IVar="-1" Cut="     0.000000E+00" cType="1"     res="     1.991500E-02" rms="0.0e-00"     purity="0.00000000E+00" nType="-99">
                </Node>
            </Node>
        </Node>
        <Node pos="r" depth="2" NCoef="0"     IVar="11" Cut="     1.179500E-02" cType="1"     res="     0.000000E+00" rms="0.0"     purity="0.00000000E+00" nType="0">
            <Node pos="l" depth="3" NCoef="0"     IVar="0" Cut="     2.002650E-01" cType="1"     res="     0.000000E+00" rms="0.0"     purity="0.00000000E+00" nType="0">
                <Node pos="l" depth="4" NCoef="0"     IVar="-1" Cut="     0.000000E+00" cType="1"     res="     2.568230E-03" rms="0.0e-00"     purity="0.00000000E+00" nType="-99">
                </Node>
                <Node pos="r" depth="4" NCoef="0"     IVar="-1" Cut="     0.000000E+00" cType="1"     res="     4.705670E-02" rms="0.0e-00"     purity="0.00000000E+00" nType="-99">
                </Node>
            </Node>
            <Node pos="r" depth="3" NCoef="0"     IVar="0" Cut="     7.800050E-01" cType="1"     res="     0.000000E+00" rms="0.0"     purity="0.00000000E+00" nType="0">
                <Node pos="l" depth="4" NCoef="0"     IVar="-1" Cut="     0.000000E+00" cType="1"     res="    -1.698420E-02" rms="0.0e-00"     purity="0.00000000E+00" nType="-99">
                </Node>
                <Node pos="r" depth="4" NCoef="0"     IVar="-1" Cut="     0.000000E+00" cType="1"     res="     1.455150E-02" rms="0.0e-00"     purity="0.00000000E+00" nType="-99">
                </Node>
            </Node>
        </Node>
    </Node>
</BinaryTree>
<BinaryTree type="DecisionTree" boostWeight="0.0" itree="25">
    <Node pos="c" depth="1" NCoef="0"     IVar="15" Cut="     1.153550E-01" cType="1"     res="     0.000000E+00" rms="0.0"     purity="0.00000000E+00" nType="0">
        <Node pos="l" depth="2" NCoef="0"     IVar="0" Cut="     3.328150E-01" cType="1"     res="     0.000000E+00" rms="0.0"     purity="0.00000000E+00" nType="0">
            <Node pos="l" depth="3" NCoef="0"     IVar="11" Cut="     8.915000E-03" cType="1"     res="     0.000000E+00" rms="0.0"     purity="0.00000000E+00" nType="0">
                <Node pos="l" depth="4" NCoef="0"     IVar="-1" Cut="     0.000000E+00" cType="1"     res="     1.208640E-02" rms="0.0e-00"     purity="0.00000000E+00" nType="-99">
                </Node>
                <Node pos="r" depth="4" NCoef="0"     IVar="-1" Cut="     0.000000E+00" cType="1"     res="    -1.586840E-02" rms="0.0e-00"     purity="0.00000000E+00" nType="-99">
                </Node>
            </Node>
            <Node pos="r" depth="3" NCoef="0"     IVar="1" Cut="     1.953050E-01" cType="1"     res="     0.000000E+00" rms="0.0"     purity="0.00000000E+00" nType="0">
                <Node pos="l" depth="4" NCoef="0"     IVar="-1" Cut="     0.000000E+00" cType="1"     res="     2.261840E-03" rms="0.0e-00"     purity="0.00000000E+00" nType="-99">
                </Node>
                <Node pos="r" depth="4" NCoef="0"     IVar="-1" Cut="     0.000000E+00" cType="1"     res="     4.672340E-02" rms="0.0e-00"     purity="0.00000000E+00" nType="-99">
                </Node>
            </Node>
        </Node>
        <Node pos="r" depth="2" NCoef="0"     IVar="0" Cut="     9.502450E-01" cType="1"     res="     0.000000E+00" rms="0.0"     purity="0.00000000E+00" nType="0">
            <Node pos="l" depth="3" NCoef="0"     IVar="5" Cut="     4.192200E-01" cType="1"     res="     0.000000E+00" rms="0.0"     purity="0.00000000E+00" nType="0">
                <Node pos="l" depth="4" NCoef="0"     IVar="-1" Cut="     0.000000E+00" cType="1"     res="    -4.547060E-02" rms="0.0e-00"     purity="0.00000000E+00" nType="-99">
                </Node>
                <Node pos="r" depth="4" NCoef="0"     IVar="-1" Cut="     0.000000E+00" cType="1"     res="     7.065890E-03" rms="0.0e-00"     purity="0.00000000E+00" nType="-99">
                </Node>
            </Node>
            <Node pos="r" depth="3" NCoef="0"     IVar="2" Cut="     9.530600E-01" cType="1"     res="     0.000000E+00" rms="0.0"     purity="0.00000000E+00" nType="0">
                <Node pos="l" depth="4" NCoef="0"     IVar="-1" Cut="     0.000000E+00" cType="1"     res="     1.899200E-02" rms="0.0e-00"     purity="0.00000000E+00" nType="-99">
                </Node>
                <Node pos="r" depth="4" NCoef="0"     IVar="-1" Cut="     0.000000E+00" cType="1"     res="    -1.157810E-03" rms="0.0e-00"     purity="0.00000000E+00" nType="-99">
                </Node>
            </Node>
        </Node>
    </Node>
</BinaryTree>
<BinaryTree type="DecisionTree" boostWeight="0.0" itree="26">
    <Node pos="c" depth="1" NCoef="0"     IVar="11" Cut="     9.485000E-03" cType="1"     res="     0.000000E+00" rms="0.0"     purity="0.00000000E+00" nType="0">
        <Node pos="l" depth="2" NCoef="0"     IVar="15" Cut="     1.376750E-01" cType="1"     res="     0.000000E+00" rms="0.0"     purity="0.00000000E+00" nType="0">
            <Node pos="l" depth="3" NCoef="0"     IVar="0" Cut="     1.756700E-01" cType="1"     res="     0.000000E+00" rms="0.0"     purity="0.00000000E+00" nType="0">
                <Node pos="l" depth="4" NCoef="0"     IVar="-1" Cut="     0.000000E+00" cType="1"     res="     1.495350E-03" rms="0.0e-00"     purity="0.00000000E+00" nType="-99">
                </Node>
                <Node pos="r" depth="4" NCoef="0"     IVar="-1" Cut="     0.000000E+00" cType="1"     res="     4.582830E-02" rms="0.0e-00"     purity="0.00000000E+00" nType="-99">
                </Node>
            </Node>
            <Node pos="r" depth="3" NCoef="0"     IVar="0" Cut="     5.560350E-01" cType="1"     res="     0.000000E+00" rms="0.0"     purity="0.00000000E+00" nType="0">
                <Node pos="l" depth="4" NCoef="0"     IVar="-1" Cut="     0.000000E+00" cType="1"     res="    -1.344880E-02" rms="0.0e-00"     purity="0.00000000E+00" nType="-99">
                </Node>
                <Node pos="r" depth="4" NCoef="0"     IVar="-1" Cut="     0.000000E+00" cType="1"     res="     1.026700E-02" rms="0.0e-00"     purity="0.00000000E+00" nType="-99">
                </Node>
            </Node>
        </Node>
        <Node pos="r" depth="2" NCoef="0"     IVar="0" Cut="     9.299850E-01" cType="1"     res="     0.000000E+00" rms="0.0"     purity="0.00000000E+00" nType="0">
            <Node pos="l" depth="3" NCoef="0"     IVar="1" Cut="     9.307650E-01" cType="1"     res="     0.000000E+00" rms="0.0"     purity="0.00000000E+00" nType="0">
                <Node pos="l" depth="4" NCoef="0"     IVar="-1" Cut="     0.000000E+00" cType="1"     res="    -4.568470E-02" rms="0.0e-00"     purity="0.00000000E+00" nType="-99">
                </Node>
                <Node pos="r" depth="4" NCoef="0"     IVar="-1" Cut="     0.000000E+00" cType="1"     res="     1.244140E-02" rms="0.0e-00"     purity="0.00000000E+00" nType="-99">
                </Node>
            </Node>
            <Node pos="r" depth="3" NCoef="0"     IVar="2" Cut="     9.338750E-01" cType="1"     res="     0.000000E+00" rms="0.0"     purity="0.00000000E+00" nType="0">
                <Node pos="l" depth="4" NCoef="0"     IVar="-1" Cut="     0.000000E+00" cType="1"     res="     2.202020E-02" rms="0.0e-00"     purity="0.00000000E+00" nType="-99">
                </Node>
                <Node pos="r" depth="4" NCoef="0"     IVar="-1" Cut="     0.000000E+00" cType="1"     res="    -1.878150E-03" rms="0.0e-00"     purity="0.00000000E+00" nType="-99">
                </Node>
            </Node>
        </Node>
    </Node>
</BinaryTree>
<BinaryTree type="DecisionTree" boostWeight="0.0" itree="27">
    <Node pos="c" depth="1" NCoef="0"     IVar="13" Cut="     1.170950E-01" cType="1"     res="     0.000000E+00" rms="0.0"     purity="0.00000000E+00" nType="0">
        <Node pos="l" depth="2" NCoef="0"     IVar="0" Cut="     4.046100E-01" cType="1"     res="     0.000000E+00" rms="0.0"     purity="0.00000000E+00" nType="0">
            <Node pos="l" depth="3" NCoef="0"     IVar="11" Cut="     9.045000E-03" cType="1"     res="     0.000000E+00" rms="0.0"     purity="0.00000000E+00" nType="0">
                <Node pos="l" depth="4" NCoef="0"     IVar="-1" Cut="     0.000000E+00" cType="1"     res="     1.221110E-02" rms="0.0e-00"     purity="0.00000000E+00" nType="-99">
                </Node>
                <Node pos="r" depth="4" NCoef="0"     IVar="-1" Cut="     0.000000E+00" cType="1"     res="    -1.399420E-02" rms="0.0e-00"     purity="0.00000000E+00" nType="-99">
                </Node>
            </Node>
            <Node pos="r" depth="3" NCoef="0"     IVar="11" Cut="     1.886500E-02" cType="1"     res="     0.000000E+00" rms="0.0"     purity="0.00000000E+00" nType="0">
                <Node pos="l" depth="4" NCoef="0"     IVar="-1" Cut="     0.000000E+00" cType="1"     res="     4.218200E-02" rms="0.0e-00"     purity="0.00000000E+00" nType="-99">
                </Node>
                <Node pos="r" depth="4" NCoef="0"     IVar="-1" Cut="     0.000000E+00" cType="1"     res="     6.869240E-04" rms="0.0e-00"     purity="0.00000000E+00" nType="-99">
                </Node>
            </Node>
        </Node>
        <Node pos="r" depth="2" NCoef="0"     IVar="1" Cut="     9.094050E-01" cType="1"     res="     0.000000E+00" rms="0.0"     purity="0.00000000E+00" nType="0">
            <Node pos="l" depth="3" NCoef="0"     IVar="0" Cut="     9.630650E-01" cType="1"     res="     0.000000E+00" rms="0.0"     purity="0.00000000E+00" nType="0">
                <Node pos="l" depth="4" NCoef="0"     IVar="-1" Cut="     0.000000E+00" cType="1"     res="    -4.183900E-02" rms="0.0e-00"     purity="0.00000000E+00" nType="-99">
                </Node>
                <Node pos="r" depth="4" NCoef="0"     IVar="-1" Cut="     0.000000E+00" cType="1"     res="     1.094880E-02" rms="0.0e-00"     purity="0.00000000E+00" nType="-99">
                </Node>
            </Node>
            <Node pos="r" depth="3" NCoef="0"     IVar="1" Cut="     9.523900E-01" cType="1"     res="     0.000000E+00" rms="0.0"     purity="0.00000000E+00" nType="0">
                <Node pos="l" depth="4" NCoef="0"     IVar="-1" Cut="     0.000000E+00" cType="1"     res="    -7.027410E-04" rms="0.0e-00"     purity="0.00000000E+00" nType="-99">
                </Node>
                <Node pos="r" depth="4" NCoef="0"     IVar="-1" Cut="     0.000000E+00" cType="1"     res="     1.956830E-02" rms="0.0e-00"     purity="0.00000000E+00" nType="-99">
                </Node>
            </Node>
        </Node>
    </Node>
</BinaryTree>
<BinaryTree type="DecisionTree" boostWeight="0.0" itree="28">
    <Node pos="c" depth="1" NCoef="0"     IVar="1" Cut="     5.567850E-01" cType="1"     res="     0.000000E+00" rms="0.0"     purity="0.00000000E+00" nType="0">
        <Node pos="l" depth="2" NCoef="0"     IVar="5" Cut="     4.159950E-01" cType="1"     res="     0.000000E+00" rms="0.0"     purity="0.00000000E+00" nType="0">
            <Node pos="l" depth="3" NCoef="0"     IVar="0" Cut="     9.691050E-01" cType="1"     res="     0.000000E+00" rms="0.0"     purity="0.00000000E+00" nType="0">
                <Node pos="l" depth="4" NCoef="0"     IVar="-1" Cut="     0.000000E+00" cType="1"     res="    -4.105770E-02" rms="0.0e-00"     purity="0.00000000E+00" nType="-99">
                </Node>
                <Node pos="r" depth="4" NCoef="0"     IVar="-1" Cut="     0.000000E+00" cType="1"     res="     1.042210E-02" rms="0.0e-00"     purity="0.00000000E+00" nType="-99">
                </Node>
            </Node>
            <Node pos="r" depth="3" NCoef="0"     IVar="11" Cut="     1.280500E-02" cType="1"     res="     0.000000E+00" rms="0.0"     purity="0.00000000E+00" nType="0">
                <Node pos="l" depth="4" NCoef="0"     IVar="-1" Cut="     0.000000E+00" cType="1"     res="     2.053220E-02" rms="0.0e-00"     purity="0.00000000E+00" nType="-99">
                </Node>
                <Node pos="r" depth="4" NCoef="0"     IVar="-1" Cut="     0.000000E+00" cType="1"     res="    -3.672530E-03" rms="0.0e-00"     purity="0.00000000E+00" nType="-99">
                </Node>
            </Node>
        </Node>
        <Node pos="r" depth="2" NCoef="0"     IVar="11" Cut="     1.404500E-02" cType="1"     res="     0.000000E+00" rms="0.0"     purity="0.00000000E+00" nType="0">
            <Node pos="l" depth="3" NCoef="0"     IVar="5" Cut="     1.075250E-01" cType="1"     res="     0.000000E+00" rms="0.0"     purity="0.00000000E+00" nType="0">
                <Node pos="l" depth="4" NCoef="0"     IVar="-1" Cut="     0.000000E+00" cType="1"     res="     1.036120E-03" rms="0.0e-00"     purity="0.00000000E+00" nType="-99">
                </Node>
                <Node pos="r" depth="4" NCoef="0"     IVar="-1" Cut="     0.000000E+00" cType="1"     res="     4.117700E-02" rms="0.0e-00"     purity="0.00000000E+00" nType="-99">
                </Node>
            </Node>
            <Node pos="r" depth="3" NCoef="0"     IVar="6" Cut="     2.718050E-01" cType="1"     res="     0.000000E+00" rms="0.0"     purity="0.00000000E+00" nType="0">
                <Node pos="l" depth="4" NCoef="0"     IVar="-1" Cut="     0.000000E+00" cType="1"     res="    -1.202990E-02" rms="0.0e-00"     purity="0.00000000E+00" nType="-99">
                </Node>
                <Node pos="r" depth="4" NCoef="0"     IVar="-1" Cut="     0.000000E+00" cType="1"     res="     9.812720E-03" rms="0.0e-00"     purity="0.00000000E+00" nType="-99">
                </Node>
            </Node>
        </Node>
    </Node>
</BinaryTree>
<BinaryTree type="DecisionTree" boostWeight="0.0" itree="29">
    <Node pos="c" depth="1" NCoef="0"     IVar="0" Cut="     5.562650E-01" cType="1"     res="     0.000000E+00" rms="0.0"     purity="0.00000000E+00" nType="0">
        <Node pos="l" depth="2" NCoef="0"     IVar="11" Cut="     9.015000E-03" cType="1"     res="     0.000000E+00" rms="0.0"     purity="0.00000000E+00" nType="0">
            <Node pos="l" depth="3" NCoef="0"     IVar="5" Cut="     2.551750E-01" cType="1"     res="     0.000000E+00" rms="0.0"     purity="0.00000000E+00" nType="0">
                <Node pos="l" depth="4" NCoef="0"     IVar="-1" Cut="     0.000000E+00" cType="1"     res="    -9.684190E-03" rms="0.0e-00"     purity="0.00000000E+00" nType="-99">
                </Node>
                <Node pos="r" depth="4" NCoef="0"     IVar="-1" Cut="     0.000000E+00" cType="1"     res="     1.736580E-02" rms="0.0e-00"     purity="0.00000000E+00" nType="-99">
                </Node>
            </Node>
            <Node pos="r" depth="3" NCoef="0"     IVar="14" Cut="     1.224350E-01" cType="1"     res="     0.000000E+00" rms="0.0"     purity="0.00000000E+00" nType="0">
                <Node pos="l" depth="4" NCoef="0"     IVar="-1" Cut="     0.000000E+00" cType="1"     res="     5.856040E-03" rms="0.0e-00"     purity="0.00000000E+00" nType="-99">
                </Node>
                <Node pos="r" depth="4" NCoef="0"     IVar="-1" Cut="     0.000000E+00" cType="1"     res="    -4.427150E-02" rms="0.0e-00"     purity="0.00000000E+00" nType="-99">
                </Node>
            </Node>
        </Node>
        <Node pos="r" depth="2" NCoef="0"     IVar="11" Cut="     1.255500E-02" cType="1"     res="     0.000000E+00" rms="0.0"     purity="0.00000000E+00" nType="0">
            <Node pos="l" depth="3" NCoef="0"     IVar="6" Cut="     9.188000E-02" cType="1"     res="     0.000000E+00" rms="0.0"     purity="0.00000000E+00" nType="0">
                <Node pos="l" depth="4" NCoef="0"     IVar="-1" Cut="     0.000000E+00" cType="1"     res="    -3.674910E-04" rms="0.0e-00"     purity="0.00000000E+00" nType="-99">
                </Node>
                <Node pos="r" depth="4" NCoef="0"     IVar="-1" Cut="     0.000000E+00" cType="1"     res="     3.870470E-02" rms="0.0e-00"     purity="0.00000000E+00" nType="-99">
                </Node>
            </Node>
            <Node pos="r" depth="3" NCoef="0"     IVar="14" Cut="     1.643450E-01" cType="1"     res="     0.000000E+00" rms="0.0"     purity="0.00000000E+00" nType="0">
                <Node pos="l" depth="4" NCoef="0"     IVar="-1" Cut="     0.000000E+00" cType="1"     res="     1.290770E-02" rms="0.0e-00"     purity="0.00000000E+00" nType="-99">
                </Node>
                <Node pos="r" depth="4" NCoef="0"     IVar="-1" Cut="     0.000000E+00" cType="1"     res="    -1.268520E-02" rms="0.0e-00"     purity="0.00000000E+00" nType="-99">
                </Node>
            </Node>
        </Node>
    </Node>
</BinaryTree>
<BinaryTree type="DecisionTree" boostWeight="0.0" itree="30">
    <Node pos="c" depth="1" NCoef="0"     IVar="6" Cut="     2.675450E-01" cType="1"     res="     0.000000E+00" rms="0.0"     purity="0.00000000E+00" nType="0">
        <Node pos="l" depth="2" NCoef="0"     IVar="0" Cut="     9.631850E-01" cType="1"     res="     0.000000E+00" rms="0.0"     purity="0.00000000E+00" nType="0">
            <Node pos="l" depth="3" NCoef="0"     IVar="5" Cut="     5.413750E-01" cType="1"     res="     0.000000E+00" rms="0.0"     purity="0.00000000E+00" nType="0">
                <Node pos="l" depth="4" NCoef="0"     IVar="-1" Cut="     0.000000E+00" cType="1"     res="    -3.721670E-02" rms="0.0e-00"     purity="0.00000000E+00" nType="-99">
                </Node>
                <Node pos="r" depth="4" NCoef="0"     IVar="-1" Cut="     0.000000E+00" cType="1"     res="     1.355700E-02" rms="0.0e-00"     purity="0.00000000E+00" nType="-99">
                </Node>
            </Node>
            <Node pos="r" depth="3" NCoef="0"     IVar="3" Cut="     8.107000E-01" cType="1"     res="     0.000000E+00" rms="0.0"     purity="0.00000000E+00" nType="0">
                <Node pos="l" depth="4" NCoef="0"     IVar="-1" Cut="     0.000000E+00" cType="1"     res="     1.822100E-02" rms="0.0e-00"     purity="0.00000000E+00" nType="-99">
                </Node>
                <Node pos="r" depth="4" NCoef="0"     IVar="-1" Cut="     0.000000E+00" cType="1"     res="    -6.666210E-04" rms="0.0e-00"     purity="0.00000000E+00" nType="-99">
                </Node>
            </Node>
        </Node>
        <Node pos="r" depth="2" NCoef="0"     IVar="0" Cut="     2.485050E-01" cType="1"     res="     0.000000E+00" rms="0.0"     purity="0.00000000E+00" nType="0">
            <Node pos="l" depth="3" NCoef="0"     IVar="1" Cut="     7.562350E-01" cType="1"     res="     0.000000E+00" rms="0.0"     purity="0.00000000E+00" nType="0">
                <Node pos="l" depth="4" NCoef="0"     IVar="-1" Cut="     0.000000E+00" cType="1"     res="    -1.225800E-02" rms="0.0e-00"     purity="0.00000000E+00" nType="-99">
                </Node>
                <Node pos="r" depth="4" NCoef="0"     IVar="-1" Cut="     0.000000E+00" cType="1"     res="     7.430720E-03" rms="0.0e-00"     purity="0.00000000E+00" nType="-99">
                </Node>
            </Node>
            <Node pos="r" depth="3" NCoef="0"     IVar="1" Cut="     1.863250E-01" cType="1"     res="     0.000000E+00" rms="0.0"     purity="0.00000000E+00" nType="0">
                <Node pos="l" depth="4" NCoef="0"     IVar="-1" Cut="     0.000000E+00" cType="1"     res="     2.109090E-03" rms="0.0e-00"     purity="0.00000000E+00" nType="-99">
                </Node>
                <Node pos="r" depth="4" NCoef="0"     IVar="-1" Cut="     0.000000E+00" cType="1"     res="     3.864450E-02" rms="0.0e-00"     purity="0.00000000E+00" nType="-99">
                </Node>
            </Node>
        </Node>
