<?xml version="1.0"?>
<MethodSetup Method="BDT::BDT">
  <GeneralInfo>
    <Info name="TMVA Release" value="4.2.0 [262656]"/>
    <Info name="ROOT Release" value="5.34/36 [336420]"/>
    <Info name="Creator" value="ikucher"/>
    <Info name="Date" value="Fri Jul 15 19:00:52 2016"/>
    <Info name="Host" value="Linux buildvm-19.phx2.fedoraproject.org 4.3.5-300.fc23.x86_64 #1 SMP Mon Feb 1 03:18:41 UTC 2016 x86_64 x86_64 x86_64 GNU/Linux"/>
    <Info name="Dir" value="/afs/cern.ch/work/i/ikucher/public/ICHEP_flashgg/CMSSW_8_0_8_patch1/src/flashgg/PhoIdTrain_shift"/>
    <Info name="Training events" value="1427223"/>
    <Info name="TrainingTime" value="3.22157517e+03"/>
    <Info name="AnalysisType" value="Classification"/>
  </GeneralInfo>
  <Options>
    <Option name="V" modified="Yes">False</Option>
    <Option name="VerbosityLevel" modified="No">Default</Option>
    <Option name="VarTransform" modified="No">None</Option>
    <Option name="H" modified="Yes">False</Option>
    <Option name="CreateMVAPdfs" modified="No">False</Option>
    <Option name="IgnoreNegWeightsInTraining" modified="Yes">True</Option>
    <Option name="NTrees" modified="Yes">1000</Option>
    <Option name="MaxDepth" modified="Yes">3</Option>
    <Option name="MinNodeSize" modified="No">5%</Option>
    <Option name="nCuts" modified="Yes">2000</Option>
    <Option name="BoostType" modified="Yes">Grad</Option>
    <Option name="AdaBoostR2Loss" modified="No">quadratic</Option>
    <Option name="UseBaggedBoost" modified="No">False</Option>
    <Option name="Shrinkage" modified="Yes">1.000000e-01</Option>
    <Option name="AdaBoostBeta" modified="No">5.000000e-01</Option>
    <Option name="UseRandomisedTrees" modified="No">False</Option>
    <Option name="UseNvars" modified="No">4</Option>
    <Option name="UsePoissonNvars" modified="No">True</Option>
    <Option name="BaggedSampleFraction" modified="No">6.000000e-01</Option>
    <Option name="UseYesNoLeaf" modified="Yes">False</Option>
    <Option name="NegWeightTreatment" modified="No">ignorenegweightsintraining</Option>
    <Option name="Css" modified="No">1.000000e+00</Option>
    <Option name="Cts_sb" modified="No">1.000000e+00</Option>
    <Option name="Ctb_ss" modified="No">1.000000e+00</Option>
    <Option name="Cbb" modified="No">1.000000e+00</Option>
    <Option name="NodePurityLimit" modified="No">5.000000e-01</Option>
    <Option name="SeparationType" modified="No">giniindex</Option>
    <Option name="DoBoostMonitor" modified="No">False</Option>
    <Option name="UseFisherCuts" modified="No">False</Option>
    <Option name="MinLinCorrForFisher" modified="No">8.000000e-01</Option>
    <Option name="UseExclusiveVars" modified="No">False</Option>
    <Option name="DoPreselection" modified="No">False</Option>
    <Option name="SigToBkgFraction" modified="No">1.000000e+00</Option>
    <Option name="PruneMethod" modified="No">nopruning</Option>
    <Option name="PruneStrength" modified="No">0.000000e+00</Option>
    <Option name="PruningValFraction" modified="No">5.000000e-01</Option>
    <Option name="nEventsMin" modified="No">0</Option>
    <Option name="UseBaggedGrad" modified="Yes">False</Option>
    <Option name="GradBaggingFraction" modified="No">6.000000e-01</Option>
    <Option name="UseNTrainEvents" modified="No">0</Option>
    <Option name="NNodesMax" modified="No">0</Option>
  </Options>
  <Variables NVar="12">
    <Variable VarIndex="0" Expression="SCRawE" Label="SCRawE" Title="SCRawE" Unit="" Internal="SCRawE" Type="F" Min="9.22745037e+00" Max="1.96339209e+03"/>
    <Variable VarIndex="1" Expression="r9" Label="r9" Title="r9" Unit="" Internal="r9" Type="F" Min="5.00003755e-01" Max="1.84727669e+01"/>
    <Variable VarIndex="2" Expression="sigmaIetaIeta" Label="sigmaIetaIeta" Title="sigmaIetaIeta" Unit="" Internal="sigmaIetaIeta" Type="F" Min="1.25857350e-05" Max="2.77133435e-02"/>
    <Variable VarIndex="3" Expression="etaWidth" Label="etaWidth" Title="etaWidth" Unit="" Internal="etaWidth" Type="F" Min="2.27605505e-03" Max="2.36522421e-01"/>
    <Variable VarIndex="4" Expression="phiWidth" Label="phiWidth" Title="phiWidth" Unit="" Internal="phiWidth" Type="F" Min="2.41801399e-03" Max="1.04552162e+00"/>
    <Variable VarIndex="5" Expression="covIEtaIPhi" Label="covIEtaIPhi" Title="covIEtaIPhi" Unit="" Internal="covIEtaIPhi" Type="F" Min="-5.75303508e-04" Max="5.24273550e-04"/>
    <Variable VarIndex="6" Expression="s4" Label="s4" Title="s4" Unit="" Internal="s4" Type="F" Min="8.87983367e-02" Max="1.00055063e+00"/>
    <Variable VarIndex="7" Expression="phoIso03" Label="phoIso03" Title="phoIso03" Unit="" Internal="phoIso03" Type="F" Min="0.00000000e+00" Max="2.76189209e+02"/>
    <Variable VarIndex="8" Expression="chgIsoWrtChosenVtx" Label="chgIsoWrtChosenVtx" Title="chgIsoWrtChosenVtx" Unit="" Internal="chgIsoWrtChosenVtx" Type="F" Min="-1.00000000e+00" Max="5.39996094e+02"/>
    <Variable VarIndex="9" Expression="chgIsoWrtWorstVtx" Label="chgIsoWrtWorstVtx" Title="chgIsoWrtWorstVtx" Unit="" Internal="chgIsoWrtWorstVtx" Type="F" Min="-1.00000000e+00" Max="5.39996094e+02"/>
    <Variable VarIndex="10" Expression="scEta" Label="scEta" Title="scEta" Unit="" Internal="scEta" Type="F" Min="-1.44419909e+00" Max="1.44419909e+00"/>
    <Variable VarIndex="11" Expression="rho" Label="rho" Title="rho" Unit="" Internal="rho" Type="F" Min="0.00000000e+00" Max="4.33306465e+01"/>
  </Variables>
  <Spectators NSpec="0"/>
  <Classes NClass="2">
    <Class Name="Signal" Index="0"/>
    <Class Name="Background" Index="1"/>
  </Classes>
  <Transformations NTransformations="0"/>
  <MVAPdfs/>
  <Weights NTrees="1000" AnalysisType="1">
    <BinaryTree type="DecisionTree" boostWeight="1.0000000000000000e+00" itree="0">
      <Node pos="s" depth="0" NCoef="0" IVar="9" Cut="3.0554430484771729e+00" cType="1" res="1.2363660442660240e-12" rms="5.0000000000000000e-01" purity="5.0000000000000000e-01" nType="0">
        <Node pos="l" depth="1" NCoef="0" IVar="2" Cut="1.0434714145958424e-02" cType="1" res="2.5508534908294678e-01" rms="4.3003660440444946e-01" purity="7.5508534908294678e-01" nType="0">
          <Node pos="l" depth="2" NCoef="0" IVar="7" Cut="2.4810719490051270e+00" cType="1" res="3.4265029430389404e-01" rms="3.6413016915321350e-01" purity="8.4265029430389404e-01" nType="0">
            <Node pos="l" depth="3" NCoef="0" IVar="-1" Cut="0.0000000000000000e+00" cType="1" res="3.4676320850849152e-02" rms="3.1147095561027527e-01" purity="8.9113402366638184e-01" nType="-99"/>
            <Node pos="r" depth="3" NCoef="0" IVar="-1" Cut="0.0000000000000000e+00" cType="1" res="-3.8675125688314438e-03" rms="4.9851837754249573e-01" purity="4.6153649687767029e-01" nType="-99"/>
          </Node>
          <Node pos="r" depth="2" NCoef="0" IVar="-1" Cut="0.0000000000000000e+00" cType="1" res="-4.7003310173749924e-02" rms="3.4167265892028809e-01" purity="1.3495232164859772e-01" nType="-99"/>
        </Node>
        <Node pos="r" depth="1" NCoef="0" IVar="6" Cut="8.8800549507141113e-01" cType="1" res="-2.8848022222518921e-01" rms="4.0838605165481567e-01" purity="2.1151979267597198e-01" nType="0">
          <Node pos="l" depth="2" NCoef="0" IVar="2" Cut="9.5989145338535309e-03" cType="1" res="-4.0129905939102173e-01" rms="2.9826006293296814e-01" purity="9.8700940608978271e-02" nType="0">
            <Node pos="l" depth="3" NCoef="0" IVar="-1" Cut="0.0000000000000000e+00" cType="1" res="-3.3363264054059982e-02" rms="4.2185562849044800e-01" purity="2.3160134255886078e-01" nType="-99"/>
            <Node pos="r" depth="3" NCoef="0" IVar="-1" Cut="0.0000000000000000e+00" cType="1" res="-6.4475841820240021e-02" rms="2.1011336147785187e-01" purity="4.6290427446365356e-02" nType="-99"/>
          </Node>
          <Node pos="r" depth="2" NCoef="0" IVar="8" Cut="3.5082204341888428e+00" cType="1" res="-6.7937359213829041e-02" rms="4.9536302685737610e-01" purity="4.3206265568733215e-01" nType="0">
            <Node pos="l" depth="3" NCoef="0" IVar="-1" Cut="0.0000000000000000e+00" cType="1" res="1.1464922688901424e-02" rms="4.8447147011756897e-01" purity="6.2364220619201660e-01" nType="-99"/>
            <Node pos="r" depth="3" NCoef="0" IVar="-1" Cut="0.0000000000000000e+00" cType="1" res="-1.2573966756463051e-02" rms="4.7502851486206055e-01" purity="3.4396180510520935e-01" nType="-99"/>
          </Node>
        </Node>
      </Node>
    </BinaryTree>
    <BinaryTree type="DecisionTree" boostWeight="1.0000000000000000e+00" itree="1">
      <Node pos="s" depth="0" NCoef="0" IVar="9" Cut="3.0554430484771729e+00" cType="1" res="3.5227928310632706e-03" rms="4.8590853810310364e-01" purity="5.0000000000000000e-01" nType="0">
        <Node pos="l" depth="1" NCoef="0" IVar="2" Cut="1.0448319837450981e-02" cType="1" res="2.4470950663089752e-01" rms="4.2159673571586609e-01" purity="7.5508534908294678e-01" nType="0">
          <Node pos="l" depth="2" NCoef="0" IVar="7" Cut="2.5270178318023682e+00" cType="1" res="3.2718649506568909e-01" rms="3.6219093203544617e-01" purity="8.4230697154998779e-01" nType="0">
            <Node pos="l" depth="3" NCoef="0" IVar="-1" Cut="0.0000000000000000e+00" cType="1" res="3.3115234225988388e-02" rms="3.1245195865631104e-01" purity="8.9030230045318604e-01" nType="-99"/>
            <Node pos="r" depth="3" NCoef="0" IVar="-1" Cut="0.0000000000000000e+00" cType="1" res="-4.3887714855372906e-03" rms="4.9789330363273621e-01" purity="4.5447748899459839e-01" nType="-99"/>
          </Node>
          <Node pos="r" depth="2" NCoef="0" IVar="-1" Cut="0.0000000000000000e+00" cType="1" res="-4.4517695903778076e-02" rms="3.3917587995529175e-01" purity="1.3263134658336639e-01" nType="-99"/>
        </Node>
        <Node pos="r" depth="1" NCoef="0" IVar="6" Cut="8.8800549507141113e-01" cType="1" res="-2.6923924684524536e-01" rms="4.0239959955215454e-01" purity="2.1151979267597198e-01" nType="0">
          <Node pos="l" depth="2" NCoef="0" IVar="2" Cut="9.4611616805195808e-03" cType="1" res="-3.7349456548690796e-01" rms="2.9638040065765381e-01" purity="9.8700940608978271e-02" nType="0">
            <Node pos="l" depth="3" NCoef="0" IVar="-1" Cut="0.0000000000000000e+00" cType="1" res="-3.0571397393941879e-02" rms="4.2621153593063354e-01" purity="2.3857364058494568e-01" nType="-99"/>
            <Node pos="r" depth="3" NCoef="0" IVar="-1" Cut="0.0000000000000000e+00" cType="1" res="-5.9446252882480621e-02" rms="2.1621680259704590e-01" purity="4.9258697777986526e-02" nType="-99"/>
          </Node>
          <Node pos="r" depth="2" NCoef="0" IVar="8" Cut="3.5082204341888428e+00" cType="1" res="-6.5436713397502899e-02" rms="4.9392819404602051e-01" purity="4.3206265568733215e-01" nType="0">
            <Node pos="l" depth="3" NCoef="0" IVar="-1" Cut="0.0000000000000000e+00" cType="1" res="1.0934830643236637e-02" rms="4.8447149991989136e-01" purity="6.2364220619201660e-01" nType="-99"/>
            <Node pos="r" depth="3" NCoef="0" IVar="-1" Cut="0.0000000000000000e+00" cType="1" res="-1.2069279327988625e-02" rms="4.7502851486206055e-01" purity="3.4396180510520935e-01" nType="-99"/>
          </Node>
        </Node>
      </Node>
    </BinaryTree>
    <BinaryTree type="DecisionTree" boostWeight="1.0000000000000000e+00" itree="2">
      <Node pos="s" depth="0" NCoef="0" IVar="9" Cut="2.7850801944732666e+00" cType="1" res="6.6158943809568882e-03" rms="4.7308450937271118e-01" purity="5.0000000000000000e-01" nType="0">
        <Node pos="l" depth="1" NCoef="0" IVar="2" Cut="1.0529955849051476e-02" cType="1" res="2.4691051244735718e-01" rms="4.0636315941810608e-01" purity="7.6786231994628906e-01" nType="0">
          <Node pos="l" depth="2" NCoef="0" IVar="7" Cut="2.3891804218292236e+00" cType="1" res="3.1979754567146301e-01" rms="3.5333165526390076e-01" purity="8.4920704364776611e-01" nType="0">
            <Node pos="l" depth="3" NCoef="0" IVar="-1" Cut="0.0000000000000000e+00" cType="1" res="3.2299648970365524e-02" rms="3.0377423763275146e-01" purity="8.9691364765167236e-01" nType="-99"/>
            <Node pos="r" depth="3" NCoef="0" IVar="-1" Cut="0.0000000000000000e+00" cType="1" res="-1.6453100834041834e-03" rms="4.9817961454391479e-01" purity="4.8135289549827576e-01" nType="-99"/>
          </Node>
          <Node pos="r" depth="2" NCoef="0" IVar="-1" Cut="0.0000000000000000e+00" cType="1" res="-4.3042514473199844e-02" rms="3.3349081873893738e-01" purity="1.2746293842792511e-01" nType="-99"/>
        </Node>
        <Node pos="r" depth="1" NCoef="0" IVar="6" Cut="8.9165067672729492e-01" cType="1" res="-2.3877102136611938e-01" rms="4.0564823150634766e-01" purity="2.2646120190620422e-01" nType="0">
          <Node pos="l" depth="2" NCoef="0" IVar="2" Cut="9.8744193091988564e-03" cType="1" res="-3.3517152070999146e-01" rms="3.1312215328216553e-01" purity="1.1528774350881577e-01" nType="0">
            <Node pos="l" depth="3" NCoef="0" IVar="-1" Cut="0.0000000000000000e+00" cType="1" res="-2.6932643726468086e-02" rms="4.2716446518898010e-01" purity="2.4712084233760834e-01" nType="-99"/>
            <Node pos="r" depth="3" NCoef="0" IVar="-1" Cut="0.0000000000000000e+00" cType="1" res="-5.6764423847198486e-02" rms="2.0873802900314331e-01" purity="4.6074904501438141e-02" nType="-99"/>
          </Node>
          <Node pos="r" depth="2" NCoef="0" IVar="8" Cut="3.2383573055267334e+00" cType="1" res="-3.0024865642189980e-02" rms="4.9483597278594971e-01" purity="4.6719685196876526e-01" nType="0">
            <Node pos="l" depth="3" NCoef="0" IVar="-1" Cut="0.0000000000000000e+00" cType="1" res="1.4156945049762726e-02" rms="4.6891301870346069e-01" purity="6.6889649629592896e-01" nType="-99"/>
            <Node pos="r" depth="3" NCoef="0" IVar="-1" Cut="0.0000000000000000e+00" cType="1" res="-1.0121060535311699e-02" rms="4.8016771674156189e-01" purity="3.6139690876007080e-01" nType="-99"/>
          </Node>
        </Node>
      </Node>
    </BinaryTree>
    <BinaryTree type="DecisionTree" boostWeight="1.0000000000000000e+00" itree="3">
      <Node pos="s" depth="0" NCoef="0" IVar="8" Cut="1.9739915132522583e+00" cType="1" res="9.3595394864678383e-03" rms="4.6138295531272888e-01" purity="5.0000000000000000e-01" nType="0">
        <Node pos="l" depth="1" NCoef="0" IVar="2" Cut="1.0295490734279156e-02" cType="1" res="2.0818305015563965e-01" rms="4.1604936122894287e-01" purity="7.2986781597137451e-01" nType="0">
          <Node pos="l" depth="2" NCoef="0" IVar="7" Cut="2.8292372226715088e+00" cType="1" res="2.9352822899818420e-01" rms="3.6460930109024048e-01" purity="8.3017307519912720e-01" nType="0">
            <Node pos="l" depth="3" NCoef="0" IVar="-1" Cut="0.0000000000000000e+00" cType="1" res="3.0731178820133209e-02" rms="3.1941413879394531e-01" purity="8.7983089685440063e-01" nType="-99"/>
            <Node pos="r" depth="3" NCoef="0" IVar="-1" Cut="0.0000000000000000e+00" cType="1" res="-9.1040302067995071e-03" rms="4.8697972297668457e-01" purity="4.0538552403450012e-01" nType="-99"/>
          </Node>
          <Node pos="r" depth="2" NCoef="0" IVar="-1" Cut="0.0000000000000000e+00" cType="1" res="-3.7238139659166336e-02" rms="3.4483316540718079e-01" purity="1.4843632280826569e-01" nType="-99"/>
        </Node>
        <Node pos="r" depth="1" NCoef="0" IVar="6" Cut="8.9301764965057373e-01" cType="1" res="-2.5940489768981934e-01" rms="3.7546357512474060e-01" purity="1.8927067518234253e-01" nType="0">
          <Node pos="l" depth="2" NCoef="0" IVar="3" Cut="8.7431650608778000e-03" cType="1" res="-3.3458840847015381e-01" rms="2.8660917282104492e-01" purity="9.6577122807502747e-02" nType="0">
            <Node pos="l" depth="3" NCoef="0" IVar="-1" Cut="0.0000000000000000e+00" cType="1" res="-2.6665534824132919e-02" rms="3.8896268606185913e-01" purity="1.9979371130466461e-01" nType="-99"/>
            <Node pos="r" depth="3" NCoef="0" IVar="-1" Cut="0.0000000000000000e+00" cType="1" res="-5.3152259439229965e-02" rms="2.3572084307670593e-01" purity="6.2421619892120361e-02" nType="-99"/>
          </Node>
          <Node pos="r" depth="2" NCoef="0" IVar="-1" Cut="0.0000000000000000e+00" cType="1" res="-5.7530980557203293e-03" rms="4.8820400238037109e-01" purity="4.2011326551437378e-01" nType="-99"/>
        </Node>
      </Node>
    </BinaryTree>
    <BinaryTree type="DecisionTree" boostWeight="1.0000000000000000e+00" itree="4">
      <Node pos="s" depth="0" NCoef="0" IVar="9" Cut="3.0554430484771729e+00" cType="1" res="1.1655334383249283e-02" rms="4.5045217871665955e-01" purity="5.0000000000000000e-01" nType="0">
        <Node pos="l" depth="1" NCoef="0" IVar="2" Cut="1.0380290448665619e-02" cType="1" res="2.1795672178268433e-01" rms="3.9888194203376770e-01" purity="7.5508534908294678e-01" nType="0">
          <Node pos="l" depth="2" NCoef="0" IVar="7" Cut="2.4810719490051270e+00" cType="1" res="2.8944444656372070e-01" rms="3.5291588306427002e-01" purity="8.4399682283401489e-01" nType="0">
            <Node pos="l" depth="3" NCoef="0" IVar="-1" Cut="0.0000000000000000e+00" cType="1" res="2.9704399406909943e-02" rms="3.0813413858413696e-01" purity="8.9201676845550537e-01" nType="-99"/>
            <Node pos="r" depth="3" NCoef="0" IVar="-1" Cut="0.0000000000000000e+00" cType="1" res="-2.8171676676720381e-03" rms="4.9539798498153687e-01" purity="4.6384063363075256e-01" nType="-99"/>
          </Node>
          <Node pos="r" depth="2" NCoef="0" IVar="-1" Cut="0.0000000000000000e+00" cType="1" res="-3.5500362515449524e-02" rms="3.4735068678855896e-01" purity="1.4523832499980927e-01" nType="-99"/>
        </Node>
        <Node pos="r" depth="1" NCoef="0" IVar="6" Cut="8.8709419965744019e-01" cType="1" res="-2.2165431082248688e-01" rms="3.8713848590850830e-01" purity="2.1151979267597198e-01" nType="0">
          <Node pos="l" depth="2" NCoef="0" IVar="2" Cut="9.1856578364968300e-03" cType="1" res="-3.0652588605880737e-01" rms="2.8787016868591309e-01" purity="9.7187921404838562e-02" nType="0">
            <Node pos="l" depth="3" NCoef="0" IVar="-1" Cut="0.0000000000000000e+00" cType="1" res="-2.3741330951452255e-02" rms="4.3021896481513977e-01" purity="2.5509470701217651e-01" nType="-99"/>
            <Node pos="r" depth="3" NCoef="0" IVar="-1" Cut="0.0000000000000000e+00" cType="1" res="-4.9887478351593018e-02" rms="2.2449022531509399e-01" purity="5.4599862545728683e-02" nType="-99"/>
          </Node>
          <Node pos="r" depth="2" NCoef="0" IVar="8" Cut="3.7780835628509521e+00" cType="1" res="-6.0491293668746948e-02" rms="4.8730319738388062e-01" purity="4.2862510681152344e-01" nType="0">
            <Node pos="l" depth="3" NCoef="0" IVar="-1" Cut="0.0000000000000000e+00" cType="1" res="8.5948519408702850e-03" rms="4.8215287923812866e-01" purity="6.0984677076339722e-01" nType="-99"/>
            <Node pos="r" depth="3" NCoef="0" IVar="-1" Cut="0.0000000000000000e+00" cType="1" res="-1.1248035356402397e-02" rms="4.7105288505554199e-01" purity="3.3615115284919739e-01" nType="-99"/>
          </Node>
        </Node>
      </Node>
    </BinaryTree>
    <BinaryTree type="DecisionTree" boostWeight="1.0000000000000000e+00" itree="5">
      <Node pos="s" depth="0" NCoef="0" IVar="8" Cut="1.7036286592483521e+00" cType="1" res="1.3720567338168621e-02" rms="4.4066709280014038e-01" purity="5.0000000000000000e-01" nType="0">
        <Node pos="l" depth="1" NCoef="0" IVar="2" Cut="1.0268498212099075e-02" cType="1" res="2.0025315880775452e-01" rms="3.9812734723091125e-01" purity="7.3791682720184326e-01" nType="0">
          <Node pos="l" depth="2" NCoef="0" IVar="7" Cut="2.7160677909851074e+00" cType="1" res="2.7557128667831421e-01" rms="3.5427129268646240e-01" purity="8.3639562129974365e-01" nType="0">
            <Node pos="l" depth="3" NCoef="0" IVar="-1" Cut="0.0000000000000000e+00" cType="1" res="2.9171515256166458e-02" rms="3.1107184290885925e-01" purity="8.8584452867507935e-01" nType="-99"/>
            <Node pos="r" depth="3" NCoef="0" IVar="-1" Cut="0.0000000000000000e+00" cType="1" res="-6.0063791461288929e-03" rms="4.8911806941032410e-01" purity="4.2770224809646606e-01" nType="-99"/>
          </Node>
          <Node pos="r" depth="2" NCoef="0" IVar="-1" Cut="0.0000000000000000e+00" cType="1" res="-3.1872831284999847e-02" rms="3.5063847899436951e-01" purity="1.5863381326198578e-01" nType="-99"/>
        </Node>
        <Node pos="r" depth="1" NCoef="0" IVar="6" Cut="8.9438456296920776e-01" cType="1" res="-2.2041712701320648e-01" rms="3.7480834126472473e-01" purity="2.0136432349681854e-01" nType="0">
          <Node pos="l" depth="2" NCoef="0" IVar="3" Cut="9.3269152566790581e-03" cType="1" res="-2.8850102424621582e-01" rms="2.9337242245674133e-01" purity="1.0616763681173325e-01" nType="0">
            <Node pos="l" depth="3" NCoef="0" IVar="-1" Cut="0.0000000000000000e+00" cType="1" res="-2.4942964315414429e-02" rms="3.8140723109245300e-01" purity="1.9784942269325256e-01" nType="-99"/>
            <Node pos="r" depth="3" NCoef="0" IVar="-1" Cut="0.0000000000000000e+00" cType="1" res="-4.9685638397932053e-02" rms="2.2854551672935486e-01" purity="5.9904426336288452e-02" nType="-99"/>
          </Node>
          <Node pos="r" depth="2" NCoef="0" IVar="-1" Cut="0.0000000000000000e+00" cType="1" res="-3.6421471741050482e-03" rms="4.8745676875114441e-01" purity="4.4535490870475769e-01" nType="-99"/>
        </Node>
      </Node>
    </BinaryTree>
    <BinaryTree type="DecisionTree" boostWeight="1.0000000000000000e+00" itree="6">
      <Node pos="s" depth="0" NCoef="0" IVar="9" Cut="3.3258059024810791e+00" cType="1" res="1.5463879331946373e-02" rms="4.3154338002204895e-01" purity="5.0000000000000000e-01" nType="0">
        <Node pos="l" depth="1" NCoef="0" IVar="2" Cut="1.0584379546344280e-02" cType="1" res="1.9391305744647980e-01" rms="3.9157441258430481e-01" purity="7.4248778820037842e-01" nType="0">
          <Node pos="l" depth="2" NCoef="0" IVar="7" Cut="2.6648550033569336e+00" cType="1" res="2.5796255469322205e-01" rms="3.5716861486434937e-01" purity="8.3025813102722168e-01" nType="0">
            <Node pos="l" depth="3" NCoef="0" IVar="-1" Cut="0.0000000000000000e+00" cType="1" res="2.7157630771398544e-02" rms="3.1721115112304688e-01" purity="8.8006091117858887e-01" nType="-99"/>
            <Node pos="r" depth="3" NCoef="0" IVar="-1" Cut="0.0000000000000000e+00" cType="1" res="-5.9754168614745140e-03" rms="4.8717918992042542e-01" purity="4.2021891474723816e-01" nType="-99"/>
          </Node>
          <Node pos="r" depth="2" NCoef="0" IVar="-1" Cut="0.0000000000000000e+00" cType="1" res="-3.8347326219081879e-02" rms="3.0984252691268921e-01" purity="1.0912216454744339e-01" nType="-99"/>
        </Node>
        <Node pos="r" depth="1" NCoef="0" IVar="6" Cut="9.0030801296234131e-01" cType="1" res="-2.0600304007530212e-01" rms="3.7214443087577820e-01" purity="1.9905701279640198e-01" nType="0">
          <Node pos="l" depth="2" NCoef="0" IVar="2" Cut="9.9983960390090942e-03" cType="1" res="-2.5851967930793762e-01" rms="3.1008404493331909e-01" purity="1.2129864841699600e-01" nType="0">
            <Node pos="l" depth="3" NCoef="0" IVar="-1" Cut="0.0000000000000000e+00" cType="1" res="-2.1890470758080482e-02" rms="4.1191837191581726e-01" purity="2.3746618628501892e-01" nType="-99"/>
            <Node pos="r" depth="3" NCoef="0" IVar="-1" Cut="0.0000000000000000e+00" cType="1" res="-4.6893719583749771e-02" rms="2.1131613850593567e-01" purity="4.8479888588190079e-02" nType="-99"/>
          </Node>
          <Node pos="r" depth="2" NCoef="0" IVar="-1" Cut="0.0000000000000000e+00" cType="1" res="-2.2175977937877178e-03" rms="4.9098065495491028e-01" purity="4.6297365427017212e-01" nType="-99"/>
        </Node>
      </Node>
    </BinaryTree>
    <BinaryTree type="DecisionTree" boostWeight="1.0000000000000000e+00" itree="7">
      <Node pos="s" depth="0" NCoef="0" IVar="8" Cut="1.7036286592483521e+00" cType="1" res="1.7115058377385139e-02" rms="4.2324388027191162e-01" purity="5.0000000000000000e-01" nType="0">
        <Node pos="l" depth="1" NCoef="0" IVar="2" Cut="1.0493466630578041e-02" cType="1" res="1.8604099750518799e-01" rms="3.8631102442741394e-01" purity="7.3791682720184326e-01" nType="0">
          <Node pos="l" depth="2" NCoef="0" IVar="7" Cut="2.7726523876190186e+00" cType="1" res="2.4943330883979797e-01" rms="3.5413002967834473e-01" purity="8.3018124103546143e-01" nType="0">
            <Node pos="l" depth="3" NCoef="0" IVar="-1" Cut="0.0000000000000000e+00" cType="1" res="2.6959471404552460e-02" rms="3.1444531679153442e-01" purity="8.8100171089172363e-01" nType="-99"/>
            <Node pos="r" depth="3" NCoef="0" IVar="-1" Cut="0.0000000000000000e+00" cType="1" res="-7.0081399753689766e-03" rms="4.8433232307434082e-01" purity="4.0838935971260071e-01" nType="-99"/>
          </Node>
          <Node pos="r" depth="2" NCoef="0" IVar="-1" Cut="0.0000000000000000e+00" cType="1" res="-3.4931600093841553e-02" rms="3.1748816370964050e-01" purity="1.1767106503248215e-01" nType="-99"/>
        </Node>
        <Node pos="r" depth="1" NCoef="0" IVar="6" Cut="8.8481593132019043e-01" cType="1" res="-1.9492258131504059e-01" rms="3.6862790584564209e-01" purity="2.0136432349681854e-01" nType="0">
          <Node pos="l" depth="2" NCoef="0" IVar="2" Cut="9.1005675494670868e-03" cType="1" res="-2.6540896296501160e-01" rms="2.6870238780975342e-01" purity="8.8178835809230804e-02" nType="0">
            <Node pos="l" depth="3" NCoef="0" IVar="-1" Cut="0.0000000000000000e+00" cType="1" res="-2.3505730554461479e-02" rms="4.0798074007034302e-01" purity="2.3787046968936920e-01" nType="-99"/>
            <Node pos="r" depth="3" NCoef="0" IVar="-1" Cut="0.0000000000000000e+00" cType="1" res="-4.4632535427808762e-02" rms="2.1874445676803589e-01" purity="5.2586622536182404e-02" nType="-99"/>
          </Node>
          <Node pos="r" depth="2" NCoef="0" IVar="1" Cut="9.4885051250457764e-01" cType="1" res="-6.5923810005187988e-02" rms="4.7613617777824402e-01" purity="4.0850779414176941e-01" nType="0">
            <Node pos="l" depth="3" NCoef="0" IVar="-1" Cut="0.0000000000000000e+00" cType="1" res="-1.8480317667126656e-02" rms="4.3881952762603760e-01" purity="2.8055897355079651e-01" nType="-99"/>
            <Node pos="r" depth="3" NCoef="0" IVar="-1" Cut="0.0000000000000000e+00" cType="1" res="1.6599735245108604e-03" rms="4.8331925272941589e-01" purity="5.0317311286926270e-01" nType="-99"/>
          </Node>
        </Node>
      </Node>
    </BinaryTree>
    <BinaryTree type="DecisionTree" boostWeight="1.0000000000000000e+00" itree="8">
      <Node pos="s" depth="0" NCoef="0" IVar="9" Cut="2.7850801944732666e+00" cType="1" res="1.8553836271166801e-02" rms="4.1531759500503540e-01" purity="5.0000000000000000e-01" nType="0">
        <Node pos="l" depth="1" NCoef="0" IVar="2" Cut="1.0693226009607315e-02" cType="1" res="1.9700372219085693e-01" rms="3.6992278695106506e-01" purity="7.6786231994628906e-01" nType="0">
          <Node pos="l" depth="2" NCoef="0" IVar="7" Cut="2.0216140747070312e+00" cType="1" res="2.4810400605201721e-01" rms="3.4182325005531311e-01" purity="8.4549576044082642e-01" nType="0">
            <Node pos="l" depth="3" NCoef="0" IVar="-1" Cut="0.0000000000000000e+00" cType="1" res="2.6845691725611687e-02" rms="2.9438647627830505e-01" purity="9.0010726451873779e-01" nType="-99"/>
            <Node pos="r" depth="3" NCoef="0" IVar="-1" Cut="0.0000000000000000e+00" cType="1" res="1.8532410031184554e-03" rms="4.7943928837776184e-01" purity="5.2911031246185303e-01" nType="-99"/>
          </Node>
          <Node pos="r" depth="2" NCoef="0" IVar="-1" Cut="0.0000000000000000e+00" cType="1" res="-3.5236351191997528e-02" rms="3.1022253632545471e-01" purity="1.0871171206235886e-01" nType="-99"/>
        </Node>
        <Node pos="r" depth="1" NCoef="0" IVar="2" Cut="9.9973091855645180e-03" cType="1" res="-1.6367773711681366e-01" rms="3.7836810946464539e-01" purity="2.2646120190620422e-01" nType="0">
          <Node pos="l" depth="2" NCoef="0" IVar="4" Cut="1.0029318742454052e-02" cType="1" res="-7.2172522544860840e-02" rms="4.5686846971511841e-01" purity="3.7870118021965027e-01" nType="0">
            <Node pos="l" depth="3" NCoef="0" IVar="-1" Cut="0.0000000000000000e+00" cType="1" res="7.8764362260699272e-03" rms="4.6826100349426270e-01" purity="5.9628230333328247e-01" nType="-99"/>
            <Node pos="r" depth="3" NCoef="0" IVar="-1" Cut="0.0000000000000000e+00" cType="1" res="-1.5018037520349026e-02" rms="4.3637669086456299e-01" purity="3.0585220456123352e-01" nType="-99"/>
          </Node>
          <Node pos="r" depth="2" NCoef="0" IVar="6" Cut="8.5346907377243042e-01" cType="1" res="-2.6220381259918213e-01" rms="2.3203952610492706e-01" purity="6.2540389597415924e-02" nType="0">
            <Node pos="l" depth="3" NCoef="0" IVar="-1" Cut="0.0000000000000000e+00" cType="1" res="-4.9202371388673782e-02" rms="1.6133388876914978e-01" purity="2.6879714801907539e-02" nType="-99"/>
            <Node pos="r" depth="3" NCoef="0" IVar="-1" Cut="0.0000000000000000e+00" cType="1" res="-2.6508301496505737e-02" rms="3.4792417287826538e-01" purity="1.5227583050727844e-01" nType="-99"/>
          </Node>
        </Node>
      </Node>
    </BinaryTree>
    <BinaryTree type="DecisionTree" boostWeight="1.0000000000000000e+00" itree="9">
      <Node pos="s" depth="0" NCoef="0" IVar="8" Cut="1.7036286592483521e+00" cType="1" res="1.9915126264095306e-02" rms="4.0827035903930664e-01" purity="5.0000000000000000e-01" nType="0">
        <Node pos="l" depth="1" NCoef="0" IVar="2" Cut="1.0162631049752235e-02" cType="1" res="1.7302362620830536e-01" rms="3.7614235281944275e-01" purity="7.3791682720184326e-01" nType="0">
          <Node pos="l" depth="2" NCoef="0" IVar="7" Cut="2.6594829559326172e+00" cType="1" res="2.3649966716766357e-01" rms="3.4433385729789734e-01" purity="8.3943551778793335e-01" nType="0">
            <Node pos="l" depth="3" NCoef="0" IVar="-1" Cut="0.0000000000000000e+00" cType="1" res="2.6016635820269585e-02" rms="3.0589830875396729e-01" purity="8.8860416412353516e-01" nType="-99"/>
            <Node pos="r" depth="3" NCoef="0" IVar="-1" Cut="0.0000000000000000e+00" cType="1" res="-3.5890156868845224e-03" rms="4.8880761861801147e-01" purity="4.4091087579727173e-01" nType="-99"/>
          </Node>
          <Node pos="r" depth="2" NCoef="0" IVar="-1" Cut="0.0000000000000000e+00" cType="1" res="-2.3383960127830505e-02" rms="3.5340264439582825e-01" purity="1.8524044752120972e-01" nType="-99"/>
        </Node>
        <Node pos="r" depth="1" NCoef="0" IVar="6" Cut="9.0030801296234131e-01" cType="1" res="-1.7226830124855042e-01" rms="3.6326116323471069e-01" purity="2.0136432349681854e-01" nType="0">
          <Node pos="l" depth="2" NCoef="0" IVar="3" Cut="8.2761654630303383e-03" cType="1" res="-2.1836046874523163e-01" rms="3.0390396714210510e-01" purity="1.2208019942045212e-01" nType="0">
            <Node pos="l" depth="3" NCoef="0" IVar="-1" Cut="0.0000000000000000e+00" cType="1" res="-1.2939337641000748e-02" rms="4.1472029685974121e-01" purity="2.6576566696166992e-01" nType="-99"/>
            <Node pos="r" depth="3" NCoef="0" IVar="-1" Cut="0.0000000000000000e+00" cType="1" res="-3.8358196616172791e-02" rms="2.6211026310920715e-01" purity="8.4783665835857391e-02" nType="-99"/>
          </Node>
          <Node pos="r" depth="2" NCoef="0" IVar="-1" Cut="0.0000000000000000e+00" cType="1" res="-1.1877303477376699e-03" rms="4.8467478156089783e-01" purity="4.7123950719833374e-01" nType="-99"/>
        </Node>
      </Node>
    </BinaryTree>
    <BinaryTree type="DecisionTree" boostWeight="1.0000000000000000e+00" itree="10">
      <Node pos="s" depth="0" NCoef="0" IVar="9" Cut="3.3258059024810791e+00" cType="1" res="2.0751003175973892e-02" rms="4.0189254283905029e-01" purity="5.0000000000000000e-01" nType="0">
        <Node pos="l" depth="1" NCoef="0" IVar="2" Cut="1.0162595659494400e-02" cType="1" res="1.6795423626899719e-01" rms="3.7105566263198853e-01" purity="7.4248778820037842e-01" nType="0">
          <Node pos="l" depth="2" NCoef="0" IVar="7" Cut="1.9756684303283691e+00" cType="1" res="2.2714973986148834e-01" rms="3.4118449687957764e-01" purity="8.4158009290695190e-01" nType="0">
            <Node pos="l" depth="3" NCoef="0" IVar="-1" Cut="0.0000000000000000e+00" cType="1" res="2.5501446798443794e-02" rms="2.9464012384414673e-01" purity="8.9797520637512207e-01" nType="-99"/>
            <Node pos="r" depth="3" NCoef="0" IVar="-1" Cut="0.0000000000000000e+00" cType="1" res="2.4637340102344751e-03" rms="4.7602564096450806e-01" purity="5.3881913423538208e-01" nType="-99"/>
          </Node>
          <Node pos="r" depth="2" NCoef="0" IVar="-1" Cut="0.0000000000000000e+00" cType="1" res="-2.1792037412524223e-02" rms="3.5731193423271179e-01" purity="1.8923175334930420e-01" nType="-99"/>
        </Node>
        <Node pos="r" depth="1" NCoef="0" IVar="6" Cut="9.0213060379028320e-01" cType="1" res="-1.6193769872188568e-01" rms="3.6170604825019836e-01" purity="1.9905701279640198e-01" nType="0">
          <Node pos="l" depth="2" NCoef="0" IVar="3" Cut="8.3825634792447090e-03" cType="1" res="-2.0077577233314514e-01" rms="3.0889406800270081e-01" purity="1.2678779661655426e-01" nType="0">
            <Node pos="l" depth="3" NCoef="0" IVar="-1" Cut="0.0000000000000000e+00" cType="1" res="-1.2323644012212753e-02" rms="4.1693893074989319e-01" purity="2.6588767766952515e-01" nType="-99"/>
            <Node pos="r" depth="3" NCoef="0" IVar="-1" Cut="0.0000000000000000e+00" cType="1" res="-3.6923419684171677e-02" rms="2.6424127817153931e-01" purity="8.6467027664184570e-02" nType="-99"/>
          </Node>
          <Node pos="r" depth="2" NCoef="0" IVar="-1" Cut="0.0000000000000000e+00" cType="1" res="-1.2599242618307471e-03" rms="4.8685905337333679e-01" purity="4.7089841961860657e-01" nType="-99"/>
        </Node>
      </Node>
    </BinaryTree>
    <BinaryTree type="DecisionTree" boostWeight="1.0000000000000000e+00" itree="11">
      <Node pos="s" depth="0" NCoef="0" IVar="8" Cut="1.4332658052444458e+00" cType="1" res="2.1525925025343895e-02" rms="3.9616066217422485e-01" purity="5.0000000000000000e-01" nType="0">
        <Node pos="l" depth="1" NCoef="0" IVar="7" Cut="3.1790645122528076e+00" cType="1" res="1.6678752005100250e-01" rms="3.6442080140113831e-01" purity="7.4581074714660645e-01" nType="0">
          <Node pos="l" depth="2" NCoef="0" IVar="3" Cut="1.1109932325780392e-02" cType="1" res="2.2136563062667847e-01" rms="3.3113908767700195e-01" purity="8.3118510246276855e-01" nType="0">
            <Node pos="l" depth="3" NCoef="0" IVar="-1" Cut="0.0000000000000000e+00" cType="1" res="2.5049272924661636e-02" rms="2.9967486858367920e-01" purity="8.8348674774169922e-01" nType="-99"/>
            <Node pos="r" depth="3" NCoef="0" IVar="-1" Cut="0.0000000000000000e+00" cType="1" res="-5.3019640035927296e-03" rms="4.1310328245162964e-01" purity="4.6664324402809143e-01" nType="-99"/>
          </Node>
          <Node pos="r" depth="2" NCoef="0" IVar="-1" Cut="0.0000000000000000e+00" cType="1" res="-2.3523431271314621e-02" rms="3.7786358594894409e-01" purity="2.1357625722885132e-01" nType="-99"/>
        </Node>
        <Node pos="r" depth="1" NCoef="0" IVar="6" Cut="8.8299334049224854e-01" cType="1" res="-1.4565470814704895e-01" rms="3.6399507522583008e-01" purity="2.1709793806076050e-01" nType="0">
          <Node pos="l" depth="2" NCoef="0" IVar="2" Cut="9.0461447834968567e-03" cType="1" res="-2.0840752124786377e-01" rms="2.6819226145744324e-01" purity="9.3964293599128723e-02" nType="0">
            <Node pos="l" depth="3" NCoef="0" IVar="-1" Cut="0.0000000000000000e+00" cType="1" res="-1.7375921830534935e-02" rms="4.1223689913749695e-01" purity="2.6896739006042480e-01" nType="-99"/>
            <Node pos="r" depth="3" NCoef="0" IVar="-1" Cut="0.0000000000000000e+00" cType="1" res="-3.9711538702249527e-02" rms="2.1806511282920837e-01" purity="5.3347483277320862e-02" nType="-99"/>
          </Node>
          <Node pos="r" depth="2" NCoef="0" IVar="9" Cut="4.1248173713684082e+00" cType="1" res="-3.9693091064691544e-02" rms="4.6570712327957153e-01" purity="4.2501598596572876e-01" nType="0">
            <Node pos="l" depth="3" NCoef="0" IVar="-1" Cut="0.0000000000000000e+00" cType="1" res="8.5387164726853371e-03" rms="4.4947388768196106e-01" purity="6.3438141345977783e-01" nType="-99"/>
            <Node pos="r" depth="3" NCoef="0" IVar="-1" Cut="0.0000000000000000e+00" cType="1" res="-9.1730235144495964e-03" rms="4.5803439617156982e-01" purity="3.2262182235717773e-01" nType="-99"/>
          </Node>
        </Node>
      </Node>
    </BinaryTree>
    <BinaryTree type="DecisionTree" boostWeight="1.0000000000000000e+00" itree="12">
      <Node pos="s" depth="0" NCoef="0" IVar="9" Cut="3.5961687564849854e+00" cType="1" res="2.2256851196289062e-02" rms="3.9047032594680786e-01" purity="5.0000000000000000e-01" nType="0">
        <Node pos="l" depth="1" NCoef="0" IVar="2" Cut="1.0121778585016727e-02" cType="1" res="1.5017729997634888e-01" rms="3.6675748229026794e-01" purity="7.3036259412765503e-01" nType="0">
          <Node pos="l" depth="2" NCoef="0" IVar="1" Cut="9.3431913852691650e-01" cType="1" res="2.0778839290142059e-01" rms="3.4125831723213196e-01" purity="8.3473044633865356e-01" nType="0">
            <Node pos="l" depth="3" NCoef="0" IVar="-1" Cut="0.0000000000000000e+00" cType="1" res="1.1086934246122837e-02" rms="4.1767072677612305e-01" purity="7.0738977193832397e-01" nType="-99"/>
            <Node pos="r" depth="3" NCoef="0" IVar="-1" Cut="0.0000000000000000e+00" cType="1" res="2.5612615048885345e-02" rms="2.6133045554161072e-01" purity="9.1417419910430908e-01" nType="-99"/>
          </Node>
          <Node pos="r" depth="2" NCoef="0" IVar="-1" Cut="0.0000000000000000e+00" cType="1" res="-1.9932175055146217e-02" rms="3.4989640116691589e-01" purity="1.9319815933704376e-01" nType="-99"/>
        </Node>
        <Node pos="r" depth="1" NCoef="0" IVar="4" Cut="9.6064684912562370e-03" cType="1" res="-1.5054783225059509e-01" rms="3.5320919752120972e-01" purity="1.8880864977836609e-01" nType="0">
          <Node pos="l" depth="2" NCoef="0" IVar="-1" Cut="0.0000000000000000e+00" cType="1" res="-6.0250749811530113e-04" rms="4.4303968548774719e-01" purity="3.9304065704345703e-01" nType="-99"/>
          <Node pos="r" depth="2" NCoef="0" IVar="3" Cut="9.4349766150116920e-03" cType="1" res="-1.7919357120990753e-01" rms="3.2486927509307861e-01" purity="1.4801132678985596e-01" nType="0">
            <Node pos="l" depth="3" NCoef="0" IVar="-1" Cut="0.0000000000000000e+00" cType="1" res="-1.4224882237613201e-02" rms="4.0299266576766968e-01" purity="2.4885787069797516e-01" nType="-99"/>
            <Node pos="r" depth="3" NCoef="0" IVar="-1" Cut="0.0000000000000000e+00" cType="1" res="-3.5958670079708099e-02" rms="2.6300173997879028e-01" purity="8.8438719511032104e-02" nType="-99"/>
          </Node>
        </Node>
      </Node>
    </BinaryTree>
    <BinaryTree type="DecisionTree" boostWeight="1.0000000000000000e+00" itree="13">
      <Node pos="s" depth="0" NCoef="0" IVar="8" Cut="1.4332658052444458e+00" cType="1" res="2.2742047905921936e-02" rms="3.8567182421684265e-01" purity="5.0000000000000000e-01" nType="0">
        <Node pos="l" depth="1" NCoef="0" IVar="7" Cut="3.3304486274719238e+00" cType="1" res="1.5521797537803650e-01" rms="3.5732766985893250e-01" purity="7.4581074714660645e-01" nType="0">
          <Node pos="l" depth="2" NCoef="0" IVar="3" Cut="1.0762749239802361e-02" cType="1" res="2.0432309806346893e-01" rms="3.2890164852142334e-01" purity="8.2812023162841797e-01" nType="0">
            <Node pos="l" depth="3" NCoef="0" IVar="-1" Cut="0.0000000000000000e+00" cType="1" res="2.4005960673093796e-02" rms="2.9563343524932861e-01" purity="8.8638740777969360e-01" nType="-99"/>
            <Node pos="r" depth="3" NCoef="0" IVar="-1" Cut="0.0000000000000000e+00" cType="1" res="-2.2168918512761593e-03" rms="4.1041016578674316e-01" purity="4.9882143735885620e-01" nType="-99"/>
          </Node>
          <Node pos="r" depth="2" NCoef="0" IVar="-1" Cut="0.0000000000000000e+00" cType="1" res="-2.3475604131817818e-02" rms="3.6794817447662354e-01" purity="2.0206400752067566e-01" nType="-99"/>
        </Node>
        <Node pos="r" depth="1" NCoef="0" IVar="6" Cut="8.9711844921112061e-01" cType="1" res="-1.2972363829612732e-01" rms="3.5991168022155762e-01" purity="2.1709793806076050e-01" nType="0">
          <Node pos="l" depth="2" NCoef="0" IVar="3" Cut="8.5096647962927818e-03" cType="1" res="-1.7400562763214111e-01" rms="2.9710853099822998e-01" purity="1.2289643287658691e-01" nType="0">
            <Node pos="l" depth="3" NCoef="0" IVar="-1" Cut="0.0000000000000000e+00" cType="1" res="-1.2122104875743389e-02" rms="4.0142294764518738e-01" purity="2.5842300057411194e-01" nType="-99"/>
            <Node pos="r" depth="3" NCoef="0" IVar="-1" Cut="0.0000000000000000e+00" cType="1" res="-3.4594066441059113e-02" rms="2.5395631790161133e-01" purity="8.2031525671482086e-02" nType="-99"/>
          </Node>
          <Node pos="r" depth="2" NCoef="0" IVar="-1" Cut="0.0000000000000000e+00" cType="1" res="-4.5525288442149758e-04" rms="4.7351285815238953e-01" purity="4.8088115453720093e-01" nType="-99"/>
        </Node>
      </Node>
    </BinaryTree>
    <BinaryTree type="DecisionTree" boostWeight="1.0000000000000000e+00" itree="14">
      <Node pos="s" depth="0" NCoef="0" IVar="9" Cut="2.5147173404693604e+00" cType="1" res="2.3261459544301033e-02" rms="3.8095688819885254e-01" purity="5.0000000000000000e-01" nType="0">
        <Node pos="l" depth="1" NCoef="0" IVar="7" Cut="3.1453359127044678e+00" cType="1" res="1.6563986241817474e-01" rms="3.4248602390289307e-01" purity="7.8086841106414795e-01" nType="0">
          <Node pos="l" depth="2" NCoef="0" IVar="3" Cut="1.1109932325780392e-02" cType="1" res="2.0550666749477386e-01" rms="3.1453019380569458e-01" purity="8.5072684288024902e-01" nType="0">
            <Node pos="l" depth="3" NCoef="0" IVar="-1" Cut="0.0000000000000000e+00" cType="1" res="2.3470629006624222e-02" rms="2.8510734438896179e-01" purity="8.9847946166992188e-01" nType="-99"/>
            <Node pos="r" depth="3" NCoef="0" IVar="-1" Cut="0.0000000000000000e+00" cType="1" res="-3.3263247460126877e-03" rms="4.1244927048683167e-01" purity="4.9528795480728149e-01" nType="-99"/>
          </Node>
          <Node pos="r" depth="2" NCoef="0" IVar="-1" Cut="0.0000000000000000e+00" cType="1" res="-1.9304798915982246e-02" rms="3.8875007629394531e-01" purity="2.3301520943641663e-01" nType="-99"/>
        </Node>
        <Node pos="r" depth="1" NCoef="0" IVar="2" Cut="9.9419895559549332e-03" cType="1" res="-1.0635587573051453e-01" rms="3.6770883202552795e-01" purity="2.4430522322654724e-01" nType="0">
          <Node pos="l" depth="2" NCoef="0" IVar="1" Cut="9.4665867090225220e-01" cType="1" res="-3.2339453697204590e-02" rms="4.4341626763343811e-01" purity="4.0591916441917419e-01" nType="0">
            <Node pos="l" depth="3" NCoef="0" IVar="-1" Cut="0.0000000000000000e+00" cType="1" res="-1.3953412882983685e-02" rms="4.1657054424285889e-01" purity="2.8805258870124817e-01" nType="-99"/>
            <Node pos="r" depth="3" NCoef="0" IVar="-1" Cut="0.0000000000000000e+00" cType="1" res="6.0223951004445553e-03" rms="4.5562207698822021e-01" purity="5.6245344877243042e-01" nType="-99"/>
          </Node>
          <Node pos="r" depth="2" NCoef="0" IVar="8" Cut="1.3208704948425293e+01" cType="1" res="-1.8645486235618591e-01" rms="2.3750925064086914e-01" purity="6.9410063326358795e-02" nType="0">
            <Node pos="l" depth="3" NCoef="0" IVar="-1" Cut="0.0000000000000000e+00" cType="1" res="-3.7761777639389038e-02" rms="2.1676103770732880e-01" purity="5.9845171868801117e-02" nType="-99"/>
            <Node pos="r" depth="3" NCoef="0" IVar="-1" Cut="0.0000000000000000e+00" cType="1" res="-2.3269787430763245e-02" rms="2.8239971399307251e-01" purity="9.5100477337837219e-02" nType="-99"/>
          </Node>
        </Node>
      </Node>
    </BinaryTree>
    <BinaryTree type="DecisionTree" boostWeight="1.0000000000000000e+00" itree="15">
      <Node pos="s" depth="0" NCoef="0" IVar="8" Cut="1.9739915132522583e+00" cType="1" res="2.3758839815855026e-02" rms="3.7661543488502502e-01" purity="5.0000000000000000e-01" nType="0">
        <Node pos="l" depth="1" NCoef="0" IVar="2" Cut="1.0671366937458515e-02" cType="1" res="1.3531717658042908e-01" rms="3.5715484619140625e-01" purity="7.2986781597137451e-01" nType="0">
          <Node pos="l" depth="2" NCoef="0" IVar="7" Cut="1.9804660081863403e+00" cType="1" res="1.7983680963516235e-01" rms="3.4390845894813538e-01" purity="8.1971973180770874e-01" nType="0">
            <Node pos="l" depth="3" NCoef="0" IVar="-1" Cut="0.0000000000000000e+00" cType="1" res="2.2513162344694138e-02" rms="2.9943826794624329e-01" purity="8.8778442144393921e-01" nType="-99"/>
            <Node pos="r" depth="3" NCoef="0" IVar="-1" Cut="0.0000000000000000e+00" cType="1" res="-7.0523237809538841e-05" rms="4.6182075142860413e-01" purity="4.9970367550849915e-01" nType="-99"/>
          </Node>
          <Node pos="r" depth="2" NCoef="0" IVar="-1" Cut="0.0000000000000000e+00" cType="1" res="-3.0779799446463585e-02" rms="2.8381499648094177e-01" purity="9.6431173384189606e-02" nType="-99"/>
        </Node>
        <Node pos="r" depth="1" NCoef="0" IVar="4" Cut="9.6064684912562370e-03" cType="1" res="-1.2704281508922577e-01" rms="3.4867990016937256e-01" purity="1.8927067518234253e-01" nType="0">
          <Node pos="l" depth="2" NCoef="0" IVar="-1" Cut="0.0000000000000000e+00" cType="1" res="7.2731112595647573e-04" rms="4.3863224983215332e-01" purity="4.0289446711540222e-01" nType="-99"/>
          <Node pos="r" depth="2" NCoef="0" IVar="3" Cut="9.3199517577886581e-03" cType="1" res="-1.5395572781562805e-01" rms="3.2120352983474731e-01" purity="1.4696882665157318e-01" nType="0">
            <Node pos="l" depth="3" NCoef="0" IVar="-1" Cut="0.0000000000000000e+00" cType="1" res="-1.2006392702460289e-02" rms="4.0238901972770691e-01" purity="2.5348898768424988e-01" nType="-99"/>
            <Node pos="r" depth="3" NCoef="0" IVar="-1" Cut="0.0000000000000000e+00" cType="1" res="-3.2131865620613098e-02" rms="2.6393401622772217e-01" purity="8.9514933526515961e-02" nType="-99"/>
          </Node>
        </Node>
      </Node>
    </BinaryTree>
    <BinaryTree type="DecisionTree" boostWeight="1.0000000000000000e+00" itree="16">
      <Node pos="s" depth="0" NCoef="0" IVar="9" Cut="3.5961687564849854e+00" cType="1" res="2.3957269266247749e-02" rms="3.7252110242843628e-01" purity="5.0000000000000000e-01" nType="0">
        <Node pos="l" depth="1" NCoef="0" IVar="6" Cut="8.7915509939193726e-01" cType="1" res="1.3087978959083557e-01" rms="3.5352721810340881e-01" purity="7.3036259412765503e-01" nType="0">
          <Node pos="l" depth="2" NCoef="0" IVar="2" Cut="9.2237880453467369e-03" cType="1" res="-1.2220118194818497e-02" rms="3.8600072264671326e-01" purity="4.9816665053367615e-01" nType="0">
            <Node pos="l" depth="3" NCoef="0" IVar="-1" Cut="0.0000000000000000e+00" cType="1" res="1.6188109293580055e-02" rms="3.8501039147377014e-01" purity="7.6406115293502808e-01" nType="-99"/>
            <Node pos="r" depth="3" NCoef="0" IVar="-1" Cut="0.0000000000000000e+00" cType="1" res="-3.0013170093297958e-02" rms="3.0690461397171021e-01" purity="1.6305944323539734e-01" nType="-99"/>
          </Node>
          <Node pos="r" depth="2" NCoef="0" IVar="1" Cut="9.2977589368820190e-01" cType="1" res="2.1853235363960266e-01" rms="3.0007594823837280e-01" purity="8.7258887290954590e-01" nType="0">
            <Node pos="l" depth="3" NCoef="0" IVar="-1" Cut="0.0000000000000000e+00" cType="1" res="6.8615935742855072e-03" rms="4.1750898957252502e-01" purity="6.7934888601303101e-01" nType="-99"/>
            <Node pos="r" depth="3" NCoef="0" IVar="-1" Cut="0.0000000000000000e+00" cType="1" res="2.3678736761212349e-02" rms="2.6273623108863831e-01" purity="9.0924173593521118e-01" nType="-99"/>
          </Node>
        </Node>
        <Node pos="r" depth="1" NCoef="0" IVar="6" Cut="9.0395319461822510e-01" cType="1" res="-1.2048182636499405e-01" rms="3.4798672795295715e-01" purity="1.8880864977836609e-01" nType="0">
          <Node pos="l" depth="2" NCoef="0" IVar="3" Cut="8.0317584797739983e-03" cType="1" res="-1.4734846353530884e-01" rms="3.0265229940414429e-01" purity="1.2498228251934052e-01" nType="0">
            <Node pos="l" depth="3" NCoef="0" IVar="-1" Cut="0.0000000000000000e+00" cType="1" res="-8.3878822624683380e-03" rms="4.1706117987632751e-01" purity="2.7631622552871704e-01" nType="-99"/>
            <Node pos="r" depth="3" NCoef="0" IVar="-1" Cut="0.0000000000000000e+00" cType="1" res="-2.9727580025792122e-02" rms="2.6903247833251953e-01" purity="9.2003889381885529e-02" nType="-99"/>
          </Node>
          <Node pos="r" depth="2" NCoef="0" IVar="-1" Cut="0.0000000000000000e+00" cType="1" res="-4.0967194945551455e-04" rms="4.8092824220657349e-01" purity="4.6273374557495117e-01" nType="-99"/>
        </Node>
      </Node>
    </BinaryTree>
    <BinaryTree type="DecisionTree" boostWeight="1.0000000000000000e+00" itree="17">
      <Node pos="s" depth="0" NCoef="0" IVar="8" Cut="1.4332658052444458e+00" cType="1" res="2.4320663884282112e-02" rms="3.6835417151451111e-01" purity="5.0000000000000000e-01" nType="0">
        <Node pos="l" depth="1" NCoef="0" IVar="7" Cut="3.6332166194915771e+00" cType="1" res="1.3488301634788513e-01" rms="3.4445852041244507e-01" purity="7.4581074714660645e-01" nType="0">
          <Node pos="l" depth="2" NCoef="0" IVar="3" Cut="1.0762749239802361e-02" cType="1" res="1.7434048652648926e-01" rms="3.2418945431709290e-01" purity="8.2212907075881958e-01" nType="0">
            <Node pos="l" depth="3" NCoef="0" IVar="-1" Cut="0.0000000000000000e+00" cType="1" res="2.1832287311553955e-02" rms="2.9546034336090088e-01" purity="8.8266021013259888e-01" nType="-99"/>
            <Node pos="r" depth="3" NCoef="0" IVar="-1" Cut="0.0000000000000000e+00" cType="1" res="-2.7075402904301882e-03" rms="3.9935988187789917e-01" purity="4.8722076416015625e-01" nType="-99"/>
          </Node>
          <Node pos="r" depth="2" NCoef="0" IVar="-1" Cut="0.0000000000000000e+00" cType="1" res="-2.3298591375350952e-02" rms="3.4935742616653442e-01" purity="1.8025620281696320e-01" nType="-99"/>
        </Node>
        <Node pos="r" depth="1" NCoef="0" IVar="6" Cut="8.7615865468978882e-01" cType="1" res="-1.0292483121156693e-01" rms="3.5359320044517517e-01" purity="2.1709793806076050e-01" nType="0">
          <Node pos="l" depth="2" NCoef="0" IVar="2" Cut="9.1005675494670868e-03" cType="1" res="-1.5521153807640076e-01" rms="2.5514575839042664e-01" purity="8.6805634200572968e-02" nType="0">
            <Node pos="l" depth="3" NCoef="0" IVar="-1" Cut="0.0000000000000000e+00" cType="1" res="-1.4270482584834099e-02" rms="4.0240797400474548e-01" purity="2.6084336638450623e-01" nType="-99"/>
            <Node pos="r" depth="3" NCoef="0" IVar="-1" Cut="0.0000000000000000e+00" cType="1" res="-3.6322008818387985e-02" rms="2.0108976960182190e-01" purity="4.4096134603023529e-02" nType="-99"/>
          </Node>
          <Node pos="r" depth="2" NCoef="0" IVar="4" Cut="1.0029318742454052e-02" cType="1" res="-2.8155412524938583e-02" rms="4.4858196377754211e-01" purity="4.0341451764106750e-01" nType="0">
            <Node pos="l" depth="3" NCoef="0" IVar="-1" Cut="0.0000000000000000e+00" cType="1" res="5.5291792377829552e-03" rms="4.5553126931190491e-01" purity="5.4958462715148926e-01" nType="-99"/>
            <Node pos="r" depth="3" NCoef="0" IVar="-1" Cut="0.0000000000000000e+00" cType="1" res="-9.1707641258835793e-03" rms="4.3338385224342346e-01" purity="3.1998825073242188e-01" nType="-99"/>
          </Node>
        </Node>
      </Node>
    </BinaryTree>
    <BinaryTree type="DecisionTree" boostWeight="1.0000000000000000e+00" itree="18">
      <Node pos="s" depth="0" NCoef="0" IVar="9" Cut="3.8665316104888916e+00" cType="1" res="2.4601601064205170e-02" rms="3.6467432975769043e-01" purity="5.0000000000000000e-01" nType="0">
        <Node pos="l" depth="1" NCoef="0" IVar="7" Cut="1.9367315769195557e+00" cType="1" res="1.1849258840084076e-01" rms="3.4950983524322510e-01" purity="7.1866434812545776e-01" nType="0">
          <Node pos="l" depth="2" NCoef="0" IVar="1" Cut="9.2502433061599731e-01" cType="1" res="1.7798075079917908e-01" rms="3.1145703792572021e-01" purity="8.3867913484573364e-01" nType="0">
            <Node pos="l" depth="3" NCoef="0" IVar="-1" Cut="0.0000000000000000e+00" cType="1" res="9.8538156598806381e-03" rms="3.8719800114631653e-01" purity="6.8950790166854858e-01" nType="-99"/>
            <Node pos="r" depth="3" NCoef="0" IVar="-1" Cut="0.0000000000000000e+00" cType="1" res="2.3737173527479172e-02" rms="2.4129205942153931e-01" purity="9.2392462491989136e-01" nType="-99"/>
          </Node>
          <Node pos="r" depth="2" NCoef="0" IVar="6" Cut="8.8842982053756714e-01" cType="1" res="-7.0059515535831451e-02" rms="3.9383831620216370e-01" purity="3.3826881647109985e-01" nType="0">
            <Node pos="l" depth="3" NCoef="0" IVar="-1" Cut="0.0000000000000000e+00" cType="1" res="-2.7083277702331543e-02" rms="3.2289147377014160e-01" purity="1.7284585535526276e-01" nType="-99"/>
            <Node pos="r" depth="3" NCoef="0" IVar="-1" Cut="0.0000000000000000e+00" cType="1" res="8.5239065811038017e-03" rms="4.4926831126213074e-01" purity="6.2611007690429688e-01" nType="-99"/>
          </Node>
        </Node>
        <Node pos="r" depth="1" NCoef="0" IVar="4" Cut="9.6064684912562370e-03" cType="1" res="-1.1255402863025665e-01" rms="3.4222626686096191e-01" purity="1.8057586252689362e-01" nType="0">
          <Node pos="l" depth="2" NCoef="0" IVar="-1" Cut="0.0000000000000000e+00" cType="1" res="-2.9798978357575834e-04" rms="4.3480274081230164e-01" purity="3.7908807396888733e-01" nType="-99"/>
          <Node pos="r" depth="2" NCoef="0" IVar="8" Cut="1.5654739379882812e+01" cType="1" res="-1.3423416018486023e-01" rms="3.1621056795120239e-01" purity="1.4112906157970428e-01" nType="0">
            <Node pos="l" depth="3" NCoef="0" IVar="-1" Cut="0.0000000000000000e+00" cType="1" res="-2.5856550782918930e-02" rms="3.0193808674812317e-01" purity="1.2923717498779297e-01" nType="-99"/>
            <Node pos="r" depth="3" NCoef="0" IVar="-1" Cut="0.0000000000000000e+00" cType="1" res="-8.6971847340464592e-03" rms="3.5792177915573120e-01" purity="1.8654729425907135e-01" nType="-99"/>
          </Node>
        </Node>
      </Node>
    </BinaryTree>
    <BinaryTree type="DecisionTree" boostWeight="1.0000000000000000e+00" itree="19">
      <Node pos="s" depth="0" NCoef="0" IVar="8" Cut="1.1629029512405396e+00" cType="1" res="2.4730401113629341e-02" rms="3.6125129461288452e-01" purity="5.0000000000000000e-01" nType="0">
        <Node pos="l" depth="1" NCoef="0" IVar="2" Cut="1.0718435049057007e-02" cType="1" res="1.3102014362812042e-01" rms="3.3568692207336426e-01" purity="7.5347214937210083e-01" nType="0">
          <Node pos="l" depth="2" NCoef="0" IVar="1" Cut="9.3585354089736938e-01" cType="1" res="1.6554535925388336e-01" rms="3.2534554600715637e-01" purity="8.3502501249313354e-01" nType="0">
            <Node pos="l" depth="3" NCoef="0" IVar="-1" Cut="0.0000000000000000e+00" cType="1" res="9.8470207303762436e-03" rms="3.9726412296295166e-01" purity="7.1602207422256470e-01" nType="-99"/>
            <Node pos="r" depth="3" NCoef="0" IVar="-1" Cut="0.0000000000000000e+00" cType="1" res="2.2699484601616859e-02" rms="2.5858721137046814e-01" purity="9.0817123651504517e-01" nType="-99"/>
          </Node>
          <Node pos="r" depth="2" NCoef="0" IVar="-1" Cut="0.0000000000000000e+00" cType="1" res="-2.6114990934729576e-02" rms="2.8614464402198792e-01" purity="1.0305013507604599e-01" nType="-99"/>
        </Node>
        <Node pos="r" depth="1" NCoef="0" IVar="6" Cut="9.0349751710891724e-01" cType="1" res="-8.5815846920013428e-02" rms="3.5364156961441040e-01" purity="2.3637723922729492e-01" nType="0">
          <Node pos="l" depth="2" NCoef="0" IVar="3" Cut="7.8984824940562248e-03" cType="1" res="-1.1781050264835358e-01" rms="3.1236547231674194e-01" purity="1.5676322579383850e-01" nType="0">
            <Node pos="l" depth="3" NCoef="0" IVar="-1" Cut="0.0000000000000000e+00" cType="1" res="-3.1820468138903379e-03" rms="4.1856437921524048e-01" purity="3.5122126340866089e-01" nType="-99"/>
            <Node pos="r" depth="3" NCoef="0" IVar="-1" Cut="0.0000000000000000e+00" cType="1" res="-2.5198068469762802e-02" rms="2.8274318575859070e-01" purity="1.1723611503839493e-01" nType="-99"/>
          </Node>
          <Node pos="r" depth="2" NCoef="0" IVar="-1" Cut="0.0000000000000000e+00" cType="1" res="2.8039496392011642e-03" rms="4.5894685387611389e-01" purity="5.3796809911727905e-01" nType="-99"/>
        </Node>
      </Node>
    </BinaryTree>
    <BinaryTree type="DecisionTree" boostWeight="1.0000000000000000e+00" itree="20">
      <Node pos="s" depth="0" NCoef="0" IVar="9" Cut="3.8665316104888916e+00" cType="1" res="2.4686656892299652e-02" rms="3.5839793086051941e-01" purity="5.0000000000000000e-01" nType="0">
        <Node pos="l" depth="1" NCoef="0" IVar="7" Cut="3.2278859615325928e+00" cType="1" res="1.1089089512825012e-01" rms="3.4430798888206482e-01" purity="7.1866434812545776e-01" nType="0">
          <Node pos="l" depth="2" NCoef="0" IVar="1" Cut="9.3101054430007935e-01" cType="1" res="1.5108487010002136e-01" rms="3.2565119862556458e-01" purity="8.0568110942840576e-01" nType="0">
            <Node pos="l" depth="3" NCoef="0" IVar="-1" Cut="0.0000000000000000e+00" cType="1" res="6.5543791279196739e-03" rms="3.9345082640647888e-01" purity="6.4012354612350464e-01" nType="-99"/>
            <Node pos="r" depth="3" NCoef="0" IVar="-1" Cut="0.0000000000000000e+00" cType="1" res="2.2420292720198631e-02" rms="2.5197616219520569e-01" purity="9.1415524482727051e-01" nType="-99"/>
          </Node>
          <Node pos="r" depth="2" NCoef="0" IVar="-1" Cut="0.0000000000000000e+00" cType="1" res="-1.8846957013010979e-02" rms="3.5457059741020203e-01" purity="1.9687065482139587e-01" nType="-99"/>
        </Node>
        <Node pos="r" depth="1" NCoef="0" IVar="4" Cut="9.6064684912562370e-03" cType="1" res="-1.0124018788337708e-01" rms="3.4088057279586792e-01" purity="1.8057586252689362e-01" nType="0">
          <Node pos="l" depth="2" NCoef="0" IVar="-1" Cut="0.0000000000000000e+00" cType="1" res="-9.7216878202743828e-05" rms="4.3345111608505249e-01" purity="3.7908807396888733e-01" nType="-99"/>
          <Node pos="r" depth="2" NCoef="0" IVar="8" Cut="1.5654739379882812e+01" cType="1" res="-1.2113551050424576e-01" rms="3.1554403901100159e-01" purity="1.4112906157970428e-01" nType="0">
            <Node pos="l" depth="3" NCoef="0" IVar="-1" Cut="0.0000000000000000e+00" cType="1" res="-2.4222657084465027e-02" rms="3.0148398876190186e-01" purity="1.2923717498779297e-01" nType="-99"/>
            <Node pos="r" depth="3" NCoef="0" IVar="-1" Cut="0.0000000000000000e+00" cType="1" res="-7.7117169275879860e-03" rms="3.5749453306198120e-01" purity="1.8654729425907135e-01" nType="-99"/>
          </Node>
        </Node>
      </Node>
    </BinaryTree>
    <BinaryTree type="DecisionTree" boostWeight="1.0000000000000000e+00" itree="21">
      <Node pos="s" depth="0" NCoef="0" IVar="7" Cut="1.5182814598083496e+00" cType="1" res="2.4574901908636093e-02" rms="3.5563018918037415e-01" purity="5.0000000000000000e-01" nType="0">
        <Node pos="l" depth="1" NCoef="0" IVar="9" Cut="4.6776204109191895e+00" cType="1" res="1.1869441717863083e-01" rms="3.3239263296127319e-01" purity="7.2685277462005615e-01" nType="0">
          <Node pos="l" depth="2" NCoef="0" IVar="3" Cut="1.0569869540631771e-02" cType="1" res="1.6313552856445312e-01" rms="3.0749675631523132e-01" purity="8.3192414045333862e-01" nType="0">
            <Node pos="l" depth="3" NCoef="0" IVar="-1" Cut="0.0000000000000000e+00" cType="1" res="2.0831502974033356e-02" rms="2.8043040633201599e-01" purity="8.8958549499511719e-01" nType="-99"/>
            <Node pos="r" depth="3" NCoef="0" IVar="-1" Cut="0.0000000000000000e+00" cType="1" res="1.8883284647017717e-03" rms="3.8636398315429688e-01" purity="5.3599399328231812e-01" nType="-99"/>
          </Node>
          <Node pos="r" depth="2" NCoef="0" IVar="-1" Cut="0.0000000000000000e+00" cType="1" res="-1.3875308446586132e-02" rms="3.6271053552627563e-01" purity="2.1419331431388855e-01" nType="-99"/>
        </Node>
        <Node pos="r" depth="1" NCoef="0" IVar="6" Cut="8.7788361310958862e-01" cType="1" res="-8.0599233508110046e-02" rms="3.5125219821929932e-01" purity="2.4650269746780396e-01" nType="0">
          <Node pos="l" depth="2" NCoef="0" IVar="2" Cut="9.0357484295964241e-03" cType="1" res="-1.3776013255119324e-01" rms="2.6191762089729309e-01" purity="1.0287623852491379e-01" nType="0">
            <Node pos="l" depth="3" NCoef="0" IVar="-1" Cut="0.0000000000000000e+00" cType="1" res="-1.0383884422481060e-02" rms="4.1163268685340881e-01" purity="3.3737608790397644e-01" nType="-99"/>
            <Node pos="r" depth="3" NCoef="0" IVar="-1" Cut="0.0000000000000000e+00" cType="1" res="-3.4417238086462021e-02" rms="2.1408282220363617e-01" purity="5.2495229989290237e-02" nType="-99"/>
          </Node>
          <Node pos="r" depth="2" NCoef="0" IVar="1" Cut="9.4327777624130249e-01" cType="1" res="7.5162514112889767e-03" rms="4.4160845875740051e-01" purity="4.6790781617164612e-01" nType="0">
            <Node pos="l" depth="3" NCoef="0" IVar="-1" Cut="0.0000000000000000e+00" cType="1" res="-1.0955613106489182e-02" rms="4.2362383008003235e-01" purity="3.0376830697059631e-01" nType="-99"/>
            <Node pos="r" depth="3" NCoef="0" IVar="-1" Cut="0.0000000000000000e+00" cType="1" res="5.7093556970357895e-03" rms="4.4066277146339417e-01" purity="5.6228291988372803e-01" nType="-99"/>
          </Node>
        </Node>
      </Node>
    </BinaryTree>
    <BinaryTree type="DecisionTree" boostWeight="1.0000000000000000e+00" itree="22">
      <Node pos="s" depth="0" NCoef="0" IVar="8" Cut="1.4332658052444458e+00" cType="1" res="2.4706430733203888e-02" rms="3.5266539454460144e-01" purity="5.0000000000000000e-01" nType="0">
        <Node pos="l" depth="1" NCoef="0" IVar="2" Cut="1.0109697468578815e-02" cType="1" res="1.1416765302419662e-01" rms="3.3226257562637329e-01" purity="7.4581074714660645e-01" nType="0">
          <Node pos="l" depth="2" NCoef="0" IVar="1" Cut="9.3847489356994629e-01" cType="1" res="1.5238015353679657e-01" rms="3.1844285130500793e-01" purity="8.4596073627471924e-01" nType="0">
            <Node pos="l" depth="3" NCoef="0" IVar="-1" Cut="0.0000000000000000e+00" cType="1" res="1.0136834345757961e-02" rms="3.9271980524063110e-01" purity="7.3514062166213989e-01" nType="-99"/>
            <Node pos="r" depth="3" NCoef="0" IVar="-1" Cut="0.0000000000000000e+00" cType="1" res="2.1949293091893196e-02" rms="2.4933968484401703e-01" purity="9.1727131605148315e-01" nType="-99"/>
          </Node>
          <Node pos="r" depth="2" NCoef="0" IVar="-1" Cut="0.0000000000000000e+00" cType="1" res="-1.3656488619744778e-02" rms="3.2988110184669495e-01" purity="2.0901268720626831e-01" nType="-99"/>
        </Node>
        <Node pos="r" depth="1" NCoef="0" IVar="4" Cut="9.3245683237910271e-03" cType="1" res="-7.8253917396068573e-02" rms="3.4733876585960388e-01" purity="2.1709793806076050e-01" nType="0">
          <Node pos="l" depth="2" NCoef="0" IVar="-1" Cut="0.0000000000000000e+00" cType="1" res="3.8875769823789597e-03" rms="4.2445525527000427e-01" purity="4.6476495265960693e-01" nType="-99"/>
          <Node pos="r" depth="2" NCoef="0" IVar="2" Cut="9.8036918789148331e-03" cType="1" res="-1.0019403696060181e-01" rms="3.2713690400123596e-01" purity="1.7388094961643219e-01" nType="0">
            <Node pos="l" depth="3" NCoef="0" IVar="-1" Cut="0.0000000000000000e+00" cType="1" res="-7.2562620043754578e-03" rms="4.1811975836753845e-01" purity="3.1248271465301514e-01" nType="-99"/>
            <Node pos="r" depth="3" NCoef="0" IVar="-1" Cut="0.0000000000000000e+00" cType="1" res="-2.9817072674632072e-02" rms="2.2059090435504913e-01" purity="5.9109479188919067e-02" nType="-99"/>
          </Node>
        </Node>
      </Node>
    </BinaryTree>
    <BinaryTree type="DecisionTree" boostWeight="1.0000000000000000e+00" itree="23">
      <Node pos="s" depth="0" NCoef="0" IVar="9" Cut="2.5147173404693604e+00" cType="1" res="2.4373756721615791e-02" rms="3.5039791464805603e-01" purity="5.0000000000000000e-01" nType="0">
        <Node pos="l" depth="1" NCoef="0" IVar="6" Cut="8.7428158521652222e-01" cType="1" res="1.2077849358320236e-01" rms="3.2108578085899353e-01" purity="7.8086841106414795e-01" nType="0">
          <Node pos="l" depth="2" NCoef="0" IVar="2" Cut="9.2618307098746300e-03" cType="1" res="4.5098424889147282e-03" rms="3.6933648586273193e-01" purity="5.5838942527770996e-01" nType="0">
            <Node pos="l" depth="3" NCoef="0" IVar="-1" Cut="0.0000000000000000e+00" cType="1" res="1.5366357751190662e-02" rms="3.6444255709648132e-01" purity="8.0261516571044922e-01" nType="-99"/>
            <Node pos="r" depth="3" NCoef="0" IVar="-1" Cut="0.0000000000000000e+00" cType="1" res="-2.9320105910301208e-02" rms="3.0415621399879456e-01" purity="1.6282758116722107e-01" nType="-99"/>
          </Node>
          <Node pos="r" depth="2" NCoef="0" IVar="1" Cut="9.2977589368820190e-01" cType="1" res="1.7984285950660706e-01" rms="2.7534884214401245e-01" purity="8.9388746023178101e-01" nType="0">
            <Node pos="l" depth="3" NCoef="0" IVar="-1" Cut="0.0000000000000000e+00" cType="1" res="8.0678183585405350e-03" rms="3.9550134539604187e-01" purity="7.2957336902618408e-01" nType="-99"/>
            <Node pos="r" depth="3" NCoef="0" IVar="-1" Cut="0.0000000000000000e+00" cType="1" res="2.1671142429113388e-02" rms="2.4102592468261719e-01" purity="9.2520302534103394e-01" nType="-99"/>
          </Node>
        </Node>
        <Node pos="r" depth="1" NCoef="0" IVar="2" Cut="9.9005000665783882e-03" cType="1" res="-6.3390426337718964e-02" rms="3.5289344191551208e-01" purity="2.4430522322654724e-01" nType="0">
          <Node pos="l" depth="2" NCoef="0" IVar="1" Cut="9.4158309698104858e-01" cType="1" res="-1.0192436166107655e-02" rms="4.2857846617698669e-01" purity="4.0771624445915222e-01" nType="0">
            <Node pos="l" depth="3" NCoef="0" IVar="-1" Cut="0.0000000000000000e+00" cType="1" res="-1.0233080945909023e-02" rms="4.0461239218711853e-01" purity="2.7933052182197571e-01" nType="-99"/>
            <Node pos="r" depth="3" NCoef="0" IVar="-1" Cut="0.0000000000000000e+00" cType="1" res="5.4442766122519970e-03" rms="4.4269758462905884e-01" purity="5.5203759670257568e-01" nType="-99"/>
          </Node>
          <Node pos="r" depth="2" NCoef="0" IVar="8" Cut="1.3258198738098145e+01" cType="1" res="-1.1914552003145218e-01" rms="2.3763494193553925e-01" purity="7.3039464652538300e-02" nType="0">
            <Node pos="l" depth="3" NCoef="0" IVar="-1" Cut="0.0000000000000000e+00" cType="1" res="-3.0297504737973213e-02" rms="2.1708290278911591e-01" purity="6.3944406807422638e-02" nType="-99"/>
            <Node pos="r" depth="3" NCoef="0" IVar="-1" Cut="0.0000000000000000e+00" cType="1" res="-1.6105363145470619e-02" rms="2.8347057104110718e-01" purity="9.7789078950881958e-02" nType="-99"/>
          </Node>
        </Node>
      </Node>
    </BinaryTree>
    <BinaryTree type="DecisionTree" boostWeight="1.0000000000000000e+00" itree="24">
      <Node pos="s" depth="0" NCoef="0" IVar="7" Cut="1.3802559375762939e+00" cType="1" res="2.4340970441699028e-02" rms="3.4782075881958008e-01" purity="5.0000000000000000e-01" nType="0">
        <Node pos="l" depth="1" NCoef="0" IVar="9" Cut="4.9479832649230957e+00" cType="1" res="1.1192264407873154e-01" rms="3.2418829202651978e-01" purity="7.3438429832458496e-01" nType="0">
          <Node pos="l" depth="2" NCoef="0" IVar="3" Cut="1.0376989841461182e-02" cType="1" res="1.4926613867282867e-01" rms="3.0302834510803223e-01" purity="8.3095383644104004e-01" nType="0">
            <Node pos="l" depth="3" NCoef="0" IVar="-1" Cut="0.0000000000000000e+00" cType="1" res="1.9974339753389359e-02" rms="2.7574783563613892e-01" purity="8.9161592721939087e-01" nType="-99"/>
            <Node pos="r" depth="3" NCoef="0" IVar="-1" Cut="0.0000000000000000e+00" cType="1" res="3.6753921303898096e-03" rms="3.7769550085067749e-01" purity="5.6237071752548218e-01" nType="-99"/>
          </Node>
          <Node pos="r" depth="2" NCoef="0" IVar="-1" Cut="0.0000000000000000e+00" cType="1" res="-1.3388943858444691e-02" rms="3.5825085639953613e-01" purity="2.0621904730796814e-01" nType="-99"/>
        </Node>
        <Node pos="r" depth="1" NCoef="0" IVar="6" Cut="8.9197444915771484e-01" cType="1" res="-6.5331161022186279e-02" rms="3.4834587574005127e-01" purity="2.6002126932144165e-01" nType="0">
          <Node pos="l" depth="2" NCoef="0" IVar="3" Cut="9.6688466146588326e-03" cType="1" res="-1.0792326927185059e-01" rms="2.8698918223381042e-01" purity="1.3562649488449097e-01" nType="0">
            <Node pos="l" depth="3" NCoef="0" IVar="-1" Cut="0.0000000000000000e+00" cType="1" res="-1.0363571345806122e-02" rms="3.5804784297943115e-01" purity="2.3968598246574402e-01" nType="-99"/>
            <Node pos="r" depth="3" NCoef="0" IVar="-1" Cut="0.0000000000000000e+00" cType="1" res="-3.3147897571325302e-02" rms="2.2692576050758362e-01" purity="6.9222904741764069e-02" nType="-99"/>
          </Node>
          <Node pos="r" depth="2" NCoef="0" IVar="9" Cut="2.7368860244750977e+00" cType="1" res="2.9606459662318230e-02" rms="4.4179058074951172e-01" purity="5.3729671239852905e-01" nType="0">
            <Node pos="l" depth="3" NCoef="0" IVar="-1" Cut="0.0000000000000000e+00" cType="1" res="1.2583026662468910e-02" rms="3.8378456234931946e-01" purity="7.6389890909194946e-01" nType="-99"/>
            <Node pos="r" depth="3" NCoef="0" IVar="-1" Cut="0.0000000000000000e+00" cType="1" res="-2.6544574648141861e-03" rms="4.6329748630523682e-01" purity="3.9881148934364319e-01" nType="-99"/>
          </Node>
        </Node>
      </Node>
    </BinaryTree>
    <BinaryTree type="DecisionTree" boostWeight="1.0000000000000000e+00" itree="25">
      <Node pos="s" depth="0" NCoef="0" IVar="8" Cut="1.1629029512405396e+00" cType="1" res="2.4282332509756088e-02" rms="3.4544247388839722e-01" purity="5.0000000000000000e-01" nType="0">
        <Node pos="l" depth="1" NCoef="0" IVar="7" Cut="3.7846007347106934e+00" cType="1" res="1.0768243670463562e-01" rms="3.2317513227462769e-01" purity="7.5347214937210083e-01" nType="0">
          <Node pos="l" depth="2" NCoef="0" IVar="3" Cut="1.1264235712587833e-02" cType="1" res="1.3602042198181152e-01" rms="3.0988475680351257e-01" purity="8.2494395971298218e-01" nType="0">
            <Node pos="l" depth="3" NCoef="0" IVar="-1" Cut="0.0000000000000000e+00" cType="1" res="1.8843084573745728e-02" rms="2.9141464829444885e-01" purity="8.7753051519393921e-01" nType="-99"/>
            <Node pos="r" depth="3" NCoef="0" IVar="-1" Cut="0.0000000000000000e+00" cType="1" res="-5.4967328906059265e-03" rms="3.7984937429428101e-01" purity="4.3790701031684875e-01" nType="-99"/>
          </Node>
          <Node pos="r" depth="2" NCoef="0" IVar="-1" Cut="0.0000000000000000e+00" cType="1" res="-1.9750585779547691e-02" rms="3.3673793077468872e-01" purity="1.7444930970668793e-01" nType="-99"/>
        </Node>
        <Node pos="r" depth="1" NCoef="0" IVar="6" Cut="9.0805399417877197e-01" cType="1" res="-6.2457621097564697e-02" rms="3.4649258852005005e-01" purity="2.3637723922729492e-01" nType="0">
          <Node pos="l" depth="2" NCoef="0" IVar="3" Cut="7.8984824940562248e-03" cType="1" res="-8.4717631340026855e-02" rms="3.1779310107231140e-01" purity="1.7363627254962921e-01" nType="0">
            <Node pos="l" depth="3" NCoef="0" IVar="-1" Cut="0.0000000000000000e+00" cType="1" res="-4.9399124691262841e-04" rms="4.1654229164123535e-01" purity="3.7935891747474670e-01" nType="-99"/>
            <Node pos="r" depth="3" NCoef="0" IVar="-1" Cut="0.0000000000000000e+00" cType="1" res="-2.0213810727000237e-02" rms="2.8927910327911377e-01" purity="1.2927161157131195e-01" nType="-99"/>
          </Node>
          <Node pos="r" depth="2" NCoef="0" IVar="-1" Cut="0.0000000000000000e+00" cType="1" res="4.1531021706759930e-03" rms="4.5032671093940735e-01" purity="5.6064939498901367e-01" nType="-99"/>
        </Node>
      </Node>
    </BinaryTree>
    <BinaryTree type="DecisionTree" boostWeight="1.0000000000000000e+00" itree="26">
      <Node pos="s" depth="0" NCoef="0" IVar="7" Cut="1.6563071012496948e+00" cType="1" res="2.3983957245945930e-02" rms="3.4346273541450500e-01" purity="5.0000000000000000e-01" nType="0">
        <Node pos="l" depth="1" NCoef="0" IVar="9" Cut="4.9479832649230957e+00" cType="1" res="9.7911715507507324e-02" rms="3.2583335041999817e-01" purity="7.1963429450988770e-01" nType="0">
          <Node pos="l" depth="2" NCoef="0" IVar="1" Cut="9.2502433061599731e-01" cType="1" res="1.3439914584159851e-01" rms="3.0674248933792114e-01" purity="8.2157427072525024e-01" nType="0">
            <Node pos="l" depth="3" NCoef="0" IVar="-1" Cut="0.0000000000000000e+00" cType="1" res="7.7474578283727169e-03" rms="3.7694644927978516e-01" purity="6.6404092311859131e-01" nType="-99"/>
            <Node pos="r" depth="3" NCoef="0" IVar="-1" Cut="0.0000000000000000e+00" cType="1" res="2.0694699138402939e-02" rms="2.4596817791461945e-01" purity="9.1413587331771851e-01" nType="-99"/>
          </Node>
          <Node pos="r" depth="2" NCoef="0" IVar="-1" Cut="0.0000000000000000e+00" cType="1" res="-1.2859711423516273e-02" rms="3.5555735230445862e-01" purity="2.0271892845630646e-01" nType="-99"/>
        </Node>
        <Node pos="r" depth="1" NCoef="0" IVar="6" Cut="8.7788361310958862e-01" cType="1" res="-6.5487496554851532e-02" rms="3.4296825528144836e-01" purity="2.3418647050857544e-01" nType="0">
          <Node pos="l" depth="2" NCoef="0" IVar="2" Cut="9.1176675632596016e-03" cType="1" res="-1.0907737910747528e-01" rms="2.5613975524902344e-01" purity="9.6113458275794983e-02" nType="0">
            <Node pos="l" depth="3" NCoef="0" IVar="-1" Cut="0.0000000000000000e+00" cType="1" res="-1.0486063547432423e-02" rms="4.0392327308654785e-01" purity="3.1000715494155884e-01" nType="-99"/>
            <Node pos="r" depth="3" NCoef="0" IVar="-1" Cut="0.0000000000000000e+00" cType="1" res="-3.1253326684236526e-02" rms="2.0809043943881989e-01" purity="4.8114404082298279e-02" nType="-99"/>
          </Node>
          <Node pos="r" depth="2" NCoef="0" IVar="1" Cut="9.4327777624130249e-01" cType="1" res="3.7084266077727079e-03" rms="4.3863481283187866e-01" purity="4.5336782932281494e-01" nType="0">
            <Node pos="l" depth="3" NCoef="0" IVar="-1" Cut="0.0000000000000000e+00" cType="1" res="-9.8593458533287048e-03" rms="4.2068082094192505e-01" purity="2.9396918416023254e-01" nType="-99"/>
            <Node pos="r" depth="3" NCoef="0" IVar="-1" Cut="0.0000000000000000e+00" cType="1" res="4.7161923721432686e-03" rms="4.4075363874435425e-01" purity="5.4672521352767944e-01" nType="-99"/>
          </Node>
        </Node>
      </Node>
    </BinaryTree>
    <BinaryTree type="DecisionTree" boostWeight="1.0000000000000000e+00" itree="27">
      <Node pos="s" depth="0" NCoef="0" IVar="8" Cut="1.1629029512405396e+00" cType="1" res="2.3851539939641953e-02" rms="3.4140077233314514e-01" purity="5.0000000000000000e-01" nType="0">
        <Node pos="l" depth="1" NCoef="0" IVar="7" Cut="3.7846007347106934e+00" cType="1" res="1.0042639076709747e-01" rms="3.1986978650093079e-01" purity="7.5347214937210083e-01" nType="0">
          <Node pos="l" depth="2" NCoef="0" IVar="3" Cut="1.0261262767016888e-02" cType="1" res="1.2624780833721161e-01" rms="3.0814179778099060e-01" purity="8.2494395971298218e-01" nType="0">
            <Node pos="l" depth="3" NCoef="0" IVar="-1" Cut="0.0000000000000000e+00" cType="1" res="1.8693732097744942e-02" rms="2.7935868501663208e-01" purity="8.9295041561126709e-01" nType="-99"/>
            <Node pos="r" depth="3" NCoef="0" IVar="-1" Cut="0.0000000000000000e+00" cType="1" res="1.4731962000951171e-03" rms="3.7792882323265076e-01" purity="5.6344580650329590e-01" nType="-99"/>
          </Node>
          <Node pos="r" depth="2" NCoef="0" IVar="-1" Cut="0.0000000000000000e+00" cType="1" res="-1.8074395135045052e-02" rms="3.3589285612106323e-01" purity="1.7444930970668793e-01" nType="-99"/>
        </Node>
        <Node pos="r" depth="1" NCoef="0" IVar="4" Cut="9.1836182400584221e-03" cType="1" res="-5.5789839476346970e-02" rms="3.4484952688217163e-01" purity="2.3637723922729492e-01" nType="0">
          <Node pos="l" depth="2" NCoef="0" IVar="-1" Cut="0.0000000000000000e+00" cType="1" res="5.2624591626226902e-03" rms="4.1134589910507202e-01" purity="5.0040948390960693e-01" nType="-99"/>
          <Node pos="r" depth="2" NCoef="0" IVar="3" Cut="9.5589896664023399e-03" cType="1" res="-7.5332343578338623e-02" rms="3.2854497432708740e-01" purity="1.9291399419307709e-01" nType="0">
            <Node pos="l" depth="3" NCoef="0" IVar="-1" Cut="0.0000000000000000e+00" cType="1" res="-4.3722209520637989e-03" rms="3.9476057887077332e-01" purity="3.1229940056800842e-01" nType="-99"/>
            <Node pos="r" depth="3" NCoef="0" IVar="-1" Cut="0.0000000000000000e+00" cType="1" res="-2.3003084585070610e-02" rms="2.6936814188957214e-01" purity="1.0933259874582291e-01" nType="-99"/>
          </Node>
        </Node>
      </Node>
    </BinaryTree>
    <BinaryTree type="DecisionTree" boostWeight="1.0000000000000000e+00" itree="28">
      <Node pos="s" depth="0" NCoef="0" IVar="2" Cut="9.9660316482186317e-03" cType="1" res="2.3524386808276176e-02" rms="3.3970123529434204e-01" purity="5.0000000000000000e-01" nType="0">
        <Node pos="l" depth="1" NCoef="0" IVar="9" Cut="4.4072570800781250e+00" cType="1" res="7.5854837894439697e-02" rms="3.6014026403427124e-01" purity="6.8127810955047607e-01" nType="0">
          <Node pos="l" depth="2" NCoef="0" IVar="1" Cut="9.3431913852691650e-01" cType="1" res="1.1932962387800217e-01" rms="3.2580852508544922e-01" purity="8.1649976968765259e-01" nType="0">
            <Node pos="l" depth="3" NCoef="0" IVar="-1" Cut="0.0000000000000000e+00" cType="1" res="6.7006913013756275e-03" rms="3.9592355489730835e-01" purity="6.8221318721771240e-01" nType="-99"/>
            <Node pos="r" depth="3" NCoef="0" IVar="-1" Cut="0.0000000000000000e+00" cType="1" res="1.9293010234832764e-02" rms="2.6122778654098511e-01" purity="9.0414708852767944e-01" nType="-99"/>
          </Node>
          <Node pos="r" depth="2" NCoef="0" IVar="0" Cut="3.7246818542480469e+01" cType="1" res="-4.8742491751909256e-02" rms="4.1982451081275940e-01" purity="2.9373729228973389e-01" nType="0">
            <Node pos="l" depth="3" NCoef="0" IVar="-1" Cut="0.0000000000000000e+00" cType="1" res="1.3750912621617317e-03" rms="4.4830667972564697e-01" purity="3.7309479713439941e-01" nType="-99"/>
            <Node pos="r" depth="3" NCoef="0" IVar="-1" Cut="0.0000000000000000e+00" cType="1" res="-1.6816867515444756e-02" rms="3.9096882939338684e-01" purity="2.3679938912391663e-01" nType="-99"/>
          </Node>
        </Node>
        <Node pos="r" depth="1" NCoef="0" IVar="6" Cut="8.6714750528335571e-01" cType="1" res="-8.5229903459548950e-02" rms="2.6105794310569763e-01" purity="1.2326388061046600e-01" nType="0">
          <Node pos="l" depth="2" NCoef="0" IVar="8" Cut="3.1246397495269775e+00" cType="1" res="-1.1239830404520035e-01" rms="1.8829523026943207e-01" purity="3.7989500910043716e-02" nType="0">
            <Node pos="l" depth="3" NCoef="0" IVar="-1" Cut="0.0000000000000000e+00" cType="1" res="-3.7014797329902649e-02" rms="2.0733521878719330e-01" purity="4.8809330910444260e-02" nType="-99"/>
            <Node pos="r" depth="3" NCoef="0" IVar="-1" Cut="0.0000000000000000e+00" cType="1" res="-3.0586225911974907e-02" rms="1.7371913790702820e-01" purity="3.1929608434438705e-02" nType="-99"/>
          </Node>
          <Node pos="r" depth="2" NCoef="0" IVar="-1" Cut="0.0000000000000000e+00" cType="1" res="-1.2971626129001379e-03" rms="3.8709181547164917e-01" purity="3.5589367151260376e-01" nType="-99"/>
        </Node>
      </Node>
    </BinaryTree>
    <BinaryTree type="DecisionTree" boostWeight="1.0000000000000000e+00" itree="29">
      <Node pos="s" depth="0" NCoef="0" IVar="7" Cut="1.3802559375762939e+00" cType="1" res="2.3514341562986374e-02" rms="3.3781409263610840e-01" purity="5.0000000000000000e-01" nType="0">
        <Node pos="l" depth="1" NCoef="0" IVar="9" Cut="5.2183461189270020e+00" cType="1" res="9.5002077519893646e-02" rms="3.1705030798912048e-01" purity="7.3438429832458496e-01" nType="0">
          <Node pos="l" depth="2" NCoef="0" IVar="3" Cut="1.0917052626609802e-02" cType="1" res="1.2477739155292511e-01" rms="3.0056333541870117e-01" purity="8.2556605339050293e-01" nType="0">
            <Node pos="l" depth="3" NCoef="0" IVar="-1" Cut="0.0000000000000000e+00" cType="1" res="1.7832918092608452e-02" rms="2.8213867545127869e-01" purity="8.7935143709182739e-01" nType="-99"/>
            <Node pos="r" depth="3" NCoef="0" IVar="-1" Cut="0.0000000000000000e+00" cType="1" res="-5.8565486688166857e-04" rms="3.7380114197731018e-01" purity="4.8238086700439453e-01" nType="-99"/>
          </Node>
          <Node pos="r" depth="2" NCoef="0" IVar="-1" Cut="0.0000000000000000e+00" cType="1" res="-1.2157788500189781e-02" rms="3.5287058353424072e-01" purity="1.9734129309654236e-01" nType="-99"/>
        </Node>
        <Node pos="r" depth="1" NCoef="0" IVar="6" Cut="8.8606542348861694e-01" cType="1" res="-4.9679711461067200e-02" rms="3.4271058440208435e-01" purity="2.6002126932144165e-01" nType="0">
          <Node pos="l" depth="2" NCoef="0" IVar="3" Cut="8.8503025472164154e-03" cType="1" res="-8.7751597166061401e-02" rms="2.7332445979118347e-01" purity="1.2166173756122589e-01" nType="0">
            <Node pos="l" depth="3" NCoef="0" IVar="-1" Cut="0.0000000000000000e+00" cType="1" res="-7.9691726714372635e-03" rms="3.6046943068504333e-01" purity="2.4904374778270721e-01" nType="-99"/>
            <Node pos="r" depth="3" NCoef="0" IVar="-1" Cut="0.0000000000000000e+00" cType="1" res="-2.7782810851931572e-02" rms="2.3496472835540771e-01" purity="7.8107535839080811e-02" nType="-99"/>
          </Node>
          <Node pos="r" depth="2" NCoef="0" IVar="1" Cut="9.4327777624130249e-01" cType="1" res="2.0053382962942123e-02" rms="4.3384802341461182e-01" purity="5.1344281435012817e-01" nType="0">
            <Node pos="l" depth="3" NCoef="0" IVar="-1" Cut="0.0000000000000000e+00" cType="1" res="-8.3132609724998474e-03" rms="4.2945426702499390e-01" purity="3.3371078968048096e-01" nType="-99"/>
            <Node pos="r" depth="3" NCoef="0" IVar="-1" Cut="0.0000000000000000e+00" cType="1" res="5.8209248818457127e-03" rms="4.2824092507362366e-01" purity="6.0403245687484741e-01" nType="-99"/>
          </Node>
        </Node>
      </Node>
    </BinaryTree>
    <BinaryTree type="DecisionTree" boostWeight="1.0000000000000000e+00" itree="30">
      <Node pos="s" depth="0" NCoef="0" IVar="8" Cut="2.2443544864654541e+00" cType="1" res="2.3322710767388344e-02" rms="3.3614894747734070e-01" purity="5.0000000000000000e-01" nType="0">
        <Node pos="l" depth="1" NCoef="0" IVar="6" Cut="8.7733232975006104e-01" cType="1" res="8.1313073635101318e-02" rms="3.2558745145797729e-01" purity="7.2179871797561646e-01" nType="0">
          <Node pos="l" depth="2" NCoef="0" IVar="2" Cut="9.1544371098279953e-03" cType="1" res="-8.5707139223814011e-03" rms="3.5271278023719788e-01" purity="4.8654907941818237e-01" nType="0">
            <Node pos="l" depth="3" NCoef="0" IVar="-1" Cut="0.0000000000000000e+00" cType="1" res="1.3075585477054119e-02" rms="3.7180131673812866e-01" purity="7.6869577169418335e-01" nType="-99"/>
            <Node pos="r" depth="3" NCoef="0" IVar="-1" Cut="0.0000000000000000e+00" cType="1" res="-2.3984935134649277e-02" rms="2.9102513194084167e-01" purity="1.6346897184848785e-01" nType="-99"/>
          </Node>
          <Node pos="r" depth="2" NCoef="0" IVar="1" Cut="9.2712521553039551e-01" cType="1" res="1.3479711115360260e-01" rms="2.9561999440193176e-01" purity="8.6178046464920044e-01" nType="0">
            <Node pos="l" depth="3" NCoef="0" IVar="-1" Cut="0.0000000000000000e+00" cType="1" res="3.7111970596015453e-03" rms="4.0406802296638489e-01" purity="6.6926985979080200e-01" nType="-99"/>
            <Node pos="r" depth="3" NCoef="0" IVar="-1" Cut="0.0000000000000000e+00" cType="1" res="1.8383437767624855e-02" rms="2.6686015725135803e-01" purity="8.9715653657913208e-01" nType="-99"/>
          </Node>
        </Node>
        <Node pos="r" depth="1" NCoef="0" IVar="8" Cut="1.7025165557861328e+01" cType="1" res="-6.0523100197315216e-02" rms="3.3347973227500916e-01" purity="1.7931069433689117e-01" nType="0">
          <Node pos="l" depth="2" NCoef="0" IVar="3" Cut="8.0381007865071297e-03" cType="1" res="-8.0228850245475769e-02" rms="3.1794103980064392e-01" purity="1.6327705979347229e-01" nType="0">
            <Node pos="l" depth="3" NCoef="0" IVar="-1" Cut="0.0000000000000000e+00" cType="1" res="-2.1543214097619057e-03" rms="4.1865432262420654e-01" purity="3.4194070100784302e-01" nType="-99"/>
            <Node pos="r" depth="3" NCoef="0" IVar="-1" Cut="0.0000000000000000e+00" cType="1" res="-1.9554423168301582e-02" rms="2.8547534346580505e-01" purity="1.1866309493780136e-01" nType="-99"/>
          </Node>
          <Node pos="r" depth="2" NCoef="0" IVar="-1" Cut="0.0000000000000000e+00" cType="1" res="3.1598221976310015e-03" rms="3.8304841518402100e-01" purity="2.5038245320320129e-01" nType="-99"/>
        </Node>
      </Node>
    </BinaryTree>
    <BinaryTree type="DecisionTree" boostWeight="1.0000000000000000e+00" itree="31">
      <Node pos="s" depth="0" NCoef="0" IVar="9" Cut="2.5147173404693604e+00" cType="1" res="2.2937219589948654e-02" rms="3.3442094922065735e-01" purity="5.0000000000000000e-01" nType="0">
        <Node pos="l" depth="1" NCoef="0" IVar="6" Cut="8.7383848428726196e-01" cType="1" res="9.2957533895969391e-02" rms="3.0779278278350830e-01" purity="7.8086841106414795e-01" nType="0">
          <Node pos="l" depth="2" NCoef="0" IVar="2" Cut="9.2215584591031075e-03" cType="1" res="3.7303587887436152e-03" rms="3.5259032249450684e-01" purity="5.5770665407180786e-01" nType="0">
            <Node pos="l" depth="3" NCoef="0" IVar="-1" Cut="0.0000000000000000e+00" cType="1" res="1.2882912531495094e-02" rms="3.5767662525177002e-01" purity="8.0527389049530029e-01" nType="-99"/>
            <Node pos="r" depth="3" NCoef="0" IVar="-1" Cut="0.0000000000000000e+00" cType="1" res="-2.4024486541748047e-02" rms="3.0140087008476257e-01" purity="1.7040297389030457e-01" nType="-99"/>
          </Node>
          <Node pos="r" depth="2" NCoef="0" IVar="1" Cut="9.2904990911483765e-01" cType="1" res="1.3797806203365326e-01" rms="2.7159860730171204e-01" purity="8.9346706867218018e-01" nType="0">
            <Node pos="l" depth="3" NCoef="0" IVar="-1" Cut="0.0000000000000000e+00" cType="1" res="6.1829895712435246e-03" rms="3.8921681046485901e-01" purity="7.2845071554183960e-01" nType="-99"/>
            <Node pos="r" depth="3" NCoef="0" IVar="-1" Cut="0.0000000000000000e+00" cType="1" res="1.9059935584664345e-02" rms="2.3991189897060394e-01" purity="9.2468506097793579e-01" nType="-99"/>
          </Node>
        </Node>
        <Node pos="r" depth="1" NCoef="0" IVar="3" Cut="8.7400497868657112e-03" cType="1" res="-4.0807325392961502e-02" rms="3.4478810429573059e-01" purity="2.4430522322654724e-01" nType="0">
          <Node pos="l" depth="2" NCoef="0" IVar="6" Cut="8.9900946617126465e-01" cType="1" res="2.0694693550467491e-02" rms="4.1180536150932312e-01" purity="4.1743084788322449e-01" nType="0">
            <Node pos="l" depth="3" NCoef="0" IVar="-1" Cut="0.0000000000000000e+00" cType="1" res="-3.7224539555609226e-03" rms="3.8807091116905212e-01" purity="2.9014617204666138e-01" nType="-99"/>
            <Node pos="r" depth="3" NCoef="0" IVar="-1" Cut="0.0000000000000000e+00" cType="1" res="7.6852841302752495e-03" rms="4.3690270185470581e-01" purity="6.3195681571960449e-01" nType="-99"/>
          </Node>
          <Node pos="r" depth="2" NCoef="0" IVar="1" Cut="9.1317278146743774e-01" cType="1" res="-7.0284195244312286e-02" rms="3.0314204096794128e-01" purity="1.6132907569408417e-01" nType="0">
            <Node pos="l" depth="3" NCoef="0" IVar="-1" Cut="0.0000000000000000e+00" cType="1" res="-2.4067472666501999e-02" rms="2.5678044557571411e-01" purity="9.3773044645786285e-02" nType="-99"/>
            <Node pos="r" depth="3" NCoef="0" IVar="-1" Cut="0.0000000000000000e+00" cType="1" res="-7.0629958063364029e-03" rms="3.4713014960289001e-01" purity="2.3906636238098145e-01" nType="-99"/>
          </Node>
        </Node>
      </Node>
    </BinaryTree>
    <BinaryTree type="DecisionTree" boostWeight="1.0000000000000000e+00" itree="32">
      <Node pos="s" depth="0" NCoef="0" IVar="7" Cut="1.2422302961349487e+00" cType="1" res="2.2677874192595482e-02" rms="3.3293741941452026e-01" purity="5.0000000000000000e-01" nType="0">
        <Node pos="l" depth="1" NCoef="0" IVar="9" Cut="5.2183461189270020e+00" cType="1" res="9.0097598731517792e-02" rms="3.1090146303176880e-01" purity="7.4169981479644775e-01" nType="0">
          <Node pos="l" depth="2" NCoef="0" IVar="3" Cut="1.0145534761250019e-02" cType="1" res="1.1604810506105423e-01" rms="2.9531493782997131e-01" purity="8.3028405904769897e-01" nType="0">
            <Node pos="l" depth="3" NCoef="0" IVar="-1" Cut="0.0000000000000000e+00" cType="1" res="1.7609650269150734e-02" rms="2.6942822337150574e-01" purity="8.9451432228088379e-01" nType="-99"/>
            <Node pos="r" depth="3" NCoef="0" IVar="-1" Cut="0.0000000000000000e+00" cType="1" res="4.9594840966165066e-03" rms="3.6232411861419678e-01" purity="5.9647643566131592e-01" nType="-99"/>
          </Node>
          <Node pos="r" depth="2" NCoef="0" IVar="-1" Cut="0.0000000000000000e+00" cType="1" res="-1.0481039062142372e-02" rms="3.5374650359153748e-01" purity="2.0048327744007111e-01" nType="-99"/>
        </Node>
        <Node pos="r" depth="1" NCoef="0" IVar="6" Cut="8.9606535434722900e-01" cType="1" res="-4.0167536586523056e-02" rms="3.4041994810104370e-01" purity="2.7469912171363831e-01" nType="0">
          <Node pos="l" depth="2" NCoef="0" IVar="3" Cut="9.6688466146588326e-03" cType="1" res="-6.9660916924476624e-02" rms="2.9393467307090759e-01" purity="1.5827052295207977e-01" nType="0">
            <Node pos="l" depth="3" NCoef="0" IVar="-1" Cut="0.0000000000000000e+00" cType="1" res="-5.9466199018061161e-03" rms="3.6219161748886108e-01" purity="2.7423042058944702e-01" nType="-99"/>
            <Node pos="r" depth="3" NCoef="0" IVar="-1" Cut="0.0000000000000000e+00" cType="1" res="-2.6603335514664650e-02" rms="2.3394528031349182e-01" purity="7.9085439443588257e-02" nType="-99"/>
          </Node>
          <Node pos="r" depth="2" NCoef="0" IVar="1" Cut="9.5120805501937866e-01" cType="1" res="3.4721400588750839e-02" rms="4.2771989107131958e-01" purity="5.7033199071884155e-01" nType="0">
            <Node pos="l" depth="3" NCoef="0" IVar="-1" Cut="0.0000000000000000e+00" cType="1" res="-4.5722350478172302e-03" rms="4.3796694278717041e-01" purity="4.1908961534500122e-01" nType="-99"/>
            <Node pos="r" depth="3" NCoef="0" IVar="-1" Cut="0.0000000000000000e+00" cType="1" res="7.1375910192728043e-03" rms="4.1298681497573853e-01" purity="6.7027598619461060e-01" nType="-99"/>
          </Node>
        </Node>
      </Node>
    </BinaryTree>
    <BinaryTree type="DecisionTree" boostWeight="1.0000000000000000e+00" itree="33">
      <Node pos="s" depth="0" NCoef="0" IVar="8" Cut="8.9254003763198853e-01" cType="1" res="2.2409206256270409e-02" rms="3.3161342144012451e-01" purity="5.0000000000000000e-01" nType="0">
        <Node pos="l" depth="1" NCoef="0" IVar="7" Cut="3.6332166194915771e+00" cType="1" res="8.7877474725246429e-02" rms="3.0809679627418518e-01" purity="7.6060551404953003e-01" nType="0">
          <Node pos="l" depth="2" NCoef="0" IVar="3" Cut="1.0106959380209446e-02" cType="1" res="1.0925161838531494e-01" rms="2.9743963479995728e-01" purity="8.3301806449890137e-01" nType="0">
            <Node pos="l" depth="3" NCoef="0" IVar="-1" Cut="0.0000000000000000e+00" cType="1" res="1.7390046268701553e-02" rms="2.6985126733779907e-01" purity="9.0031462907791138e-01" nType="-99"/>
            <Node pos="r" depth="3" NCoef="0" IVar="-1" Cut="0.0000000000000000e+00" cType="1" res="4.0509044192731380e-03" rms="3.6492174863815308e-01" purity="6.0174608230590820e-01" nType="-99"/>
          </Node>
          <Node pos="r" depth="2" NCoef="0" IVar="-1" Cut="0.0000000000000000e+00" cType="1" res="-1.4216899871826172e-02" rms="3.3725813031196594e-01" purity="1.8619072437286377e-01" nType="-99"/>
        </Node>
        <Node pos="r" depth="1" NCoef="0" IVar="4" Cut="9.0426681563258171e-03" cType="1" res="-3.7767488509416580e-02" rms="3.4093174338340759e-01" purity="2.6045829057693481e-01" nType="0">
          <Node pos="l" depth="2" NCoef="0" IVar="-1" Cut="0.0000000000000000e+00" cType="1" res="6.2465621158480644e-03" rms="3.9517724514007568e-01" purity="5.4295474290847778e-01" nType="-99"/>
          <Node pos="r" depth="2" NCoef="0" IVar="6" Cut="9.0987658500671387e-01" cType="1" res="-5.4936092346906662e-02" rms="3.2835590839385986e-01" purity="2.1635422110557556e-01" nType="0">
            <Node pos="l" depth="3" NCoef="0" IVar="-1" Cut="0.0000000000000000e+00" cType="1" res="-1.3552989810705185e-02" rms="3.0661532282829285e-01" purity="1.6825407743453979e-01" nType="-99"/>
            <Node pos="r" depth="3" NCoef="0" IVar="-1" Cut="0.0000000000000000e+00" cType="1" res="2.6393097359687090e-03" rms="4.3936231732368469e-01" purity="5.4142218828201294e-01" nType="-99"/>
          </Node>
        </Node>
      </Node>
    </BinaryTree>
    <BinaryTree type="DecisionTree" boostWeight="1.0000000000000000e+00" itree="34">
      <Node pos="s" depth="0" NCoef="0" IVar="2" Cut="9.9245011806488037e-03" cType="1" res="2.1937550976872444e-02" rms="3.3051505684852600e-01" purity="5.0000000000000000e-01" nType="0">
        <Node pos="l" depth="1" NCoef="0" IVar="9" Cut="4.4072570800781250e+00" cType="1" res="6.5297298133373260e-02" rms="3.5274901986122131e-01" purity="6.8319660425186157e-01" nType="0">
          <Node pos="l" depth="2" NCoef="0" IVar="1" Cut="9.2949342727661133e-01" cType="1" res="9.9404111504554749e-02" rms="3.2060131430625916e-01" purity="8.1768232583999634e-01" nType="0">
            <Node pos="l" depth="3" NCoef="0" IVar="-1" Cut="0.0000000000000000e+00" cType="1" res="5.6872600689530373e-03" rms="3.9115291833877563e-01" purity="6.8130540847778320e-01" nType="-99"/>
            <Node pos="r" depth="3" NCoef="0" IVar="-1" Cut="0.0000000000000000e+00" cType="1" res="1.7459610477089882e-02" rms="2.6205167174339294e-01" purity="9.0152019262313843e-01" nType="-99"/>
          </Node>
          <Node pos="r" depth="2" NCoef="0" IVar="0" Cut="3.8914951324462891e+01" cType="1" res="-3.3146072179079056e-02" rms="4.1696825623512268e-01" purity="2.9502716660499573e-01" nType="0">
            <Node pos="l" depth="3" NCoef="0" IVar="-1" Cut="0.0000000000000000e+00" cType="1" res="1.8232207512483001e-03" rms="4.4434189796447754e-01" purity="3.6842751502990723e-01" nType="-99"/>
            <Node pos="r" depth="3" NCoef="0" IVar="-1" Cut="0.0000000000000000e+00" cType="1" res="-1.4940741471946239e-02" rms="3.8629633188247681e-01" purity="2.3383572697639465e-01" nType="-99"/>
          </Node>
        </Node>
        <Node pos="r" depth="1" NCoef="0" IVar="6" Cut="8.5744023323059082e-01" cType="1" res="-6.5010942518711090e-02" rms="2.5970464944839478e-01" purity="1.3263921439647675e-01" nType="0">
          <Node pos="l" depth="2" NCoef="0" IVar="8" Cut="2.9826107025146484e+00" cType="1" res="-9.0556815266609192e-02" rms="1.7829713225364685e-01" purity="3.3633697777986526e-02" nType="0">
            <Node pos="l" depth="3" NCoef="0" IVar="-1" Cut="0.0000000000000000e+00" cType="1" res="-3.6502812057733536e-02" rms="1.9497315585613251e-01" purity="4.2051646858453751e-02" nType="-99"/>
            <Node pos="r" depth="3" NCoef="0" IVar="-1" Cut="0.0000000000000000e+00" cType="1" res="-2.8960630297660828e-02" rms="1.6621077060699463e-01" purity="2.9097845777869225e-02" nType="-99"/>
          </Node>
          <Node pos="r" depth="2" NCoef="0" IVar="-1" Cut="0.0000000000000000e+00" cType="1" res="-1.5144135104492307e-03" rms="3.7081879377365112e-01" purity="3.3880069851875305e-01" nType="-99"/>
        </Node>
      </Node>
    </BinaryTree>
    <BinaryTree type="DecisionTree" boostWeight="1.0000000000000000e+00" itree="35">
      <Node pos="s" depth="0" NCoef="0" IVar="7" Cut="1.6563071012496948e+00" cType="1" res="2.1790230646729469e-02" rms="3.2922852039337158e-01" purity="5.0000000000000000e-01" nType="0">
        <Node pos="l" depth="1" NCoef="0" IVar="9" Cut="5.2183461189270020e+00" cType="1" res="7.4705183506011963e-02" rms="3.1440806388854980e-01" purity="7.1963429450988770e-01" nType="0">
          <Node pos="l" depth="2" NCoef="0" IVar="1" Cut="9.1903811693191528e-01" cType="1" res="1.0013798624277115e-01" rms="3.0072256922721863e-01" purity="8.1589114665985107e-01" nType="0">
            <Node pos="l" depth="3" NCoef="0" IVar="-1" Cut="0.0000000000000000e+00" cType="1" res="5.7785725221037865e-03" rms="3.6846876144409180e-01" purity="6.5315830707550049e-01" nType="-99"/>
            <Node pos="r" depth="3" NCoef="0" IVar="-1" Cut="0.0000000000000000e+00" cType="1" res="1.7883311957120895e-02" rms="2.4861904978752136e-01" purity="9.0734136104583740e-01" nType="-99"/>
          </Node>
          <Node pos="r" depth="2" NCoef="0" IVar="-1" Cut="0.0000000000000000e+00" cType="1" res="-1.0135074146091938e-02" rms="3.4928521513938904e-01" purity="1.9432285428047180e-01" nType="-99"/>
        </Node>
        <Node pos="r" depth="1" NCoef="0" IVar="4" Cut="9.3426620587706566e-03" cType="1" res="-4.2250368744134903e-02" rms="3.3532989025115967e-01" purity="2.3418647050857544e-01" nType="0">
          <Node pos="l" depth="2" NCoef="0" IVar="-1" Cut="0.0000000000000000e+00" cType="1" res="4.9209576100111008e-03" rms="4.0114387869834900e-01" purity="4.8892086744308472e-01" nType="-99"/>
          <Node pos="r" depth="2" NCoef="0" IVar="8" Cut="1.4155880928039551e+01" cType="1" res="-5.8999393135309219e-02" rms="3.1951662898063660e-01" purity="1.8967673182487488e-01" nType="0">
            <Node pos="l" depth="3" NCoef="0" IVar="-1" Cut="0.0000000000000000e+00" cType="1" res="-1.4178906567394733e-02" rms="3.1100532412528992e-01" purity="1.9126087427139282e-01" nType="-99"/>
            <Node pos="r" depth="3" NCoef="0" IVar="-1" Cut="0.0000000000000000e+00" cType="1" res="5.2075927669648081e-05" rms="3.4879830479621887e-01" purity="1.8262763321399689e-01" nType="-99"/>
          </Node>
        </Node>
      </Node>
    </BinaryTree>
    <BinaryTree type="DecisionTree" boostWeight="1.0000000000000000e+00" itree="36">
      <Node pos="s" depth="0" NCoef="0" IVar="2" Cut="9.8275970667600632e-03" cType="1" res="2.1295296028256416e-02" rms="3.2820373773574829e-01" purity="5.0000000000000000e-01" nType="0">
        <Node pos="l" depth="1" NCoef="0" IVar="9" Cut="4.6776204109191895e+00" cType="1" res="6.3640378415584564e-02" rms="3.5050418972969055e-01" purity="6.8750053644180298e-01" nType="0">
          <Node pos="l" depth="2" NCoef="0" IVar="7" Cut="2.8486382961273193e+00" cType="1" res="9.3315429985523224e-02" rms="3.2113912701606750e-01" purity="8.1324034929275513e-01" nType="0">
