<?xml version="1.0"?>
<MethodSetup Method="BDT::BDT">
  <GeneralInfo>
    <Info name="TMVA Release" value="4.1.4 [262404]"/>
    <Info name="ROOT Release" value="5.34/10 [336394]"/>
    <Info name="Creator" value="mmachet"/>
    <Info name="Date" value="Sun Feb 22 22:04:50 2015"/>
    <Info name="Host" value="Linux cmsdev04.cern.ch 2.6.32-431.11.2.el6.x86_64 #1 SMP Wed Mar 26 09:39:43 CET 2014 x86_64 x86_64 x86_64 GNU/Linux"/>
    <Info name="Dir" value="/afs/cern.ch/work/m/mmachet/Work/PhD/Flashgg/photonId/CMSSW_7_0_6/src/flashgg/Macro/MVATraining/TMVA-v4.2.0/test"/>
    <Info name="Training events" value="54330"/>
    <Info name="TrainingTime" value="6.72446671e+01"/>
    <Info name="AnalysisType" value="Classification"/>
  </GeneralInfo>
  <Options>
    <Option name="V" modified="Yes">False</Option>
    <Option name="VerbosityLevel" modified="No">Default</Option>
    <Option name="VarTransform" modified="No">None</Option>
    <Option name="H" modified="Yes">False</Option>
    <Option name="CreateMVAPdfs" modified="No">False</Option>
    <Option name="IgnoreNegWeightsInTraining" modified="No">False</Option>
    <Option name="NTrees" modified="Yes">700</Option>
    <Option name="RenormByClass" modified="No">False</Option>
    <Option name="BoostType" modified="Yes">Grad</Option>
    <Option name="AdaBoostR2Loss" modified="No">quadratic</Option>
    <Option name="UseBaggedGrad" modified="Yes">False</Option>
    <Option name="GradBaggingFraction" modified="No">6.000000e-01</Option>
    <Option name="Shrinkage" modified="Yes">1.000000e-01</Option>
    <Option name="AdaBoostBeta" modified="No">1.000000e+00</Option>
    <Option name="UseRandomisedTrees" modified="No">False</Option>
    <Option name="UseNvars" modified="No">4</Option>
    <Option name="UsePoissonNvars" modified="No">True</Option>
    <Option name="UseNTrainEvents" modified="No">54330</Option>
    <Option name="UseWeightedTrees" modified="No">True</Option>
    <Option name="UseYesNoLeaf" modified="Yes">False</Option>
    <Option name="NodePurityLimit" modified="No">5.000000e-01</Option>
    <Option name="SeparationType" modified="No">giniindex</Option>
    <Option name="nEventsMin" modified="Yes">1000</Option>
    <Option name="nCuts" modified="Yes">2000</Option>
    <Option name="UseFisherCuts" modified="No">False</Option>
    <Option name="MinLinCorrForFisher" modified="No">8.000000e-01</Option>
    <Option name="UseExclusiveVars" modified="No">False</Option>
    <Option name="PruneStrength" modified="No">0.000000e+00</Option>
    <Option name="PruneMethod" modified="No">nopruning</Option>
    <Option name="PruneBeforeBoost" modified="No">False</Option>
    <Option name="PruningValFraction" modified="No">5.000000e-01</Option>
    <Option name="NNodesMax" modified="Yes">100000</Option>
    <Option name="MaxDepth" modified="Yes">3</Option>
    <Option name="DoBoostMonitor" modified="No">False</Option>
    <Option name="NegWeightTreatment" modified="No">ignorenegweights</Option>
  </Options>
  <Variables NVar="13">
    <Variable VarIndex="0" Expression="SCRawE" Label="SCRawE" Title="SCRawE" Unit="" Internal="SCRawE" Type="F" Min="5.91295395e+01" Max="2.47584766e+03"/>
    <Variable VarIndex="1" Expression="r9" Label="r9" Title="r9" Unit="" Internal="r9" Type="F" Min="2.00547040e-01" Max="1.00000012e+00"/>
    <Variable VarIndex="2" Expression="sigmaIetaIeta" Label="sigmaIetaIeta" Title="sigmaIetaIeta" Unit="" Internal="sigmaIetaIeta" Type="F" Min="1.69806590e-03" Max="3.39991488e-02"/>
    <Variable VarIndex="3" Expression="etaWidth" Label="etaWidth" Title="etaWidth" Unit="" Internal="etaWidth" Type="F" Min="5.08131646e-03" Max="2.04932243e-01"/>
    <Variable VarIndex="4" Expression="phiWidth" Label="phiWidth" Title="phiWidth" Unit="" Internal="phiWidth" Type="F" Min="5.34157874e-03" Max="4.56007183e-01"/>
    <Variable VarIndex="5" Expression="covIEtaIPhi" Label="covIEtaIPhi" Title="covIEtaIPhi" Unit="" Internal="covIEtaIPhi" Type="F" Min="-1.51568942e-03" Max="1.31839886e-03"/>
    <Variable VarIndex="6" Expression="S4" Label="S4" Title="S4" Unit="" Internal="S4" Type="F" Min="2.73022592e-01" Max="9.80028093e-01"/>
    <Variable VarIndex="7" Expression="phoIso03" Label="phoIso03" Title="phoIso03" Unit="" Internal="phoIso03" Type="F" Min="0.00000000e+00" Max="8.88017578e+01"/>
    <Variable VarIndex="8" Expression="chgIsoWrtChosenVtx" Label="chgIsoWrtChosenVtx" Title="chgIsoWrtChosenVtx" Unit="" Internal="chgIsoWrtChosenVtx" Type="F" Min="0.00000000e+00" Max="3.99951172e+00"/>
    <Variable VarIndex="9" Expression="chgIsoWrtWorstVtx" Label="chgIsoWrtWorstVtx" Title="chgIsoWrtWorstVtx" Unit="" Internal="chgIsoWrtWorstVtx" Type="F" Min="0.00000000e+00" Max="3.63925781e+01"/>
    <Variable VarIndex="10" Expression="scEta" Label="scEta" Title="scEta" Unit="" Internal="scEta" Type="F" Min="-2.49995661e+00" Max="2.49994135e+00"/>
    <Variable VarIndex="11" Expression="rho" Label="rho" Title="rho" Unit="" Internal="rho" Type="F" Min="7.59052336e-01" Max="2.85809841e+01"/>
    <Variable VarIndex="12" Expression="ESEffSigmaRR" Label="ESEffSigmaRR" Title="ESEffSigmaRR" Unit="" Internal="ESEffSigmaRR" Type="F" Min="0.00000000e+00" Max="1.39456758e+01"/>
  </Variables>
  <Spectators NSpec="0"/>
  <Classes NClass="2">
    <Class Name="Signal" Index="0"/>
    <Class Name="Background" Index="1"/>
  </Classes>
  <Transformations NTransformations="0"/>
  <MVAPdfs/>
  <Weights NTrees="700" AnalysisType="1">
    <BinaryTree type="DecisionTree" boostWeight="1.0000000000000000e+00" itree="0">
      <Node pos="s" depth="0" NCoef="0" IVar="6" Cut="8.8674998283386230e-01" cType="0" res="-1.6399400774389505e-03" rms="4.9999731779098511e-01" purity="4.9836006760597229e-01" nType="0">
        <Node pos="l" depth="1" NCoef="0" IVar="9" Cut="2.0028972625732422e+00" cType="1" res="2.9227539896965027e-01" rms="4.0567857027053833e-01" purity="7.9227542877197266e-01" nType="0">
          <Node pos="l" depth="2" NCoef="0" IVar="1" Cut="9.4784265756607056e-01" cType="0" res="3.6254459619522095e-01" rms="3.4432747960090637e-01" purity="8.6254459619522095e-01" nType="0">
            <Node pos="l" depth="3" NCoef="0" IVar="-1" Cut="0.0000000000000000e+00" cType="1" res="3.1024524942040443e-02" rms="2.9958486557006836e-01" purity="9.0031105279922485e-01" nType="-99"/>
            <Node pos="r" depth="3" NCoef="0" IVar="-1" Cut="0.0000000000000000e+00" cType="1" res="8.9671686291694641e-03" rms="4.7169840335845947e-01" purity="6.6583311557769775e-01" nType="-99"/>
          </Node>
          <Node pos="r" depth="2" NCoef="0" IVar="1" Cut="9.5963716506958008e-01" cType="0" res="5.6042853742837906e-02" rms="4.9684926867485046e-01" purity="5.5604285001754761e-01" nType="0">
            <Node pos="l" depth="3" NCoef="0" IVar="-1" Cut="0.0000000000000000e+00" cType="1" res="1.3454354368150234e-02" rms="4.5130369067192078e-01" purity="7.1523231267929077e-01" nType="-99"/>
            <Node pos="r" depth="3" NCoef="0" IVar="-1" Cut="0.0000000000000000e+00" cType="1" res="-6.4829858019948006e-03" rms="4.7717615962028503e-01" purity="3.5065838694572449e-01" nType="-99"/>
          </Node>
        </Node>
        <Node pos="r" depth="1" NCoef="0" IVar="2" Cut="2.5950450450181961e-02" cType="1" res="-2.1851101517677307e-01" rms="4.4972538948059082e-01" purity="2.8148898482322693e-01" nType="0">
          <Node pos="l" depth="2" NCoef="0" IVar="7" Cut="1.4211956262588501e+00" cType="1" res="-5.5079042911529541e-02" rms="4.9695703387260437e-01" purity="4.4492095708847046e-01" nType="0">
            <Node pos="l" depth="3" NCoef="0" IVar="-1" Cut="0.0000000000000000e+00" cType="1" res="3.2432361040264368e-03" rms="4.9616256356239319e-01" purity="5.6182801723480225e-01" nType="-99"/>
            <Node pos="r" depth="3" NCoef="0" IVar="-1" Cut="0.0000000000000000e+00" cType="1" res="-1.0927675291895866e-02" rms="4.1291454434394836e-01" purity="2.1803973615169525e-01" nType="-99"/>
          </Node>
          <Node pos="r" depth="2" NCoef="0" IVar="3" Cut="1.7021283507347107e-02" cType="1" res="-3.9041858911514282e-01" rms="3.1236729025840759e-01" purity="1.0958141088485718e-01" nType="0">
            <Node pos="l" depth="3" NCoef="0" IVar="-1" Cut="0.0000000000000000e+00" cType="1" res="-9.1230832040309906e-03" rms="4.4584921002388000e-01" purity="2.7368497848510742e-01" nType="-99"/>
            <Node pos="r" depth="3" NCoef="0" IVar="-1" Cut="0.0000000000000000e+00" cType="1" res="-1.5427769161760807e-02" rms="2.3693229258060455e-01" purity="5.9701137244701385e-02" nType="-99"/>
          </Node>
        </Node>
      </Node>
    </BinaryTree>
    <BinaryTree type="DecisionTree" boostWeight="1.0000000000000000e+00" itree="1">
      <Node pos="s" depth="0" NCoef="0" IVar="6" Cut="8.8569003343582153e-01" cType="0" res="-4.1752210818231106e-03" rms="4.9440833926200867e-01" purity="4.9836006760597229e-01" nType="0">
        <Node pos="l" depth="1" NCoef="0" IVar="9" Cut="2.0028972625732422e+00" cType="1" res="2.7759492397308350e-01" rms="4.0562158823013306e-01" purity="7.8852164745330811e-01" nType="0">
          <Node pos="l" depth="2" NCoef="0" IVar="1" Cut="9.4784265756607056e-01" cType="0" res="3.4668108820915222e-01" rms="3.4566462039947510e-01" purity="8.6022633314132690e-01" nType="0">
            <Node pos="l" depth="3" NCoef="0" IVar="-1" Cut="0.0000000000000000e+00" cType="1" res="2.9763009399175644e-02" rms="3.0061730742454529e-01" purity="8.9949774742126465e-01" nType="-99"/>
            <Node pos="r" depth="3" NCoef="0" IVar="-1" Cut="0.0000000000000000e+00" cType="1" res="8.4968972951173782e-03" rms="4.7283345460891724e-01" purity="6.6233408451080322e-01" nType="-99"/>
          </Node>
          <Node pos="r" depth="2" NCoef="0" IVar="1" Cut="9.5963716506958008e-01" cType="0" res="4.8070270568132401e-02" rms="4.9562343955039978e-01" purity="5.5029749870300293e-01" nType="0">
            <Node pos="l" depth="3" NCoef="0" IVar="-1" Cut="0.0000000000000000e+00" cType="1" res="1.2970200739800930e-02" rms="4.5170304179191589e-01" purity="7.1433496475219727e-01" nType="-99"/>
            <Node pos="r" depth="3" NCoef="0" IVar="-1" Cut="0.0000000000000000e+00" cType="1" res="-6.4731459133327007e-03" rms="4.7600239515304565e-01" purity="3.4720754623413086e-01" nType="-99"/>
          </Node>
        </Node>
        <Node pos="r" depth="1" NCoef="0" IVar="2" Cut="2.6149054989218712e-02" cType="1" res="-2.1738247573375702e-01" rms="4.4651195406913757e-01" purity="2.7880322933197021e-01" nType="0">
          <Node pos="l" depth="2" NCoef="0" IVar="7" Cut="1.4211956262588501e+00" cType="1" res="-6.3171535730361938e-02" rms="4.9472200870513916e-01" purity="4.3580389022827148e-01" nType="0">
            <Node pos="l" depth="3" NCoef="0" IVar="-1" Cut="0.0000000000000000e+00" cType="1" res="2.6377320755273104e-03" rms="4.9715256690979004e-01" purity="5.5206662416458130e-01" nType="-99"/>
            <Node pos="r" depth="3" NCoef="0" IVar="-1" Cut="0.0000000000000000e+00" cType="1" res="-1.0885901749134064e-02" rms="4.0875852108001709e-01" purity="2.1207535266876221e-01" nType="-99"/>
          </Node>
          <Node pos="r" depth="2" NCoef="0" IVar="3" Cut="1.7021283507347107e-02" cType="1" res="-3.9384731650352478e-01" rms="2.9848802089691162e-01" purity="9.9146135151386261e-02" nType="0">
            <Node pos="l" depth="3" NCoef="0" IVar="-1" Cut="0.0000000000000000e+00" cType="1" res="-9.4954408705234528e-03" rms="4.3686315417289734e-01" purity="2.5679111480712891e-01" nType="-99"/>
            <Node pos="r" depth="3" NCoef="0" IVar="-1" Cut="0.0000000000000000e+00" cType="1" res="-1.5330563299357891e-02" rms="2.2519044578075409e-01" purity="5.3581740707159042e-02" nType="-99"/>
          </Node>
        </Node>
      </Node>
    </BinaryTree>
    <BinaryTree type="DecisionTree" boostWeight="1.0000000000000000e+00" itree="2">
      <Node pos="s" depth="0" NCoef="0" IVar="6" Cut="8.8674998283386230e-01" cType="0" res="-6.5616895444691181e-03" rms="4.8909482359886169e-01" purity="4.9836006760597229e-01" nType="0">
        <Node pos="l" depth="1" NCoef="0" IVar="9" Cut="2.5110950469970703e+00" cType="1" res="2.7050554752349854e-01" rms="4.0057000517845154e-01" purity="7.9227542877197266e-01" nType="0">
          <Node pos="l" depth="2" NCoef="0" IVar="1" Cut="9.4519507884979248e-01" cType="0" res="3.2166144251823425e-01" rms="3.5750147700309753e-01" purity="8.4656852483749390e-01" nType="0">
            <Node pos="l" depth="3" NCoef="0" IVar="-1" Cut="0.0000000000000000e+00" cType="1" res="2.7434922754764557e-02" rms="3.1477874517440796e-01" purity="8.8776904344558716e-01" nType="-99"/>
            <Node pos="r" depth="3" NCoef="0" IVar="-1" Cut="0.0000000000000000e+00" cType="1" res="5.0998143851757050e-03" rms="4.8745402693748474e-01" purity="6.0623979568481445e-01" nType="-99"/>
          </Node>
          <Node pos="r" depth="2" NCoef="0" IVar="1" Cut="9.5973509550094604e-01" cType="0" res="-1.4883505180478096e-02" rms="4.9654081463813782e-01" purity="4.8938456177711487e-01" nType="0">
            <Node pos="l" depth="3" NCoef="0" IVar="-1" Cut="0.0000000000000000e+00" cType="1" res="7.9772341996431351e-03" rms="4.7699084877967834e-01" purity="6.4993250370025635e-01" nType="-99"/>
            <Node pos="r" depth="3" NCoef="0" IVar="-1" Cut="0.0000000000000000e+00" cType="1" res="-8.2629304379224777e-03" rms="4.5719745755195618e-01" purity="2.9759010672569275e-01" nType="-99"/>
          </Node>
        </Node>
        <Node pos="r" depth="1" NCoef="0" IVar="2" Cut="2.5950450450181961e-02" cType="1" res="-2.1100106835365295e-01" rms="4.4596803188323975e-01" purity="2.8148898482322693e-01" nType="0">
          <Node pos="l" depth="2" NCoef="0" IVar="9" Cut="1.7277835607528687e+00" cType="1" res="-5.3399302065372467e-02" rms="4.9481222033500671e-01" purity="4.4492095708847046e-01" nType="0">
            <Node pos="l" depth="3" NCoef="0" IVar="-1" Cut="0.0000000000000000e+00" cType="1" res="4.6139252372086048e-03" rms="4.9045488238334656e-01" purity="5.8620029687881470e-01" nType="-99"/>
            <Node pos="r" depth="3" NCoef="0" IVar="-1" Cut="0.0000000000000000e+00" cType="1" res="-9.4847995787858963e-03" rms="4.3931803107261658e-01" purity="2.6451617479324341e-01" nType="-99"/>
          </Node>
          <Node pos="r" depth="2" NCoef="0" IVar="3" Cut="1.7021283507347107e-02" cType="1" res="-3.7677606940269470e-01" rms="3.1135994195938110e-01" purity="1.0958141088485718e-01" nType="0">
            <Node pos="l" depth="3" NCoef="0" IVar="-1" Cut="0.0000000000000000e+00" cType="1" res="-8.7696518748998642e-03" rms="4.4551843404769897e-01" purity="2.7368497848510742e-01" nType="-99"/>
            <Node pos="r" depth="3" NCoef="0" IVar="-1" Cut="0.0000000000000000e+00" cType="1" res="-1.4912381768226624e-02" rms="2.3669144511222839e-01" purity="5.9701137244701385e-02" nType="-99"/>
          </Node>
        </Node>
      </Node>
    </BinaryTree>
    <BinaryTree type="DecisionTree" boostWeight="1.0000000000000000e+00" itree="3">
      <Node pos="s" depth="0" NCoef="0" IVar="6" Cut="8.7721019983291626e-01" cType="0" res="-8.7886573746800423e-03" rms="4.8403170704841614e-01" purity="4.9836006760597229e-01" nType="0">
        <Node pos="l" depth="1" NCoef="0" IVar="9" Cut="2.5409889221191406e+00" cType="1" res="2.3651599884033203e-01" rms="4.1511619091033936e-01" purity="7.6476281881332397e-01" nType="0">
          <Node pos="l" depth="2" NCoef="0" IVar="1" Cut="9.4519507884979248e-01" cType="0" res="2.9241025447845459e-01" rms="3.7365475296974182e-01" purity="8.2564979791641235e-01" nType="0">
            <Node pos="l" depth="3" NCoef="0" IVar="-1" Cut="0.0000000000000000e+00" cType="1" res="2.5659209117293358e-02" rms="3.2458144426345825e-01" purity="8.7846797704696655e-01" nType="-99"/>
            <Node pos="r" depth="3" NCoef="0" IVar="-1" Cut="0.0000000000000000e+00" cType="1" res="3.8676569238305092e-03" rms="4.9081018567085266e-01" purity="5.8211946487426758e-01" nType="-99"/>
          </Node>
          <Node pos="r" depth="2" NCoef="0" IVar="1" Cut="9.5973509550094604e-01" cType="0" res="-5.8359846472740173e-02" rms="4.9134403467178345e-01" purity="4.4354760646820068e-01" nType="0">
            <Node pos="l" depth="3" NCoef="0" IVar="-1" Cut="0.0000000000000000e+00" cType="1" res="6.3296183943748474e-03" rms="4.8254290223121643e-01" purity="6.2644326686859131e-01" nType="-99"/>
            <Node pos="r" depth="3" NCoef="0" IVar="-1" Cut="0.0000000000000000e+00" cType="1" res="-9.1659976169466972e-03" rms="4.4187605381011963e-01" purity="2.6711568236351013e-01" nType="-99"/>
          </Node>
        </Node>
        <Node pos="r" depth="1" NCoef="0" IVar="2" Cut="2.5532336905598640e-02" cType="1" res="-2.2679488360881805e-01" rms="4.3399485945701599e-01" purity="2.6160362362861633e-01" nType="0">
          <Node pos="l" depth="2" NCoef="0" IVar="7" Cut="1.4211956262588501e+00" cType="1" res="-5.4069384932518005e-02" rms="4.9354565143585205e-01" purity="4.4342499971389771e-01" nType="0">
            <Node pos="l" depth="3" NCoef="0" IVar="-1" Cut="0.0000000000000000e+00" cType="1" res="3.0086839105933905e-03" rms="4.9526274204254150e-01" purity="5.6011241674423218e-01" nType="-99"/>
            <Node pos="r" depth="3" NCoef="0" IVar="-1" Cut="0.0000000000000000e+00" cType="1" res="-1.0656741447746754e-02" rms="4.0711882710456848e-01" purity="2.1088072657585144e-01" nType="-99"/>
          </Node>
          <Node pos="r" depth="2" NCoef="0" IVar="3" Cut="1.7766090109944344e-02" cType="1" res="-3.6768493056297302e-01" rms="3.1481912732124329e-01" purity="1.1329414695501328e-01" nType="0">
            <Node pos="l" depth="3" NCoef="0" IVar="-1" Cut="0.0000000000000000e+00" cType="1" res="-8.7845195084810257e-03" rms="4.4234669208526611e-01" purity="2.6989206671714783e-01" nType="-99"/>
            <Node pos="r" depth="3" NCoef="0" IVar="-1" Cut="0.0000000000000000e+00" cType="1" res="-1.4856128022074699e-02" rms="2.2583784162998199e-01" purity="5.4263304919004440e-02" nType="-99"/>
          </Node>
        </Node>
      </Node>
    </BinaryTree>
    <BinaryTree type="DecisionTree" boostWeight="1.0000000000000000e+00" itree="4">
      <Node pos="s" depth="0" NCoef="0" IVar="6" Cut="8.8569003343582153e-01" cType="0" res="-1.0895321145653725e-02" rms="4.7921034693717957e-01" purity="4.9836006760597229e-01" nType="0">
        <Node pos="l" depth="1" NCoef="0" IVar="8" Cut="1.3231767416000366e+00" cType="1" res="2.4762599170207977e-01" rms="3.9864039421081543e-01" purity="7.8852164745330811e-01" nType="0">
          <Node pos="l" depth="2" NCoef="0" IVar="7" Cut="3.6267294883728027e+00" cType="1" res="2.9159238934516907e-01" rms="3.6346080899238586e-01" purity="8.3529019355773926e-01" nType="0">
            <Node pos="l" depth="3" NCoef="0" IVar="-1" Cut="0.0000000000000000e+00" cType="1" res="2.2965963929891586e-02" rms="3.4141358733177185e-01" purity="8.5854208469390869e-01" nType="-99"/>
            <Node pos="r" depth="3" NCoef="0" IVar="-1" Cut="0.0000000000000000e+00" cType="1" res="-2.6062214747071266e-03" rms="4.9182951450347900e-01" purity="4.7992658615112305e-01" nType="-99"/>
          </Node>
          <Node pos="r" depth="2" NCoef="0" IVar="1" Cut="9.6108049154281616e-01" cType="0" res="-7.0977956056594849e-02" rms="4.8752456903457642e-01" purity="4.4961211085319519e-01" nType="0">
            <Node pos="l" depth="3" NCoef="0" IVar="-1" Cut="0.0000000000000000e+00" cType="1" res="4.2326948605477810e-03" rms="4.8324677348136902e-01" purity="6.1366719007492065e-01" nType="-99"/>
            <Node pos="r" depth="3" NCoef="0" IVar="-1" Cut="0.0000000000000000e+00" cType="1" res="-8.7713981047272682e-03" rms="4.4866421818733215e-01" purity="2.9275554418563843e-01" nType="-99"/>
          </Node>
        </Node>
        <Node pos="r" depth="1" NCoef="0" IVar="2" Cut="2.6149054989218712e-02" cType="1" res="-2.0651085674762726e-01" rms="4.4082248210906982e-01" purity="2.7880322933197021e-01" nType="0">
          <Node pos="l" depth="2" NCoef="0" IVar="9" Cut="1.7459707260131836e+00" cType="1" res="-6.0226775705814362e-02" rms="4.9108785390853882e-01" purity="4.3580389022827148e-01" nType="0">
            <Node pos="l" depth="3" NCoef="0" IVar="-1" Cut="0.0000000000000000e+00" cType="1" res="3.9327074773609638e-03" rms="4.9061822891235352e-01" purity="5.7534110546112061e-01" nType="-99"/>
            <Node pos="r" depth="3" NCoef="0" IVar="-1" Cut="0.0000000000000000e+00" cType="1" res="-9.4675263389945030e-03" rms="4.3379166722297668e-01" purity="2.5654247403144836e-01" nType="-99"/>
          </Node>
          <Node pos="r" depth="2" NCoef="0" IVar="3" Cut="1.7021283507347107e-02" cType="1" res="-3.7390491366386414e-01" rms="2.9700836539268494e-01" purity="9.9146135151386261e-02" nType="0">
            <Node pos="l" depth="3" NCoef="0" IVar="-1" Cut="0.0000000000000000e+00" cType="1" res="-8.9924130588769913e-03" rms="4.3628832697868347e-01" purity="2.5679111480712891e-01" nType="-99"/>
            <Node pos="r" depth="3" NCoef="0" IVar="-1" Cut="0.0000000000000000e+00" cType="1" res="-1.4611250720918179e-02" rms="2.2475482523441315e-01" purity="5.3581740707159042e-02" nType="-99"/>
          </Node>
        </Node>
      </Node>
    </BinaryTree>
    <BinaryTree type="DecisionTree" boostWeight="1.0000000000000000e+00" itree="5">
      <Node pos="s" depth="0" NCoef="0" IVar="6" Cut="8.7721019983291626e-01" cType="0" res="-1.2775373645126820e-02" rms="4.7471791505813599e-01" purity="4.9836006760597229e-01" nType="0">
        <Node pos="l" depth="1" NCoef="0" IVar="9" Cut="2.4812009334564209e+00" cType="1" res="2.1938522160053253e-01" rms="4.1049188375473022e-01" purity="7.6476281881332397e-01" nType="0">
          <Node pos="l" depth="2" NCoef="0" IVar="1" Cut="9.4519507884979248e-01" cType="0" res="2.7424910664558411e-01" rms="3.6942806839942932e-01" purity="8.2748258113861084e-01" nType="0">
            <Node pos="l" depth="3" NCoef="0" IVar="-1" Cut="0.0000000000000000e+00" cType="1" res="2.4379910901188850e-02" rms="3.2163855433464050e-01" purity="8.8008689880371094e-01" nType="-99"/>
            <Node pos="r" depth="3" NCoef="0" IVar="-1" Cut="0.0000000000000000e+00" cType="1" res="3.5211357753723860e-03" rms="4.8854190111160278e-01" purity="5.8339029550552368e-01" nType="-99"/>
          </Node>
          <Node pos="r" depth="2" NCoef="0" IVar="1" Cut="9.5973509550094604e-01" cType="0" res="-5.3894981741905212e-02" rms="4.8821517825126648e-01" purity="4.5235183835029602e-01" nType="0">
            <Node pos="l" depth="3" NCoef="0" IVar="-1" Cut="0.0000000000000000e+00" cType="1" res="6.1254417523741722e-03" rms="4.7861710190773010e-01" purity="6.3329410552978516e-01" nType="-99"/>
            <Node pos="r" depth="3" NCoef="0" IVar="-1" Cut="0.0000000000000000e+00" cType="1" res="-8.6994236335158348e-03" rms="4.4471341371536255e-01" purity="2.7690955996513367e-01" nType="-99"/>
          </Node>
        </Node>
        <Node pos="r" depth="1" NCoef="0" IVar="2" Cut="2.5532336905598640e-02" cType="1" res="-2.1910026669502258e-01" rms="4.3059641122817993e-01" purity="2.6160362362861633e-01" nType="0">
          <Node pos="l" depth="2" NCoef="0" IVar="7" Cut="1.4211956262588501e+00" cType="1" res="-5.2313927561044693e-02" rms="4.9148219823837280e-01" purity="4.4342499971389771e-01" nType="0">
            <Node pos="l" depth="3" NCoef="0" IVar="-1" Cut="0.0000000000000000e+00" cType="1" res="2.9649119824171066e-03" rms="4.9422520399093628e-01" purity="5.6011241674423218e-01" nType="-99"/>
            <Node pos="r" depth="3" NCoef="0" IVar="-1" Cut="0.0000000000000000e+00" cType="1" res="-1.0400391183793545e-02" rms="4.0637022256851196e-01" purity="2.1088072657585144e-01" nType="-99"/>
          </Node>
          <Node pos="r" depth="2" NCoef="0" IVar="3" Cut="1.7766090109944344e-02" cType="1" res="-3.5514581203460693e-01" rms="3.1372028589248657e-01" purity="1.1329414695501328e-01" nType="0">
            <Node pos="l" depth="3" NCoef="0" IVar="-1" Cut="0.0000000000000000e+00" cType="1" res="-8.4535256028175354e-03" rms="4.4176426529884338e-01" purity="2.6989206671714783e-01" nType="-99"/>
            <Node pos="r" depth="3" NCoef="0" IVar="-1" Cut="0.0000000000000000e+00" cType="1" res="-1.4411148615181446e-02" rms="2.2554840147495270e-01" purity="5.4263304919004440e-02" nType="-99"/>
          </Node>
        </Node>
      </Node>
    </BinaryTree>
    <BinaryTree type="DecisionTree" boostWeight="1.0000000000000000e+00" itree="6">
      <Node pos="s" depth="0" NCoef="0" IVar="6" Cut="8.7721019983291626e-01" cType="0" res="-1.4665728434920311e-02" rms="4.7028395533561707e-01" purity="4.9836006760597229e-01" nType="0">
        <Node pos="l" depth="1" NCoef="0" IVar="8" Cut="1.3391668796539307e+00" cType="1" res="2.1105237305164337e-01" rms="4.0833351016044617e-01" purity="7.6476281881332397e-01" nType="0">
          <Node pos="l" depth="2" NCoef="0" IVar="1" Cut="9.4891518354415894e-01" cType="0" res="2.5664111971855164e-01" rms="3.7591946125030518e-01" purity="8.1546324491500854e-01" nType="0">
            <Node pos="l" depth="3" NCoef="0" IVar="-1" Cut="0.0000000000000000e+00" cType="1" res="2.3487495258450508e-02" rms="3.2466942071914673e-01" purity="8.7493973970413208e-01" nType="-99"/>
            <Node pos="r" depth="3" NCoef="0" IVar="-1" Cut="0.0000000000000000e+00" cType="1" res="4.1034184396266937e-03" rms="4.8234981298446655e-01" purity="5.9789854288101196e-01" nType="-99"/>
          </Node>
          <Node pos="r" depth="2" NCoef="0" IVar="1" Cut="9.5816814899444580e-01" cType="0" res="-1.0448759794235229e-01" rms="4.7826185822486877e-01" purity="4.1384294629096985e-01" nType="0">
            <Node pos="l" depth="3" NCoef="0" IVar="-1" Cut="0.0000000000000000e+00" cType="1" res="2.4516147095710039e-03" rms="4.8568168282508850e-01" purity="5.8859407901763916e-01" nType="-99"/>
            <Node pos="r" depth="3" NCoef="0" IVar="-1" Cut="0.0000000000000000e+00" cType="1" res="-1.0040923021733761e-02" rms="4.2239683866500854e-01" purity="2.4287217855453491e-01" nType="-99"/>
          </Node>
        </Node>
        <Node pos="r" depth="1" NCoef="0" IVar="2" Cut="2.6149054989218712e-02" cType="1" res="-2.1526506543159485e-01" rms="4.2897722125053406e-01" purity="2.6160362362861633e-01" nType="0">
          <Node pos="l" depth="2" NCoef="0" IVar="7" Cut="1.4211956262588501e+00" cType="1" res="-7.3132038116455078e-02" rms="4.8691385984420776e-01" purity="4.1980218887329102e-01" nType="0">
            <Node pos="l" depth="3" NCoef="0" IVar="-1" Cut="0.0000000000000000e+00" cType="1" res="1.7727881204336882e-03" rms="4.9567151069641113e-01" purity="5.3718531131744385e-01" nType="-99"/>
            <Node pos="r" depth="3" NCoef="0" IVar="-1" Cut="0.0000000000000000e+00" cType="1" res="-1.0656523518264294e-02" rms="3.9520335197448730e-01" purity="1.9588932394981384e-01" nType="-99"/>
          </Node>
          <Node pos="r" depth="2" NCoef="0" IVar="3" Cut="1.7086047679185867e-02" cType="1" res="-3.6928126215934753e-01" rms="2.8444612026214600e-01" purity="9.0178675949573517e-02" nType="0">
            <Node pos="l" depth="3" NCoef="0" IVar="-1" Cut="0.0000000000000000e+00" cType="1" res="-9.2349853366613388e-03" rms="4.2576974630355835e-01" purity="2.3793292045593262e-01" nType="-99"/>
            <Node pos="r" depth="3" NCoef="0" IVar="-1" Cut="0.0000000000000000e+00" cType="1" res="-1.4325647614896297e-02" rms="2.1197408437728882e-01" purity="4.7187089920043945e-02" nType="-99"/>
          </Node>
        </Node>
      </Node>
    </BinaryTree>
    <BinaryTree type="DecisionTree" boostWeight="1.0000000000000000e+00" itree="7">
      <Node pos="s" depth="0" NCoef="0" IVar="6" Cut="8.8674998283386230e-01" cType="0" res="-1.6425881534814835e-02" rms="4.6610659360885620e-01" purity="4.9836006760597229e-01" nType="0">
        <Node pos="l" depth="1" NCoef="0" IVar="8" Cut="1.3231767416000366e+00" cType="1" res="2.2448238730430603e-01" rms="3.9069274067878723e-01" purity="7.9227542877197266e-01" nType="0">
          <Node pos="l" depth="2" NCoef="0" IVar="12" Cut="4.0073781013488770e+00" cType="1" res="2.6447153091430664e-01" rms="3.5799139738082886e-01" purity="8.3834135532379150e-01" nType="0">
            <Node pos="l" depth="3" NCoef="0" IVar="-1" Cut="0.0000000000000000e+00" cType="1" res="2.4570381268858910e-02" rms="3.0254262685775757e-01" purity="8.9248025417327881e-01" nType="-99"/>
            <Node pos="r" depth="3" NCoef="0" IVar="-1" Cut="0.0000000000000000e+00" cType="1" res="7.6377466320991516e-03" rms="4.5064073801040649e-01" purity="6.9012588262557983e-01" nType="-99"/>
          </Node>
          <Node pos="r" depth="2" NCoef="0" IVar="12" Cut="2.9869391918182373e+00" cType="1" res="-6.8193964660167694e-02" rms="4.8421683907508850e-01" purity="4.5512333512306213e-01" nType="0">
            <Node pos="l" depth="3" NCoef="0" IVar="-1" Cut="0.0000000000000000e+00" cType="1" res="5.8148438110947609e-03" rms="4.6635189652442932e-01" purity="6.3456791639328003e-01" nType="-99"/>
            <Node pos="r" depth="3" NCoef="0" IVar="-1" Cut="0.0000000000000000e+00" cType="1" res="-7.8194877132773399e-03" rms="4.6218341588973999e-01" purity="3.3523643016815186e-01" nType="-99"/>
          </Node>
        </Node>
        <Node pos="r" depth="1" NCoef="0" IVar="2" Cut="2.5950450450181961e-02" cType="1" res="-1.9418467581272125e-01" rms="4.3647530674934387e-01" purity="2.8148898482322693e-01" nType="0">
          <Node pos="l" depth="2" NCoef="0" IVar="8" Cut="9.9737948179244995e-01" cType="1" res="-4.9773108214139938e-02" rms="4.8864796757698059e-01" purity="4.4492095708847046e-01" nType="0">
            <Node pos="l" depth="3" NCoef="0" IVar="-1" Cut="0.0000000000000000e+00" cType="1" res="2.2130168508738279e-03" rms="4.9075651168823242e-01" purity="5.4133862257003784e-01" nType="-99"/>
            <Node pos="r" depth="3" NCoef="0" IVar="-1" Cut="0.0000000000000000e+00" cType="1" res="-1.1261333711445332e-02" rms="3.8932064175605774e-01" purity="1.9260193407535553e-01" nType="-99"/>
          </Node>
          <Node pos="r" depth="2" NCoef="0" IVar="3" Cut="1.6567921265959740e-02" cType="1" res="-3.4608545899391174e-01" rms="3.0778464674949646e-01" purity="1.0958141088485718e-01" nType="0">
            <Node pos="l" depth="3" NCoef="0" IVar="-1" Cut="0.0000000000000000e+00" cType="1" res="-7.6311612501740456e-03" rms="4.4881641864776611e-01" purity="2.8508830070495605e-01" nType="-99"/>
            <Node pos="r" depth="3" NCoef="0" IVar="-1" Cut="0.0000000000000000e+00" cType="1" res="-1.3757294043898582e-02" rms="2.4144802987575531e-01" purity="6.3472807407379150e-02" nType="-99"/>
          </Node>
        </Node>
      </Node>
    </BinaryTree>
    <BinaryTree type="DecisionTree" boostWeight="1.0000000000000000e+00" itree="8">
      <Node pos="s" depth="0" NCoef="0" IVar="6" Cut="8.7721019983291626e-01" cType="0" res="-1.8042402341961861e-02" rms="4.6208262443542480e-01" purity="4.9836006760597229e-01" nType="0">
        <Node pos="l" depth="1" NCoef="0" IVar="9" Cut="2.5409889221191406e+00" cType="1" res="1.9567449390888214e-01" rms="4.0420848131179810e-01" purity="7.6476281881332397e-01" nType="0">
          <Node pos="l" depth="2" NCoef="0" IVar="7" Cut="3.5492904186248779e+00" cType="1" res="2.4601311981678009e-01" rms="3.6670362949371338e-01" purity="8.2564979791641235e-01" nType="0">
            <Node pos="l" depth="3" NCoef="0" IVar="-1" Cut="0.0000000000000000e+00" cType="1" res="1.9819507375359535e-02" rms="3.4508100152015686e-01" purity="8.5067987442016602e-01" nType="-99"/>
            <Node pos="r" depth="3" NCoef="0" IVar="-1" Cut="0.0000000000000000e+00" cType="1" res="-4.1299401782453060e-03" rms="4.8527622222900391e-01" purity="4.6842616796493530e-01" nType="-99"/>
          </Node>
          <Node pos="r" depth="2" NCoef="0" IVar="1" Cut="9.5973509550094604e-01" cType="0" res="-6.9892153143882751e-02" rms="4.8168841004371643e-01" purity="4.4354760646820068e-01" nType="0">
            <Node pos="l" depth="3" NCoef="0" IVar="-1" Cut="0.0000000000000000e+00" cType="1" res="4.7899070195853710e-03" rms="4.7757247090339661e-01" purity="6.2644326686859131e-01" nType="-99"/>
            <Node pos="r" depth="3" NCoef="0" IVar="-1" Cut="0.0000000000000000e+00" cType="1" res="-9.0202698484063148e-03" rms="4.3729615211486816e-01" purity="2.6711568236351013e-01" nType="-99"/>
          </Node>
        </Node>
        <Node pos="r" depth="1" NCoef="0" IVar="2" Cut="2.5532336905598640e-02" cType="1" res="-2.0797607302665710e-01" rms="4.2592263221740723e-01" purity="2.6160362362861633e-01" nType="0">
          <Node pos="l" depth="2" NCoef="0" IVar="9" Cut="1.7459707260131836e+00" cType="1" res="-4.9626499414443970e-02" rms="4.8870056867599487e-01" purity="4.4342499971389771e-01" nType="0">
            <Node pos="l" depth="3" NCoef="0" IVar="-1" Cut="0.0000000000000000e+00" cType="1" res="4.4354256242513657e-03" rms="4.8726928234100342e-01" purity="5.8613264560699463e-01" nType="-99"/>
            <Node pos="r" depth="3" NCoef="0" IVar="-1" Cut="0.0000000000000000e+00" cType="1" res="-8.9628407731652260e-03" rms="4.3457239866256714e-01" purity="2.6160329580307007e-01" nType="-99"/>
          </Node>
          <Node pos="r" depth="2" NCoef="0" IVar="3" Cut="1.6567921265959740e-02" cType="1" res="-3.3713984489440918e-01" rms="3.1215140223503113e-01" purity="1.1329414695501328e-01" nType="0">
            <Node pos="l" depth="3" NCoef="0" IVar="-1" Cut="0.0000000000000000e+00" cType="1" res="-7.1322130970656872e-03" rms="4.5379289984703064e-01" purity="2.9592013359069824e-01" nType="-99"/>
            <Node pos="r" depth="3" NCoef="0" IVar="-1" Cut="0.0000000000000000e+00" cType="1" res="-1.3609521090984344e-02" rms="2.4097116291522980e-01" purity="6.2983103096485138e-02" nType="-99"/>
          </Node>
        </Node>
      </Node>
    </BinaryTree>
    <BinaryTree type="DecisionTree" boostWeight="1.0000000000000000e+00" itree="9">
      <Node pos="s" depth="0" NCoef="0" IVar="6" Cut="8.6873036623001099e-01" cType="0" res="-1.9514175131917000e-02" rms="4.5827531814575195e-01" purity="4.9836006760597229e-01" nType="0">
        <Node pos="l" depth="1" NCoef="0" IVar="9" Cut="2.5409889221191406e+00" cType="1" res="1.7372103035449982e-01" rms="4.1254809498786926e-01" purity="7.4267399311065674e-01" nType="0">
          <Node pos="l" depth="2" NCoef="0" IVar="1" Cut="9.4519507884979248e-01" cType="0" res="2.2675353288650513e-01" rms="3.7697324156761169e-01" purity="8.0827003717422485e-01" nType="0">
            <Node pos="l" depth="3" NCoef="0" IVar="-1" Cut="0.0000000000000000e+00" cType="1" res="2.1177144721150398e-02" rms="3.2678988575935364e-01" purity="8.7129914760589600e-01" nType="-99"/>
            <Node pos="r" depth="3" NCoef="0" IVar="-1" Cut="0.0000000000000000e+00" cType="1" res="2.3037719074636698e-03" rms="4.8656147718429565e-01" purity="5.6579101085662842e-01" nType="-99"/>
          </Node>
          <Node pos="r" depth="2" NCoef="0" IVar="1" Cut="9.4851160049438477e-01" cType="0" res="-8.9823536574840546e-02" rms="4.7575464844703674e-01" purity="4.1669481992721558e-01" nType="0">
            <Node pos="l" depth="3" NCoef="0" IVar="-1" Cut="0.0000000000000000e+00" cType="1" res="1.4948026509955525e-03" rms="4.8579585552215576e-01" purity="5.5565142631530762e-01" nType="-99"/>
            <Node pos="r" depth="3" NCoef="0" IVar="-1" Cut="0.0000000000000000e+00" cType="1" res="-1.0566893965005875e-02" rms="3.9698955416679382e-01" purity="2.0318272709846497e-01" nType="-99"/>
          </Node>
        </Node>
        <Node pos="r" depth="1" NCoef="0" IVar="2" Cut="2.5197844952344894e-02" cType="1" res="-2.1874557435512543e-01" rms="4.1578906774520874e-01" purity="2.4646493792533875e-01" nType="0">
          <Node pos="l" depth="2" NCoef="0" IVar="9" Cut="1.9642170667648315e+00" cType="1" res="-4.5202057808637619e-02" rms="4.8809084296226501e-01" purity="4.4737160205841064e-01" nType="0">
            <Node pos="l" depth="3" NCoef="0" IVar="-1" Cut="0.0000000000000000e+00" cType="1" res="3.8653428200632334e-03" rms="4.8829478025436401e-01" purity="5.7671302556991577e-01" nType="-99"/>
            <Node pos="r" depth="3" NCoef="0" IVar="-1" Cut="0.0000000000000000e+00" cType="1" res="-9.4565972685813904e-03" rms="4.2354184389114380e-01" purity="2.4173609912395477e-01" nType="-99"/>
          </Node>
          <Node pos="r" depth="2" NCoef="0" IVar="3" Cut="1.6552472487092018e-02" cType="1" res="-3.3285176753997803e-01" rms="3.1159013509750366e-01" purity="1.1436723917722702e-01" nType="0">
            <Node pos="l" depth="3" NCoef="0" IVar="-1" Cut="0.0000000000000000e+00" cType="1" res="-6.8440390750765800e-03" rms="4.5515975356101990e-01" purity="3.0387324094772339e-01" nType="-99"/>
            <Node pos="r" depth="3" NCoef="0" IVar="-1" Cut="0.0000000000000000e+00" cType="1" res="-1.3592476025223732e-02" rms="2.3478575050830841e-01" purity="6.0112785547971725e-02" nType="-99"/>
          </Node>
        </Node>
      </Node>
    </BinaryTree>
    <BinaryTree type="DecisionTree" boostWeight="1.0000000000000000e+00" itree="10">
      <Node pos="s" depth="0" NCoef="0" IVar="6" Cut="8.9487648010253906e-01" cType="0" res="-2.0972795784473419e-02" rms="4.5453423261642456e-01" purity="4.9836006760597229e-01" nType="0">
        <Node pos="l" depth="1" NCoef="0" IVar="8" Cut="1.3411655426025391e+00" cType="1" res="2.2396667301654816e-01" rms="3.6711439490318298e-01" purity="8.1842684745788574e-01" nType="0">
          <Node pos="l" depth="2" NCoef="0" IVar="7" Cut="3.6267294883728027e+00" cType="1" res="2.5742009282112122e-01" rms="3.3575731515884399e-01" purity="8.5956138372421265e-01" nType="0">
            <Node pos="l" depth="3" NCoef="0" IVar="-1" Cut="0.0000000000000000e+00" cType="1" res="2.1399432793259621e-02" rms="3.1727552413940430e-01" purity="8.7773513793945312e-01" nType="-99"/>
            <Node pos="r" depth="3" NCoef="0" IVar="-1" Cut="0.0000000000000000e+00" cType="1" res="-1.6790248919278383e-03" rms="4.8797583580017090e-01" purity="5.3687602281570435e-01" nType="-99"/>
          </Node>
          <Node pos="r" depth="2" NCoef="0" IVar="12" Cut="2.9869391918182373e+00" cType="1" res="-4.3975368142127991e-02" rms="4.8014989495277405e-01" purity="4.8896327614784241e-01" nType="0">
            <Node pos="l" depth="3" NCoef="0" IVar="-1" Cut="0.0000000000000000e+00" cType="1" res="6.2293480150401592e-03" rms="4.5644176006317139e-01" purity="6.5314722061157227e-01" nType="-99"/>
            <Node pos="r" depth="3" NCoef="0" IVar="-1" Cut="0.0000000000000000e+00" cType="1" res="-7.2813830338418484e-03" rms="4.6418854594230652e-01" purity="3.5745799541473389e-01" nType="-99"/>
          </Node>
        </Node>
        <Node pos="r" depth="1" NCoef="0" IVar="2" Cut="2.6525357738137245e-02" cType="1" res="-1.7006546258926392e-01" rms="4.3769329786300659e-01" purity="3.0353799462318420e-01" nType="0">
          <Node pos="l" depth="2" NCoef="0" IVar="7" Cut="1.4201180934906006e+00" cType="1" res="-5.0456691533327103e-02" rms="4.8093938827514648e-01" purity="4.4561070203781128e-01" nType="0">
            <Node pos="l" depth="3" NCoef="0" IVar="-1" Cut="0.0000000000000000e+00" cType="1" res="2.9021007940173149e-03" rms="4.8468667268753052e-01" purity="5.6331425905227661e-01" nType="-99"/>
            <Node pos="r" depth="3" NCoef="0" IVar="-1" Cut="0.0000000000000000e+00" cType="1" res="-9.7462479025125504e-03" rms="4.0516826510429382e-01" purity="2.2418731451034546e-01" nType="-99"/>
          </Node>
          <Node pos="r" depth="2" NCoef="0" IVar="3" Cut="1.6626311466097832e-02" cType="1" res="-3.4668976068496704e-01" rms="2.8388178348541260e-01" purity="9.3741610646247864e-02" nType="0">
            <Node pos="l" depth="3" NCoef="0" IVar="-1" Cut="0.0000000000000000e+00" cType="1" res="-8.4436256438493729e-03" rms="4.2963239550590515e-01" purity="2.5311914086341858e-01" nType="-99"/>
            <Node pos="r" depth="3" NCoef="0" IVar="-1" Cut="0.0000000000000000e+00" cType="1" res="-1.3502082787454128e-02" rms="2.2329135239124298e-01" purity="5.4994203150272369e-02" nType="-99"/>
          </Node>
        </Node>
      </Node>
    </BinaryTree>
    <BinaryTree type="DecisionTree" boostWeight="1.0000000000000000e+00" itree="11">
      <Node pos="s" depth="0" NCoef="0" IVar="6" Cut="8.6873036623001099e-01" cType="0" res="-2.2350231185555458e-02" rms="4.5093584060668945e-01" purity="4.9836006760597229e-01" nType="0">
        <Node pos="l" depth="1" NCoef="0" IVar="9" Cut="2.5409889221191406e+00" cType="1" res="1.6128525137901306e-01" rms="4.0841564536094666e-01" purity="7.4267399311065674e-01" nType="0">
          <Node pos="l" depth="2" NCoef="0" IVar="12" Cut="4.1258573532104492e+00" cType="1" res="2.1202106773853302e-01" rms="3.7427443265914917e-01" purity="8.0827003717422485e-01" nType="0">
            <Node pos="l" depth="3" NCoef="0" IVar="-1" Cut="0.0000000000000000e+00" cType="1" res="2.1138090640306473e-02" rms="3.1300604343414307e-01" purity="8.7965869903564453e-01" nType="-99"/>
            <Node pos="r" depth="3" NCoef="0" IVar="-1" Cut="0.0000000000000000e+00" cType="1" res="4.3577826581895351e-03" rms="4.6085214614868164e-01" purity="6.4122641086578369e-01" nType="-99"/>
          </Node>
          <Node pos="r" depth="2" NCoef="0" IVar="1" Cut="9.4851160049438477e-01" cType="0" res="-9.0845987200737000e-02" rms="4.7247835993766785e-01" purity="4.1669481992721558e-01" nType="0">
            <Node pos="l" depth="3" NCoef="0" IVar="-1" Cut="0.0000000000000000e+00" cType="1" res="1.2259627692401409e-03" rms="4.8362672328948975e-01" purity="5.5565142631530762e-01" nType="-99"/>
            <Node pos="r" depth="3" NCoef="0" IVar="-1" Cut="0.0000000000000000e+00" cType="1" res="-1.0388493537902832e-02" rms="3.9569404721260071e-01" purity="2.0318272709846497e-01" nType="-99"/>
          </Node>
        </Node>
        <Node pos="r" depth="1" NCoef="0" IVar="2" Cut="2.5197844952344894e-02" cType="1" res="-2.1168401837348938e-01" rms="4.1279667615890503e-01" purity="2.4646493792533875e-01" nType="0">
          <Node pos="l" depth="2" NCoef="0" IVar="9" Cut="1.9642170667648315e+00" cType="1" res="-4.3956302106380463e-02" rms="4.8622113466262817e-01" purity="4.4737160205841064e-01" nType="0">
            <Node pos="l" depth="3" NCoef="0" IVar="-1" Cut="0.0000000000000000e+00" cType="1" res="3.7792557850480080e-03" rms="4.8742598295211792e-01" purity="5.7671302556991577e-01" nType="-99"/>
            <Node pos="r" depth="3" NCoef="0" IVar="-1" Cut="0.0000000000000000e+00" cType="1" res="-9.2362696304917336e-03" rms="4.2291137576103210e-01" purity="2.4173609912395477e-01" nType="-99"/>
          </Node>
          <Node pos="r" depth="2" NCoef="0" IVar="3" Cut="1.6552472487092018e-02" cType="1" res="-3.2196629047393799e-01" rms="3.1038603186607361e-01" purity="1.1436723917722702e-01" nType="0">
            <Node pos="l" depth="3" NCoef="0" IVar="-1" Cut="0.0000000000000000e+00" cType="1" res="-6.6038537770509720e-03" rms="4.5437225699424744e-01" purity="3.0387324094772339e-01" nType="-99"/>
            <Node pos="r" depth="3" NCoef="0" IVar="-1" Cut="0.0000000000000000e+00" cType="1" res="-1.3245369307696819e-02" rms="2.3441575467586517e-01" purity="6.0112785547971725e-02" nType="-99"/>
          </Node>
        </Node>
      </Node>
    </BinaryTree>
    <BinaryTree type="DecisionTree" boostWeight="1.0000000000000000e+00" itree="12">
      <Node pos="s" depth="0" NCoef="0" IVar="6" Cut="8.6873036623001099e-01" cType="0" res="-2.3589299991726875e-02" rms="4.4750285148620605e-01" purity="4.9836006760597229e-01" nType="0">
        <Node pos="l" depth="1" NCoef="0" IVar="9" Cut="1.8384803533554077e+00" cType="1" res="1.5523846447467804e-01" rms="4.0670508146286011e-01" purity="7.4267399311065674e-01" nType="0">
          <Node pos="l" depth="2" NCoef="0" IVar="7" Cut="3.5611569881439209e+00" cType="1" res="2.2398076951503754e-01" rms="3.5584008693695068e-01" purity="8.3234250545501709e-01" nType="0">
            <Node pos="l" depth="3" NCoef="0" IVar="-1" Cut="0.0000000000000000e+00" cType="1" res="1.8649194389581680e-02" rms="3.3494710922241211e-01" purity="8.5707795619964600e-01" nType="-99"/>
            <Node pos="r" depth="3" NCoef="0" IVar="-1" Cut="0.0000000000000000e+00" cType="1" res="-4.5160213485360146e-03" rms="4.8219853639602661e-01" purity="4.6351528167724609e-01" nType="-99"/>
          </Node>
          <Node pos="r" depth="2" NCoef="0" IVar="1" Cut="9.4890171289443970e-01" cType="0" res="-2.1712834015488625e-02" rms="4.7093045711517334e-01" purity="5.1185601949691772e-01" nType="0">
            <Node pos="l" depth="3" NCoef="0" IVar="-1" Cut="0.0000000000000000e+00" cType="1" res="5.0782640464603901e-03" rms="4.5846828818321228e-01" purity="6.4835727214813232e-01" nType="-99"/>
            <Node pos="r" depth="3" NCoef="0" IVar="-1" Cut="0.0000000000000000e+00" cType="1" res="-8.5684070363640785e-03" rms="4.3228679895401001e-01" purity="2.7258935570716858e-01" nType="-99"/>
          </Node>
        </Node>
        <Node pos="r" depth="1" NCoef="0" IVar="2" Cut="2.5197844952344894e-02" cType="1" res="-2.0796617865562439e-01" rms="4.1136777400970459e-01" purity="2.4646493792533875e-01" nType="0">
          <Node pos="l" depth="2" NCoef="0" IVar="7" Cut="1.3568234443664551e+00" cType="1" res="-4.3341439217329025e-02" rms="4.8528096079826355e-01" purity="4.4737160205841064e-01" nType="0">
            <Node pos="l" depth="3" NCoef="0" IVar="-1" Cut="0.0000000000000000e+00" cType="1" res="3.1819497235119343e-03" rms="4.8958095908164978e-01" purity="5.6638574600219727e-01" nType="-99"/>
            <Node pos="r" depth="3" NCoef="0" IVar="-1" Cut="0.0000000000000000e+00" cType="1" res="-9.5772948116064072e-03" rms="4.0656849741935730e-01" purity="2.1572908759117126e-01" nType="-99"/>
          </Node>
          <Node pos="r" depth="2" NCoef="0" IVar="3" Cut="1.6552472487092018e-02" cType="1" res="-3.1620824337005615e-01" rms="3.1001934409141541e-01" purity="1.1436723917722702e-01" nType="0">
            <Node pos="l" depth="3" NCoef="0" IVar="-1" Cut="0.0000000000000000e+00" cType="1" res="-6.4742583781480789e-03" rms="4.5437571406364441e-01" purity="3.0387324094772339e-01" nType="-99"/>
            <Node pos="r" depth="3" NCoef="0" IVar="-1" Cut="0.0000000000000000e+00" cType="1" res="-1.3064785860478878e-02" rms="2.3442254960536957e-01" purity="6.0112785547971725e-02" nType="-99"/>
          </Node>
        </Node>
      </Node>
    </BinaryTree>
    <BinaryTree type="DecisionTree" boostWeight="1.0000000000000000e+00" itree="13">
      <Node pos="s" depth="0" NCoef="0" IVar="6" Cut="8.9487648010253906e-01" cType="0" res="-2.4747515097260475e-02" rms="4.4423243403434753e-01" purity="4.9836006760597229e-01" nType="0">
        <Node pos="l" depth="1" NCoef="0" IVar="8" Cut="1.3411655426025391e+00" cType="1" res="2.0234258472919464e-01" rms="3.6317145824432373e-01" purity="8.1842684745788574e-01" nType="0">
          <Node pos="l" depth="2" NCoef="0" IVar="12" Cut="4.5161409378051758e+00" cType="1" res="2.3380005359649658e-01" rms="3.3337327837944031e-01" purity="8.5956138372421265e-01" nType="0">
            <Node pos="l" depth="3" NCoef="0" IVar="-1" Cut="0.0000000000000000e+00" cType="1" res="2.1841267123818398e-02" rms="2.9597443342208862e-01" purity="8.9550954103469849e-01" nType="-99"/>
            <Node pos="r" depth="3" NCoef="0" IVar="-1" Cut="0.0000000000000000e+00" cType="1" res="5.4567856714129448e-03" rms="4.4565150141716003e-01" purity="6.8797868490219116e-01" nType="-99"/>
          </Node>
          <Node pos="r" depth="2" NCoef="0" IVar="12" Cut="2.9869391918182373e+00" cType="1" res="-4.9613192677497864e-02" rms="4.7615909576416016e-01" purity="4.8896327614784241e-01" nType="0">
            <Node pos="l" depth="3" NCoef="0" IVar="-1" Cut="0.0000000000000000e+00" cType="1" res="5.5761681869626045e-03" rms="4.5360174775123596e-01" purity="6.5314722061157227e-01" nType="-99"/>
            <Node pos="r" depth="3" NCoef="0" IVar="-1" Cut="0.0000000000000000e+00" cType="1" res="-7.3306807316839695e-03" rms="4.6184962987899780e-01" purity="3.5745799541473389e-01" nType="-99"/>
          </Node>
        </Node>
        <Node pos="r" depth="1" NCoef="0" IVar="2" Cut="2.6525357738137245e-02" cType="1" res="-1.6297541558742523e-01" rms="4.3206894397735596e-01" purity="3.0353799462318420e-01" nType="0">
          <Node pos="l" depth="2" NCoef="0" IVar="7" Cut="1.4201180934906006e+00" cType="1" res="-4.9325428903102875e-02" rms="4.7677743434906006e-01" purity="4.4561070203781128e-01" nType="0">
            <Node pos="l" depth="3" NCoef="0" IVar="-1" Cut="0.0000000000000000e+00" cType="1" res="2.7397240046411753e-03" rms="4.8210459947586060e-01" purity="5.6331425905227661e-01" nType="-99"/>
            <Node pos="r" depth="3" NCoef="0" IVar="-1" Cut="0.0000000000000000e+00" cType="1" res="-9.4283418729901314e-03" rms="4.0275564789772034e-01" purity="2.2418731451034546e-01" nType="-99"/>
          </Node>
          <Node pos="r" depth="2" NCoef="0" IVar="3" Cut="1.6626311466097832e-02" cType="1" res="-3.3080050349235535e-01" rms="2.8185579180717468e-01" purity="9.3741610646247864e-02" nType="0">
            <Node pos="l" depth="3" NCoef="0" IVar="-1" Cut="0.0000000000000000e+00" cType="1" res="-8.1246811896562576e-03" rms="4.2816552519798279e-01" purity="2.5311914086341858e-01" nType="-99"/>
            <Node pos="r" depth="3" NCoef="0" IVar="-1" Cut="0.0000000000000000e+00" cType="1" res="-1.3029577210545540e-02" rms="2.2202937304973602e-01" purity="5.4994203150272369e-02" nType="-99"/>
          </Node>
        </Node>
      </Node>
    </BinaryTree>
    <BinaryTree type="DecisionTree" boostWeight="1.0000000000000000e+00" itree="14">
      <Node pos="s" depth="0" NCoef="0" IVar="6" Cut="8.6873036623001099e-01" cType="0" res="-2.5922488421201706e-02" rms="4.4099470973014832e-01" purity="4.9836006760597229e-01" nType="0">
        <Node pos="l" depth="1" NCoef="0" IVar="9" Cut="2.5409889221191406e+00" cType="1" res="1.4412979781627655e-01" rms="4.0300694108009338e-01" purity="7.4267399311065674e-01" nType="0">
          <Node pos="l" depth="2" NCoef="0" IVar="7" Cut="2.0092766284942627e+00" cType="1" res="1.9152337312698364e-01" rms="3.7086606025695801e-01" purity="8.0827003717422485e-01" nType="0">
            <Node pos="l" depth="3" NCoef="0" IVar="-1" Cut="0.0000000000000000e+00" cType="1" res="1.7609568312764168e-02" rms="3.3725062012672424e-01" purity="8.5189127922058105e-01" nType="-99"/>
            <Node pos="r" depth="3" NCoef="0" IVar="-1" Cut="0.0000000000000000e+00" cType="1" res="4.3334442307241261e-04" rms="4.6139407157897949e-01" purity="5.9580534696578979e-01" nType="-99"/>
          </Node>
          <Node pos="r" depth="2" NCoef="0" IVar="1" Cut="9.5968574285507202e-01" cType="0" res="-9.1392174363136292e-02" rms="4.6838846802711487e-01" purity="4.1669481992721558e-01" nType="0">
            <Node pos="l" depth="3" NCoef="0" IVar="-1" Cut="0.0000000000000000e+00" cType="1" res="3.0428064055740833e-03" rms="4.7514095902442932e-01" purity="6.0799938440322876e-01" nType="-99"/>
            <Node pos="r" depth="3" NCoef="0" IVar="-1" Cut="0.0000000000000000e+00" cType="1" res="-8.8059073314070702e-03" rms="4.2590513825416565e-01" purity="2.5570616126060486e-01" nType="-99"/>
          </Node>
        </Node>
        <Node pos="r" depth="1" NCoef="0" IVar="2" Cut="2.5030599907040596e-02" cType="1" res="-2.0125158131122589e-01" rms="4.0862885117530823e-01" purity="2.4646493792533875e-01" nType="0">
          <Node pos="l" depth="2" NCoef="0" IVar="8" Cut="9.1065406799316406e-01" cType="1" res="-3.4800820052623749e-02" rms="4.8442032933235168e-01" purity="4.5503482222557068e-01" nType="0">
            <Node pos="l" depth="3" NCoef="0" IVar="-1" Cut="0.0000000000000000e+00" cType="1" res="3.1258729286491871e-03" rms="4.8612877726554871e-01" purity="5.5842047929763794e-01" nType="-99"/>
            <Node pos="r" depth="3" NCoef="0" IVar="-1" Cut="0.0000000000000000e+00" cType="1" res="-1.0325663723051548e-02" rms="3.9554047584533691e-01" purity="2.0619940757751465e-01" nType="-99"/>
          </Node>
          <Node pos="r" depth="2" NCoef="0" IVar="3" Cut="1.7988435924053192e-02" cType="1" res="-3.0127224326133728e-01" rms="3.1567788124084473e-01" purity="1.2113480269908905e-01" nType="0">
            <Node pos="l" depth="3" NCoef="0" IVar="-1" Cut="0.0000000000000000e+00" cType="1" res="-6.9780722260475159e-03" rms="4.4004309177398682e-01" purity="2.8025436401367188e-01" nType="-99"/>
            <Node pos="r" depth="3" NCoef="0" IVar="-1" Cut="0.0000000000000000e+00" cType="1" res="-1.2949548661708832e-02" rms="2.2106251120567322e-01" purity="5.3274508565664291e-02" nType="-99"/>
          </Node>
        </Node>
      </Node>
    </BinaryTree>
    <BinaryTree type="DecisionTree" boostWeight="1.0000000000000000e+00" itree="15">
      <Node pos="s" depth="0" NCoef="0" IVar="6" Cut="8.9734977483749390e-01" cType="0" res="-2.6911649852991104e-02" rms="4.3799564242362976e-01" purity="4.9836006760597229e-01" nType="0">
        <Node pos="l" depth="1" NCoef="0" IVar="8" Cut="1.2272365093231201e+00" cType="1" res="1.9619897007942200e-01" rms="3.5445991158485413e-01" purity="8.2701575756072998e-01" nType="0">
          <Node pos="l" depth="2" NCoef="0" IVar="9" Cut="3.1538157463073730e+00" cType="1" res="2.2610265016555786e-01" rms="3.2383015751838684e-01" purity="8.6771100759506226e-01" nType="0">
            <Node pos="l" depth="3" NCoef="0" IVar="-1" Cut="0.0000000000000000e+00" cType="1" res="2.0099114626646042e-02" rms="3.0294519662857056e-01" purity="8.9018440246582031e-01" nType="-99"/>
            <Node pos="r" depth="3" NCoef="0" IVar="-1" Cut="0.0000000000000000e+00" cType="1" res="1.0360681699239649e-05" rms="4.8337101936340332e-01" purity="5.5274683237075806e-01" nType="-99"/>
          </Node>
          <Node pos="r" depth="2" NCoef="0" IVar="12" Cut="2.9869391918182373e+00" cType="1" res="-2.3788968101143837e-02" rms="4.7276565432548523e-01" purity="5.2763909101486206e-01" nType="0">
            <Node pos="l" depth="3" NCoef="0" IVar="-1" Cut="0.0000000000000000e+00" cType="1" res="6.4454334788024426e-03" rms="4.4293272495269775e-01" purity="6.7883586883544922e-01" nType="-99"/>
            <Node pos="r" depth="3" NCoef="0" IVar="-1" Cut="0.0000000000000000e+00" cType="1" res="-6.2325256876647472e-03" rms="4.6934267878532410e-01" purity="3.9758884906768799e-01" nType="-99"/>
          </Node>
        </Node>
        <Node pos="r" depth="1" NCoef="0" IVar="2" Cut="2.6567168533802032e-02" cType="1" res="-1.5409201383590698e-01" rms="4.3014562129974365e-01" purity="3.1101551651954651e-01" nType="0">
          <Node pos="l" depth="2" NCoef="0" IVar="8" Cut="1.0493471622467041e+00" cType="1" res="-4.6227257698774338e-02" rms="4.7341927886009216e-01" purity="4.5110946893692017e-01" nType="0">
            <Node pos="l" depth="3" NCoef="0" IVar="-1" Cut="0.0000000000000000e+00" cType="1" res="1.8868271727114916e-03" rms="4.7666782140731812e-01" purity="5.4517889022827148e-01" nType="-99"/>
            <Node pos="r" depth="3" NCoef="0" IVar="-1" Cut="0.0000000000000000e+00" cType="1" res="-1.0712248273193836e-02" rms="3.7898379564285278e-01" purity="1.8944893777370453e-01" nType="-99"/>
          </Node>
          <Node pos="r" depth="2" NCoef="0" IVar="3" Cut="1.6626311466097832e-02" cType="1" res="-3.2042077183723450e-01" rms="2.8129249811172485e-01" purity="9.4989009201526642e-02" nType="0">
            <Node pos="l" depth="3" NCoef="0" IVar="-1" Cut="0.0000000000000000e+00" cType="1" res="-7.8881299123167992e-03" rms="4.2665889859199524e-01" purity="2.5513520836830139e-01" nType="-99"/>
            <Node pos="r" depth="3" NCoef="0" IVar="-1" Cut="0.0000000000000000e+00" cType="1" res="-1.2738764286041260e-02" rms="2.2332477569580078e-01" purity="5.6541182100772858e-02" nType="-99"/>
          </Node>
        </Node>
      </Node>
    </BinaryTree>
    <BinaryTree type="DecisionTree" boostWeight="1.0000000000000000e+00" itree="16">
      <Node pos="s" depth="0" NCoef="0" IVar="6" Cut="8.6272382736206055e-01" cType="0" res="-2.7911923825740814e-02" rms="4.3501535058021545e-01" purity="4.9836006760597229e-01" nType="0">
        <Node pos="l" depth="1" NCoef="0" IVar="8" Cut="1.4530959129333496e+00" cType="1" res="1.2662562727928162e-01" rms="4.0441659092903137e-01" purity="7.2879660129547119e-01" nType="0">
          <Node pos="l" depth="2" NCoef="0" IVar="7" Cut="2.0582833290100098e+00" cType="1" res="1.6670916974544525e-01" rms="3.8134333491325378e-01" purity="7.8260952234268188e-01" nType="0">
            <Node pos="l" depth="3" NCoef="0" IVar="-1" Cut="0.0000000000000000e+00" cType="1" res="1.5574716031551361e-02" rms="3.4984377026557922e-01" purity="8.3061921596527100e-01" nType="-99"/>
            <Node pos="r" depth="3" NCoef="0" IVar="-1" Cut="0.0000000000000000e+00" cType="1" res="-1.1096029775217175e-03" rms="4.6131280064582825e-01" purity="5.5323362350463867e-01" nType="-99"/>
          </Node>
          <Node pos="r" depth="2" NCoef="0" IVar="6" Cut="9.1138261556625366e-01" cType="0" res="-1.5571632981300354e-01" rms="4.4746336340904236e-01" purity="3.4974768757820129e-01" nType="0">
            <Node pos="l" depth="3" NCoef="0" IVar="-1" Cut="0.0000000000000000e+00" cType="1" res="1.3583108084276319e-03" rms="4.6709388494491577e-01" purity="5.7490992546081543e-01" nType="-99"/>
            <Node pos="r" depth="3" NCoef="0" IVar="-1" Cut="0.0000000000000000e+00" cType="1" res="-1.0077880695462227e-02" rms="4.0557074546813965e-01" purity="2.3138168454170227e-01" nType="-99"/>
          </Node>
        </Node>
        <Node pos="r" depth="1" NCoef="0" IVar="2" Cut="2.5208298116922379e-02" cType="1" res="-2.0278620719909668e-01" rms="4.0087205171585083e-01" purity="2.3759865760803223e-01" nType="0">
          <Node pos="l" depth="2" NCoef="0" IVar="7" Cut="1.1821827888488770e+00" cType="1" res="-5.0053983926773071e-02" rms="4.8073974251747131e-01" purity="4.3782925605773926e-01" nType="0">
            <Node pos="l" depth="3" NCoef="0" IVar="-1" Cut="0.0000000000000000e+00" cType="1" res="2.9570930637419224e-03" rms="4.8807498812675476e-01" purity="5.6400686502456665e-01" nType="-99"/>
            <Node pos="r" depth="3" NCoef="0" IVar="-1" Cut="0.0000000000000000e+00" cType="1" res="-9.1852135956287384e-03" rms="4.0767630934715271e-01" purity="2.2169633209705353e-01" nType="-99"/>
          </Node>
          <Node pos="r" depth="2" NCoef="0" IVar="3" Cut="1.8008098006248474e-02" cType="1" res="-3.0153143405914307e-01" rms="3.0057093501091003e-01" purity="1.0814454406499863e-01" nType="0">
            <Node pos="l" depth="3" NCoef="0" IVar="-1" Cut="0.0000000000000000e+00" cType="1" res="-7.3262136429548264e-03" rms="4.3041297793388367e-01" purity="2.5979578495025635e-01" nType="-99"/>
            <Node pos="r" depth="3" NCoef="0" IVar="-1" Cut="0.0000000000000000e+00" cType="1" res="-1.2795553542673588e-02" rms="2.0717512071132660e-01" purity="4.6137448400259018e-02" nType="-99"/>
          </Node>
        </Node>
      </Node>
    </BinaryTree>
    <BinaryTree type="DecisionTree" boostWeight="1.0000000000000000e+00" itree="17">
      <Node pos="s" depth="0" NCoef="0" IVar="6" Cut="8.9734977483749390e-01" cType="0" res="-2.8742650523781776e-02" rms="4.3228670954704285e-01" purity="4.9836006760597229e-01" nType="0">
        <Node pos="l" depth="1" NCoef="0" IVar="9" Cut="2.4812009334564209e+00" cType="1" res="1.8360385298728943e-01" rms="3.5254061222076416e-01" purity="8.2701575756072998e-01" nType="0">
          <Node pos="l" depth="2" NCoef="0" IVar="12" Cut="4.0004086494445801e+00" cType="1" res="2.1567484736442566e-01" rms="3.1616401672363281e-01" purity="8.7644225358963013e-01" nType="0">
            <Node pos="l" depth="3" NCoef="0" IVar="-1" Cut="0.0000000000000000e+00" cType="1" res="2.2075291723012924e-02" rms="2.6863041520118713e-01" purity="9.1678136587142944e-01" nType="-99"/>
            <Node pos="r" depth="3" NCoef="0" IVar="-1" Cut="0.0000000000000000e+00" cType="1" res="7.3278383351862431e-03" rms="4.2174163460731506e-01" purity="7.4215859174728394e-01" nType="-99"/>
          </Node>
          <Node pos="r" depth="2" NCoef="0" IVar="1" Cut="9.6131789684295654e-01" cType="0" res="-3.2669405918568373e-03" rms="4.7445634007453918e-01" purity="5.3901833295822144e-01" nType="0">
            <Node pos="l" depth="3" NCoef="0" IVar="-1" Cut="0.0000000000000000e+00" cType="1" res="7.2102188132703304e-03" rms="4.5081800222396851e-01" purity="6.9320487976074219e-01" nType="-99"/>
            <Node pos="r" depth="3" NCoef="0" IVar="-1" Cut="0.0000000000000000e+00" cType="1" res="-7.1694832295179367e-03" rms="4.5799428224563599e-01" purity="3.3281186223030090e-01" nType="-99"/>
          </Node>
        </Node>
        <Node pos="r" depth="1" NCoef="0" IVar="2" Cut="2.6567168533802032e-02" cType="1" res="-1.4978711307048798e-01" rms="4.2684102058410645e-01" purity="3.1101551651954651e-01" nType="0">
          <Node pos="l" depth="2" NCoef="0" IVar="8" Cut="1.0493471622467041e+00" cType="1" res="-4.5589458197355270e-02" rms="4.7095409035682678e-01" purity="4.5110946893692017e-01" nType="0">
            <Node pos="l" depth="3" NCoef="0" IVar="-1" Cut="0.0000000000000000e+00" cType="1" res="1.7892475007101893e-03" rms="4.7520804405212402e-01" purity="5.4517889022827148e-01" nType="-99"/>
            <Node pos="r" depth="3" NCoef="0" IVar="-1" Cut="0.0000000000000000e+00" cType="1" res="-1.0445619001984596e-02" rms="3.7829411029815674e-01" purity="1.8944893777370453e-01" nType="-99"/>
          </Node>
          <Node pos="r" depth="2" NCoef="0" IVar="3" Cut="1.5759982168674469e-02" cType="1" res="-3.1046116352081299e-01" rms="2.8029382228851318e-01" purity="9.4989009201526642e-02" nType="0">
            <Node pos="l" depth="3" NCoef="0" IVar="-1" Cut="0.0000000000000000e+00" cType="1" res="-7.0510376244783401e-03" rms="4.3521329760551453e-01" purity="2.7308875322341919e-01" nType="-99"/>
            <Node pos="r" depth="3" NCoef="0" IVar="-1" Cut="0.0000000000000000e+00" cType="1" res="-1.2367237359285355e-02" rms="2.3224259912967682e-01" purity="6.2003694474697113e-02" nType="-99"/>
          </Node>
        </Node>
      </Node>
    </BinaryTree>
    <BinaryTree type="DecisionTree" boostWeight="1.0000000000000000e+00" itree="18">
      <Node pos="s" depth="0" NCoef="0" IVar="6" Cut="8.6272382736206055e-01" cType="0" res="-2.9660848900675774e-02" rms="4.2946806550025940e-01" purity="4.9836006760597229e-01" nType="0">
        <Node pos="l" depth="1" NCoef="0" IVar="8" Cut="1.3371680974960327e+00" cType="1" res="1.1755934357643127e-01" rms="4.0113753080368042e-01" purity="7.2879660129547119e-01" nType="0">
          <Node pos="l" depth="2" NCoef="0" IVar="1" Cut="9.3844729661941528e-01" cType="0" res="1.5801508724689484e-01" rms="3.7741357088088989e-01" purity="7.8561621904373169e-01" nType="0">
            <Node pos="l" depth="3" NCoef="0" IVar="-1" Cut="0.0000000000000000e+00" cType="1" res="1.5489507466554642e-02" rms="3.4075435996055603e-01" purity="8.4345293045043945e-01" nType="-99"/>
            <Node pos="r" depth="3" NCoef="0" IVar="-1" Cut="0.0000000000000000e+00" cType="1" res="-9.8621088545769453e-04" rms="4.7822418808937073e-01" purity="5.1158261299133301e-01" nType="-99"/>
          </Node>
          <Node pos="r" depth="2" NCoef="0" IVar="1" Cut="9.5816814899444580e-01" cType="0" res="-1.3852104544639587e-01" rms="4.4932091236114502e-01" purity="3.6913484334945679e-01" nType="0">
            <Node pos="l" depth="3" NCoef="0" IVar="-1" Cut="0.0000000000000000e+00" cType="1" res="7.0346846769098192e-05" rms="4.7320869565010071e-01" purity="5.6428098678588867e-01" nType="-99"/>
            <Node pos="r" depth="3" NCoef="0" IVar="-1" Cut="0.0000000000000000e+00" cType="1" res="-9.7987540066242218e-03" rms="3.9809447526931763e-01" purity="2.1943359076976776e-01" nType="-99"/>
          </Node>
        </Node>
        <Node pos="r" depth="1" NCoef="0" IVar="3" Cut="1.8190376460552216e-02" cType="1" res="-1.9625483453273773e-01" rms="3.9848649501800537e-01" purity="2.3759865760803223e-01" nType="0">
          <Node pos="l" depth="2" NCoef="0" IVar="7" Cut="8.5550314188003540e-01" cType="1" res="-4.7154597938060760e-02" rms="4.7137808799743652e-01" purity="4.1741594672203064e-01" nType="0">
            <Node pos="l" depth="3" NCoef="0" IVar="-1" Cut="0.0000000000000000e+00" cType="1" res="4.2422395199537277e-03" rms="4.7909751534461975e-01" purity="5.6129652261734009e-01" nType="-99"/>
            <Node pos="r" depth="3" NCoef="0" IVar="-1" Cut="0.0000000000000000e+00" cType="1" res="-9.5136882737278938e-03" rms="3.8445430994033813e-01" purity="1.9643162190914154e-01" nType="-99"/>
          </Node>
          <Node pos="r" depth="2" NCoef="0" IVar="2" Cut="2.5015644729137421e-02" cType="1" res="-2.9354122281074524e-01" rms="3.0569553375244141e-01" purity="1.2026970088481903e-01" nType="0">
            <Node pos="l" depth="3" NCoef="0" IVar="-1" Cut="0.0000000000000000e+00" cType="1" res="-7.2221006266772747e-03" rms="4.4691163301467896e-01" purity="3.0605009198188782e-01" nType="-99"/>
            <Node pos="r" depth="3" NCoef="0" IVar="-1" Cut="0.0000000000000000e+00" cType="1" res="-1.2488062493503094e-02" rms="2.1307174861431122e-01" purity="4.9564737826585770e-02" nType="-99"/>
          </Node>
        </Node>
      </Node>
    </BinaryTree>
    <BinaryTree type="DecisionTree" boostWeight="1.0000000000000000e+00" itree="19">
      <Node pos="s" depth="0" NCoef="0" IVar="6" Cut="8.6272382736206055e-01" cType="0" res="-3.0442943796515465e-02" rms="4.2685773968696594e-01" purity="4.9836006760597229e-01" nType="0">
        <Node pos="l" depth="1" NCoef="0" IVar="9" Cut="2.4916458129882812e+00" cType="1" res="1.1307516694068909e-01" rms="3.9989721775054932e-01" purity="7.2879660129547119e-01" nType="0">
          <Node pos="l" depth="2" NCoef="0" IVar="7" Cut="2.6626999378204346e+00" cType="1" res="1.6015335917472839e-01" rms="3.6979290843009949e-01" purity="7.9994690418243408e-01" nType="0">
            <Node pos="l" depth="3" NCoef="0" IVar="-1" Cut="0.0000000000000000e+00" cType="1" res="1.4657267369329929e-02" rms="3.4561207890510559e-01" purity="8.3654832839965820e-01" nType="-99"/>
            <Node pos="r" depth="3" NCoef="0" IVar="-1" Cut="0.0000000000000000e+00" cType="1" res="-3.0592291150242090e-03" rms="4.6326553821563721e-01" purity="5.1900213956832886e-01" nType="-99"/>
          </Node>
          <Node pos="r" depth="2" NCoef="0" IVar="1" Cut="9.6245461702346802e-01" cType="0" res="-1.0153085738420486e-01" rms="4.5758476853370667e-01" purity="4.0445792675018311e-01" nType="0">
            <Node pos="l" depth="3" NCoef="0" IVar="-1" Cut="0.0000000000000000e+00" cType="1" res="3.0299329664558172e-03" rms="4.6475538611412048e-01" purity="6.2118744850158691e-01" nType="-99"/>
            <Node pos="r" depth="3" NCoef="0" IVar="-1" Cut="0.0000000000000000e+00" cType="1" res="-8.3745513111352921e-03" rms="4.2466774582862854e-01" purity="2.6653489470481873e-01" nType="-99"/>
          </Node>
        </Node>
        <Node pos="r" depth="1" NCoef="0" IVar="3" Cut="1.8190376460552216e-02" cType="1" res="-1.9284766912460327e-01" rms="3.9717409014701843e-01" purity="2.3759865760803223e-01" nType="0">
          <Node pos="l" depth="2" NCoef="0" IVar="7" Cut="8.5550314188003540e-01" cType="1" res="-4.6591639518737793e-02" rms="4.7028481960296631e-01" purity="4.1741594672203064e-01" nType="0">
            <Node pos="l" depth="3" NCoef="0" IVar="-1" Cut="0.0000000000000000e+00" cType="1" res="4.1290703229606152e-03" rms="4.7909128665924072e-01" purity="5.6129652261734009e-01" nType="-99"/>
            <Node pos="r" depth="3" NCoef="0" IVar="-1" Cut="0.0000000000000000e+00" cType="1" res="-9.3549713492393494e-03" rms="3.8447290658950806e-01" purity="1.9643162190914154e-01" nType="-99"/>
          </Node>
          <Node pos="r" depth="2" NCoef="0" IVar="2" Cut="2.5015644729137421e-02" cType="1" res="-2.8827822208404541e-01" rms="3.0545327067375183e-01" purity="1.2026970088481903e-01" nType="0">
            <Node pos="l" depth="3" NCoef="0" IVar="-1" Cut="0.0000000000000000e+00" cType="1" res="-7.0783393457531929e-03" rms="4.4691950082778931e-01" purity="3.0605009198188782e-01" nType="-99"/>
            <Node pos="r" depth="3" NCoef="0" IVar="-1" Cut="0.0000000000000000e+00" cType="1" res="-1.2341165915131569e-02" rms="2.1308103203773499e-01" purity="4.9564737826585770e-02" nType="-99"/>
          </Node>
        </Node>
      </Node>
    </BinaryTree>
    <BinaryTree type="DecisionTree" boostWeight="1.0000000000000000e+00" itree="20">
      <Node pos="s" depth="0" NCoef="0" IVar="6" Cut="8.9840978384017944e-01" cType="0" res="-3.1124863773584366e-02" rms="4.2435824871063232e-01" purity="4.9836006760597229e-01" nType="0">
        <Node pos="l" depth="1" NCoef="0" IVar="8" Cut="9.0543669462203979e-01" cType="1" res="1.6975563764572144e-01" rms="3.4662735462188721e-01" purity="8.3098584413528442e-01" nType="0">
          <Node pos="l" depth="2" NCoef="0" IVar="7" Cut="2.8394322395324707e+00" cType="1" res="2.0128422975540161e-01" rms="3.1179472804069519e-01" purity="8.7681859731674194e-01" nType="0">
            <Node pos="l" depth="3" NCoef="0" IVar="-1" Cut="0.0000000000000000e+00" cType="1" res="1.9337410107254982e-02" rms="2.8864416480064392e-01" purity="8.9850705862045288e-01" nType="-99"/>
            <Node pos="r" depth="3" NCoef="0" IVar="-1" Cut="0.0000000000000000e+00" cType="1" res="1.0054470039904118e-03" rms="4.5994088053703308e-01" purity="6.4039355516433716e-01" nType="-99"/>
          </Node>
          <Node pos="r" depth="2" NCoef="0" IVar="1" Cut="9.6055096387863159e-01" cType="0" res="5.5248634889721870e-03" rms="4.5548400282859802e-01" purity="5.9224534034729004e-01" nType="0">
            <Node pos="l" depth="3" NCoef="0" IVar="-1" Cut="0.0000000000000000e+00" cType="1" res="6.6008013673126698e-03" rms="4.2982342839241028e-01" purity="7.2276246547698975e-01" nType="-99"/>
            <Node pos="r" depth="3" NCoef="0" IVar="-1" Cut="0.0000000000000000e+00" cType="1" res="-6.5311761572957039e-03" rms="4.5550569891929626e-01" purity="3.8949835300445557e-01" nType="-99"/>
          </Node>
        </Node>
        <Node pos="r" depth="1" NCoef="0" IVar="2" Cut="2.6567168533802032e-02" cType="1" res="-1.4207032322883606e-01" rms="4.2259085178375244e-01" purity="3.1465223431587219e-01" nType="0">
          <Node pos="l" depth="2" NCoef="0" IVar="8" Cut="1.0493471622467041e+00" cType="1" res="-4.2693141847848892e-02" rms="4.6677979826927185e-01" purity="4.5469635725021362e-01" nType="0">
            <Node pos="l" depth="3" NCoef="0" IVar="-1" Cut="0.0000000000000000e+00" cType="1" res="1.7839645734056830e-03" rms="4.7145095467567444e-01" purity="5.4864823818206787e-01" nType="-99"/>
            <Node pos="r" depth="3" NCoef="0" IVar="-1" Cut="0.0000000000000000e+00" cType="1" res="-1.0144594125449657e-02" rms="3.7711060047149658e-01" purity="1.9047109782695770e-01" nType="-99"/>
          </Node>
          <Node pos="r" depth="2" NCoef="0" IVar="3" Cut="1.5759982168674469e-02" cType="1" res="-2.9715615510940552e-01" rms="2.7890524268150330e-01" purity="9.6102498471736908e-02" nType="0">
            <Node pos="l" depth="3" NCoef="0" IVar="-1" Cut="0.0000000000000000e+00" cType="1" res="-6.9717089645564556e-03" rms="4.3255800008773804e-01" purity="2.7293640375137329e-01" nType="-99"/>
            <Node pos="r" depth="3" NCoef="0" IVar="-1" Cut="0.0000000000000000e+00" cType="1" res="-1.1998877860605717e-02" rms="2.3233786225318909e-01" purity="6.3248403370380402e-02" nType="-99"/>
          </Node>
        </Node>
      </Node>
    </BinaryTree>
    <BinaryTree type="DecisionTree" boostWeight="1.0000000000000000e+00" itree="21">
      <Node pos="s" depth="0" NCoef="0" IVar="1" Cut="9.4526493549346924e-01" cType="0" res="-3.1853344291448593e-02" rms="4.2185616493225098e-01" purity="4.9836006760597229e-01" nType="0">
        <Node pos="l" depth="1" NCoef="0" IVar="7" Cut="3.8609459400177002e+00" cType="1" res="1.3181245326995850e-01" rms="3.7294030189514160e-01" purity="7.6653015613555908e-01" nType="0">
          <Node pos="l" depth="2" NCoef="0" IVar="9" Cut="3.1118581295013428e+00" cType="1" res="1.6526448726654053e-01" rms="3.5143119096755981e-01" purity="8.1333565711975098e-01" nType="0">
            <Node pos="l" depth="3" NCoef="0" IVar="-1" Cut="0.0000000000000000e+00" cType="1" res="1.6014624387025833e-02" rms="3.2517752051353455e-01" purity="8.5519772768020630e-01" nType="-99"/>
            <Node pos="r" depth="3" NCoef="0" IVar="-1" Cut="0.0000000000000000e+00" cType="1" res="-4.5924312435090542e-03" rms="4.6062529087066650e-01" purity="4.2798244953155518e-01" nType="-99"/>
          </Node>
          <Node pos="r" depth="2" NCoef="0" IVar="-1" Cut="0.0000000000000000e+00" cType="1" res="-8.7599409744143486e-03" rms="4.1333150863647461e-01" purity="2.9293438792228699e-01" nType="-99"/>
        </Node>
        <Node pos="r" depth="1" NCoef="0" IVar="2" Cut="2.5524551048874855e-02" cType="1" res="-1.6191607713699341e-01" rms="4.1310453414916992e-01" purity="2.8524932265281677e-01" nType="0">
          <Node pos="l" depth="2" NCoef="0" IVar="8" Cut="1.0413521528244019e+00" cType="1" res="-4.0568649768829346e-02" rms="4.7271218895912170e-01" purity="4.5982980728149414e-01" nType="0">
            <Node pos="l" depth="3" NCoef="0" IVar="-1" Cut="0.0000000000000000e+00" cType="1" res="1.9188718870282173e-03" rms="4.7817832231521606e-01" purity="5.5594199895858765e-01" nType="-99"/>
            <Node pos="r" depth="3" NCoef="0" IVar="-1" Cut="0.0000000000000000e+00" cType="1" res="-9.9869593977928162e-03" rms="3.8354855775833130e-01" purity="1.9559913873672485e-01" nType="-99"/>
          </Node>
          <Node pos="r" depth="2" NCoef="0" IVar="7" Cut="4.2795398831367493e-01" cType="1" res="-2.7461946010589600e-01" rms="3.0860468745231628e-01" purity="1.2310486286878586e-01" nType="0">
            <Node pos="l" depth="3" NCoef="0" IVar="-1" Cut="0.0000000000000000e+00" cType="1" res="-7.6524899341166019e-03" rms="3.9551913738250732e-01" purity="2.2938610613346100e-01" nType="-99"/>
            <Node pos="r" depth="3" NCoef="0" IVar="-1" Cut="0.0000000000000000e+00" cType="1" res="-1.1925525963306427e-02" rms="2.4281147122383118e-01" purity="7.0427402853965759e-02" nType="-99"/>
          </Node>
        </Node>
      </Node>
    </BinaryTree>
    <BinaryTree type="DecisionTree" boostWeight="1.0000000000000000e+00" itree="22">
      <Node pos="s" depth="0" NCoef="0" IVar="6" Cut="8.6272382736206055e-01" cType="0" res="-3.2520759850740433e-02" rms="4.1940596699714661e-01" purity="4.9836006760597229e-01" nType="0">
        <Node pos="l" depth="1" NCoef="0" IVar="9" Cut="1.7277835607528687e+00" cType="1" res="1.0137982666492462e-01" rms="3.9531618356704712e-01" purity="7.2879660129547119e-01" nType="0">
          <Node pos="l" depth="2" NCoef="0" IVar="7" Cut="3.6101636886596680e+00" cType="1" res="1.6502074897289276e-01" rms="3.4933111071586609e-01" purity="8.2766658067703247e-01" nType="0">
            <Node pos="l" depth="3" NCoef="0" IVar="-1" Cut="0.0000000000000000e+00" cType="1" res="1.4868536964058876e-02" rms="3.3160763978958130e-01" purity="8.5247409343719482e-01" nType="-99"/>
            <Node pos="r" depth="3" NCoef="0" IVar="-1" Cut="0.0000000000000000e+00" cType="1" res="-4.7980430535972118e-03" rms="4.7501939535140991e-01" purity="4.5762506127357483e-01" nType="-99"/>
          </Node>
          <Node pos="r" depth="2" NCoef="0" IVar="1" Cut="9.5552068948745728e-01" cType="0" res="-3.9958063513040543e-02" rms="4.5094561576843262e-01" purity="5.0921958684921265e-01" nType="0">
            <Node pos="l" depth="3" NCoef="0" IVar="-1" Cut="0.0000000000000000e+00" cType="1" res="4.6976329758763313e-03" rms="4.3327453732490540e-01" purity="6.8125927448272705e-01" nType="-99"/>
            <Node pos="r" depth="3" NCoef="0" IVar="-1" Cut="0.0000000000000000e+00" cType="1" res="-7.3903175070881844e-03" rms="4.3513825535774231e-01" purity="3.1019738316535950e-01" nType="-99"/>
          </Node>
        </Node>
        <Node pos="r" depth="1" NCoef="0" IVar="3" Cut="1.8190376460552216e-02" cType="1" res="-1.8404231965541840e-01" rms="3.9352637529373169e-01" purity="2.3759865760803223e-01" nType="0">
          <Node pos="l" depth="2" NCoef="0" IVar="9" Cut="2.0033378601074219e+00" cType="1" res="-4.2439483106136322e-02" rms="4.6681553125381470e-01" purity="4.1741594672203064e-01" nType="0">
            <Node pos="l" depth="3" NCoef="0" IVar="-1" Cut="0.0000000000000000e+00" cType="1" res="4.6087023802101612e-03" rms="4.7188681364059448e-01" purity="5.6465017795562744e-01" nType="-99"/>
            <Node pos="r" depth="3" NCoef="0" IVar="-1" Cut="0.0000000000000000e+00" cType="1" res="-8.6997617036104202e-03" rms="3.9777931571006775e-01" purity="2.1707256138324738e-01" nType="-99"/>
          </Node>
          <Node pos="r" depth="2" NCoef="0" IVar="2" Cut="2.5015644729137421e-02" cType="1" res="-2.7643671631813049e-01" rms="3.0348157882690430e-01" purity="1.2026970088481903e-01" nType="0">
            <Node pos="l" depth="3" NCoef="0" IVar="-1" Cut="0.0000000000000000e+00" cType="1" res="-6.9055058993399143e-03" rms="4.4533967971801758e-01" purity="3.0605009198188782e-01" nType="-99"/>
            <Node pos="r" depth="3" NCoef="0" IVar="-1" Cut="0.0000000000000000e+00" cType="1" res="-1.1994323693215847e-02" rms="2.1252140402793884e-01" purity="4.9564737826585770e-02" nType="-99"/>
          </Node>
        </Node>
      </Node>
    </BinaryTree>
    <BinaryTree type="DecisionTree" boostWeight="1.0000000000000000e+00" itree="23">
      <Node pos="s" depth="0" NCoef="0" IVar="2" Cut="2.6896461844444275e-02" cType="1" res="-3.3081404864788055e-02" rms="4.1710856556892395e-01" purity="4.9836006760597229e-01" nType="0">
        <Node pos="l" depth="1" NCoef="0" IVar="4" Cut="3.2142780721187592e-02" cType="1" res="4.6279169619083405e-02" rms="4.2288801074028015e-01" purity="6.2197053432464600e-01" nType="0">
          <Node pos="l" depth="2" NCoef="0" IVar="8" Cut="1.7169318199157715e+00" cType="1" res="1.3964420557022095e-01" rms="3.7698820233345032e-01" purity="7.6940143108367920e-01" nType="0">
            <Node pos="l" depth="3" NCoef="0" IVar="-1" Cut="0.0000000000000000e+00" cType="1" res="1.3376937247812748e-02" rms="3.5611945390701294e-01" purity="8.1355297565460205e-01" nType="-99"/>
            <Node pos="r" depth="3" NCoef="0" IVar="-1" Cut="0.0000000000000000e+00" cType="1" res="-6.1056651175022125e-03" rms="4.4787392020225525e-01" purity="3.5658517479896545e-01" nType="-99"/>
          </Node>
          <Node pos="r" depth="2" NCoef="0" IVar="9" Cut="1.7277835607528687e+00" cType="1" res="-9.2248059809207916e-02" rms="4.4853571057319641e-01" purity="4.0322482585906982e-01" nType="0">
            <Node pos="l" depth="3" NCoef="0" IVar="-1" Cut="0.0000000000000000e+00" cType="1" res="5.0556345377117395e-04" rms="4.6351614594459534e-01" purity="5.4302328824996948e-01" nType="-99"/>
            <Node pos="r" depth="3" NCoef="0" IVar="-1" Cut="0.0000000000000000e+00" cType="1" res="-8.9612426236271858e-03" rms="3.9217886328697205e-01" purity="2.2598402202129364e-01" nType="-99"/>
          </Node>
        </Node>
        <Node pos="r" depth="1" NCoef="0" IVar="6" Cut="8.9108890295028687e-01" cType="0" res="-2.7902126312255859e-01" rms="2.8094545006752014e-01" purity="1.1528903245925903e-01" nType="0">
          <Node pos="l" depth="2" NCoef="0" IVar="-1" Cut="0.0000000000000000e+00" cType="1" res="-4.8338179476559162e-03" rms="4.4028103351593018e-01" purity="5.2585536241531372e-01" nType="-99"/>
          <Node pos="r" depth="2" NCoef="0" IVar="3" Cut="1.7043432220816612e-02" cType="1" res="-2.9635697603225708e-01" rms="2.5439086556434631e-01" purity="7.7125005424022675e-02" nType="0">
            <Node pos="l" depth="3" NCoef="0" IVar="-1" Cut="0.0000000000000000e+00" cType="1" res="-8.3442861214280128e-03" rms="4.0052169561386108e-01" purity="2.1250854432582855e-01" nType="-99"/>
            <Node pos="r" depth="3" NCoef="0" IVar="-1" Cut="0.0000000000000000e+00" cType="1" res="-1.1994434520602226e-02" rms="1.9688795506954193e-01" purity="4.3582882732152939e-02" nType="-99"/>
          </Node>
        </Node>
      </Node>
    </BinaryTree>
    <BinaryTree type="DecisionTree" boostWeight="1.0000000000000000e+00" itree="24">
      <Node pos="s" depth="0" NCoef="0" IVar="6" Cut="8.9840978384017944e-01" cType="0" res="-3.3591721206903458e-02" rms="4.1495212912559509e-01" purity="4.9836006760597229e-01" nType="0">
        <Node pos="l" depth="1" NCoef="0" IVar="8" Cut="9.0543669462203979e-01" cType="1" res="1.5036346018314362e-01" rms="3.4315448999404907e-01" purity="8.3098584413528442e-01" nType="0">
          <Node pos="l" depth="2" NCoef="0" IVar="12" Cut="3.7286040782928467e+00" cType="1" res="1.7943383753299713e-01" rms="3.0987825989723206e-01" purity="8.7681859731674194e-01" nType="0">
            <Node pos="l" depth="3" NCoef="0" IVar="-1" Cut="0.0000000000000000e+00" cType="1" res="2.0389335229992867e-02" rms="2.5971961021423340e-01" purity="9.1979712247848511e-01" nType="-99"/>
            <Node pos="r" depth="3" NCoef="0" IVar="-1" Cut="0.0000000000000000e+00" cType="1" res="6.8497536703944206e-03" rms="4.0258640050888062e-01" purity="7.6251733303070068e-01" nType="-99"/>
          </Node>
          <Node pos="r" depth="2" NCoef="0" IVar="12" Cut="3.1679658889770508e+00" cType="1" res="-1.0625660652294755e-03" rms="4.5123824477195740e-01" purity="5.9224534034729004e-01" nType="0">
            <Node pos="l" depth="3" NCoef="0" IVar="-1" Cut="0.0000000000000000e+00" cType="1" res="7.1931346319615841e-03" rms="4.0874207019805908e-01" purity="7.2794353961944580e-01" nType="-99"/>
            <Node pos="r" depth="3" NCoef="0" IVar="-1" Cut="0.0000000000000000e+00" cType="1" res="-5.8724745176732540e-03" rms="4.6605023741722107e-01" purity="4.4175821542739868e-01" nType="-99"/>
          </Node>
        </Node>
        <Node pos="r" depth="1" NCoef="0" IVar="2" Cut="2.6567168533802032e-02" cType="1" res="-1.3518939912319183e-01" rms="4.1621553897857666e-01" purity="3.1465223431587219e-01" nType="0">
          <Node pos="l" depth="2" NCoef="0" IVar="7" Cut="1.2869819402694702e+00" cType="1" res="-4.2563032358884811e-02" rms="4.6175086498260498e-01" purity="4.5469635725021362e-01" nType="0">
            <Node pos="l" depth="3" NCoef="0" IVar="-1" Cut="0.0000000000000000e+00" cType="1" res="2.8329121414572001e-03" rms="4.6709638833999634e-01" purity="5.7570266723632812e-01" nType="-99"/>
            <Node pos="r" depth="3" NCoef="0" IVar="-1" Cut="0.0000000000000000e+00" cType="1" res="-8.3750812336802483e-03" rms="4.0348339080810547e-01" purity="2.4732987582683563e-01" nType="-99"/>
          </Node>
          <Node pos="r" depth="2" NCoef="0" IVar="3" Cut="1.5759982168674469e-02" cType="1" res="-2.7974006533622742e-01" rms="2.7669796347618103e-01" purity="9.6102498471736908e-02" nType="0">
            <Node pos="l" depth="3" NCoef="0" IVar="-1" Cut="0.0000000000000000e+00" cType="1" res="-6.6187540069222450e-03" rms="4.2938202619552612e-01" purity="2.7293640375137329e-01" nType="-99"/>
            <Node pos="r" depth="3" NCoef="0" IVar="-1" Cut="0.0000000000000000e+00" cType="1" res="-1.1551846750080585e-02" rms="2.3116962611675262e-01" purity="6.3248403370380402e-02" nType="-99"/>
          </Node>
        </Node>
      </Node>
    </BinaryTree>
    <BinaryTree type="DecisionTree" boostWeight="1.0000000000000000e+00" itree="25">
      <Node pos="s" depth="0" NCoef="0" IVar="2" Cut="2.6896461844444275e-02" cType="1" res="-3.4160979092121124e-02" rms="4.1274002194404602e-01" purity="4.9836006760597229e-01" nType="0">
        <Node pos="l" depth="1" NCoef="0" IVar="8" Cut="1.1952563524246216e+00" cType="1" res="4.1847329586744308e-02" rms="4.1995310783386230e-01" purity="6.2197053432464600e-01" nType="0">
          <Node pos="l" depth="2" NCoef="0" IVar="7" Cut="2.0414197444915771e+00" cType="1" res="9.5036268234252930e-02" rms="4.0518674254417419e-01" purity="7.0132893323898315e-01" nType="0">
            <Node pos="l" depth="3" NCoef="0" IVar="-1" Cut="0.0000000000000000e+00" cType="1" res="1.0323704220354557e-02" rms="3.8231152296066284e-01" purity="7.6838821172714233e-01" nType="-99"/>
            <Node pos="r" depth="3" NCoef="0" IVar="-1" Cut="0.0000000000000000e+00" cType="1" res="-5.0582978874444962e-03" rms="4.3394690752029419e-01" purity="4.2356297373771667e-01" nType="-99"/>
          </Node>
          <Node pos="r" depth="2" NCoef="0" IVar="6" Cut="9.0190118551254272e-01" cType="0" res="-1.8637539446353912e-01" rms="4.0548300743103027e-01" purity="2.8146001696586609e-01" nType="0">
            <Node pos="l" depth="3" NCoef="0" IVar="-1" Cut="0.0000000000000000e+00" cType="1" res="4.8716148012317717e-04" rms="4.5531103014945984e-01" purity="5.7928919792175293e-01" nType="-99"/>
            <Node pos="r" depth="3" NCoef="0" IVar="-1" Cut="0.0000000000000000e+00" cType="1" res="-1.0050994344055653e-02" rms="3.6208960413932800e-01" purity="1.7634570598602295e-01" nType="-99"/>
          </Node>
        </Node>
        <Node pos="r" depth="1" NCoef="0" IVar="12" Cut="4.6611514091491699e+00" cType="1" res="-2.6971212029457092e-01" rms="2.7991524338722229e-01" purity="1.1528903245925903e-01" nType="0">
          <Node pos="l" depth="2" NCoef="0" IVar="-1" Cut="0.0000000000000000e+00" cType="1" res="-7.5987144373357296e-03" rms="3.7511751055717468e-01" purity="2.7872109413146973e-01" nType="-99"/>
          <Node pos="r" depth="2" NCoef="0" IVar="3" Cut="1.8786609172821045e-02" cType="1" res="-3.0101579427719116e-01" rms="2.3256237804889679e-01" purity="6.2158081680536270e-02" nType="0">
            <Node pos="l" depth="3" NCoef="0" IVar="-1" Cut="0.0000000000000000e+00" cType="1" res="-8.8763991370797157e-03" rms="3.6875283718109131e-01" purity="1.7460966110229492e-01" nType="-99"/>
            <Node pos="r" depth="3" NCoef="0" IVar="-1" Cut="0.0000000000000000e+00" cType="1" res="-1.2299604713916779e-02" rms="1.6109098494052887e-01" purity="2.6793370023369789e-02" nType="-99"/>
          </Node>
        </Node>
      </Node>
    </BinaryTree>
    <BinaryTree type="DecisionTree" boostWeight="1.0000000000000000e+00" itree="26">
      <Node pos="s" depth="0" NCoef="0" IVar="1" Cut="9.4526493549346924e-01" cType="0" res="-3.4465506672859192e-02" rms="4.1078877449035645e-01" purity="4.9836006760597229e-01" nType="0">
        <Node pos="l" depth="1" NCoef="0" IVar="7" Cut="3.8609459400177002e+00" cType="1" res="1.1374201625585556e-01" rms="3.6645698547363281e-01" purity="7.6653015613555908e-01" nType="0">
          <Node pos="l" depth="2" NCoef="0" IVar="9" Cut="3.1118581295013428e+00" cType="1" res="1.4450576901435852e-01" rms="3.4705528616905212e-01" purity="8.1333565711975098e-01" nType="0">
            <Node pos="l" depth="3" NCoef="0" IVar="-1" Cut="0.0000000000000000e+00" cType="1" res="1.4676412567496300e-02" rms="3.2236516475677490e-01" purity="8.5519772768020630e-01" nType="-99"/>
            <Node pos="r" depth="3" NCoef="0" IVar="-1" Cut="0.0000000000000000e+00" cType="1" res="-4.7529400326311588e-03" rms="4.5595696568489075e-01" purity="4.2798244953155518e-01" nType="-99"/>
          </Node>
          <Node pos="r" depth="2" NCoef="0" IVar="-1" Cut="0.0000000000000000e+00" cType="1" res="-8.4574418142437935e-03" rms="4.0974643826484680e-01" purity="2.9293438792228699e-01" nType="-99"/>
        </Node>
        <Node pos="r" depth="1" NCoef="0" IVar="2" Cut="2.5324365124106407e-02" cType="1" res="-1.5224377810955048e-01" rms="4.0595847368240356e-01" purity="2.8524932265281677e-01" nType="0">
          <Node pos="l" depth="2" NCoef="0" IVar="9" Cut="1.9642170667648315e+00" cType="1" res="-3.4993927925825119e-02" rms="4.6850773692131042e-01" purity="4.6760562062263489e-01" nType="0">
            <Node pos="l" depth="3" NCoef="0" IVar="-1" Cut="0.0000000000000000e+00" cType="1" res="3.2493369653820992e-03" rms="4.7135016322135925e-01" purity="5.9632414579391479e-01" nType="-99"/>
            <Node pos="r" depth="3" NCoef="0" IVar="-1" Cut="0.0000000000000000e+00" cType="1" res="-7.9289963468909264e-03" rms="4.1908767819404602e-01" purity="2.5563517212867737e-01" nType="-99"/>
          </Node>
          <Node pos="r" depth="2" NCoef="0" IVar="7" Cut="1.0223345756530762e+00" cType="1" res="-2.5044700503349304e-01" rms="3.1278133392333984e-01" purity="1.3251586258411407e-01" nType="0">
            <Node pos="l" depth="3" NCoef="0" IVar="-1" Cut="0.0000000000000000e+00" cType="1" res="-7.6513006351888180e-03" rms="3.8323909044265747e-01" purity="2.2086751461029053e-01" nType="-99"/>
            <Node pos="r" depth="3" NCoef="0" IVar="-1" Cut="0.0000000000000000e+00" cType="1" res="-1.1702017858624458e-02" rms="2.2128707170486450e-01" purity="5.7513568550348282e-02" nType="-99"/>
          </Node>
        </Node>
      </Node>
    </BinaryTree>
    <BinaryTree type="DecisionTree" boostWeight="1.0000000000000000e+00" itree="27">
      <Node pos="s" depth="0" NCoef="0" IVar="6" Cut="8.6272382736206055e-01" cType="0" res="-3.4928981214761734e-02" rms="4.0870136022567749e-01" purity="4.9836006760597229e-01" nType="0">
        <Node pos="l" depth="1" NCoef="0" IVar="9" Cut="2.4916458129882812e+00" cType="1" res="8.6236983537673950e-02" rms="3.8883349299430847e-01" purity="7.2879660129547119e-01" nType="0">
          <Node pos="l" depth="2" NCoef="0" IVar="12" Cut="4.1607036590576172e+00" cType="1" res="1.2715142965316772e-01" rms="3.6213630437850952e-01" purity="7.9994690418243408e-01" nType="0">
            <Node pos="l" depth="3" NCoef="0" IVar="-1" Cut="0.0000000000000000e+00" cType="1" res="1.5439114533364773e-02" rms="3.0669543147087097e-01" purity="8.7532401084899902e-01" nType="-99"/>
            <Node pos="r" depth="3" NCoef="0" IVar="-1" Cut="0.0000000000000000e+00" cType="1" res="1.3429716927930713e-03" rms="4.4564074277877808e-01" purity="6.3080161809921265e-01" nType="-99"/>
          </Node>
          <Node pos="r" depth="2" NCoef="0" IVar="1" Cut="9.6245461702346802e-01" cType="0" res="-1.0027161240577698e-01" rms="4.4740092754364014e-01" purity="4.0445792675018311e-01" nType="0">
            <Node pos="l" depth="3" NCoef="0" IVar="-1" Cut="0.0000000000000000e+00" cType="1" res="2.0570885390043259e-03" rms="4.5721477270126343e-01" purity="6.2118744850158691e-01" nType="-99"/>
            <Node pos="r" depth="3" NCoef="0" IVar="-1" Cut="0.0000000000000000e+00" cType="1" res="-7.9368315637111664e-03" rms="4.1875320672988892e-01" purity="2.6653489470481873e-01" nType="-99"/>
          </Node>
        </Node>
        <Node pos="r" depth="1" NCoef="0" IVar="3" Cut="1.6504442319273949e-02" cType="1" res="-1.7204007506370544e-01" rms="3.8672301173210144e-01" purity="2.3759865760803223e-01" nType="0">
          <Node pos="l" depth="2" NCoef="0" IVar="9" Cut="2.2208430767059326e+00" cType="1" res="-1.1018069460988045e-02" rms="4.6703693270683289e-01" purity="4.5286524295806885e-01" nType="0">
            <Node pos="l" depth="3" NCoef="0" IVar="-1" Cut="0.0000000000000000e+00" cType="1" res="5.7291123084723949e-03" rms="4.6593472361564636e-01" purity="5.9056085348129272e-01" nType="-99"/>
            <Node pos="r" depth="3" NCoef="0" IVar="-1" Cut="0.0000000000000000e+00" cType="1" res="-8.3787329494953156e-03" rms="3.9773407578468323e-01" purity="2.1827569603919983e-01" nType="-99"/>
          </Node>
          <Node pos="r" depth="2" NCoef="0" IVar="2" Cut="2.5056570768356323e-02" cType="1" res="-2.4444158375263214e-01" rms="3.1909778714179993e-01" purity="1.4080674946308136e-01" nType="0">
            <Node pos="l" depth="3" NCoef="0" IVar="-1" Cut="0.0000000000000000e+00" cType="1" res="-5.8684889227151871e-03" rms="4.5065119862556458e-01" purity="3.3440989255905151e-01" nType="-99"/>
            <Node pos="r" depth="3" NCoef="0" IVar="-1" Cut="0.0000000000000000e+00" cType="1" res="-1.1248072609305382e-02" rms="2.3063474893569946e-01" purity="6.0920447111129761e-02" nType="-99"/>
          </Node>
        </Node>
      </Node>
    </BinaryTree>
    <BinaryTree type="DecisionTree" boostWeight="1.0000000000000000e+00" itree="28">
      <Node pos="s" depth="0" NCoef="0" IVar="2" Cut="2.6896461844444275e-02" cType="1" res="-3.5313174128532410e-02" rms="4.0672326087951660e-01" purity="4.9836006760597229e-01" nType="0">
        <Node pos="l" depth="1" NCoef="0" IVar="8" Cut="1.1952563524246216e+00" cType="1" res="3.6671724170446396e-02" rms="4.1556328535079956e-01" purity="6.2197053432464600e-01" nType="0">
          <Node pos="l" depth="2" NCoef="0" IVar="7" Cut="2.0414197444915771e+00" cType="1" res="8.7449118494987488e-02" rms="4.0202865004539490e-01" purity="7.0132893323898315e-01" nType="0">
            <Node pos="l" depth="3" NCoef="0" IVar="-1" Cut="0.0000000000000000e+00" cType="1" res="9.7494749352335930e-03" rms="3.8045844435691833e-01" purity="7.6838821172714233e-01" nType="-99"/>
            <Node pos="r" depth="3" NCoef="0" IVar="-1" Cut="0.0000000000000000e+00" cType="1" res="-5.0070714205503464e-03" rms="4.3082824349403381e-01" purity="4.2356297373771667e-01" nType="-99"/>
          </Node>
          <Node pos="r" depth="2" NCoef="0" IVar="6" Cut="9.0610206127166748e-01" cType="0" res="-1.8120355904102325e-01" rms="4.0204629302024841e-01" purity="2.8146001696586609e-01" nType="0">
            <Node pos="l" depth="3" NCoef="0" IVar="-1" Cut="0.0000000000000000e+00" cType="1" res="9.6451136050745845e-04" rms="4.4994422793388367e-01" purity="5.9605771303176880e-01" nType="-99"/>
            <Node pos="r" depth="3" NCoef="0" IVar="-1" Cut="0.0000000000000000e+00" cType="1" res="-9.6679041162133217e-03" rms="3.6518687009811401e-01" purity="1.8479870259761810e-01" nType="-99"/>
          </Node>
        </Node>
        <Node pos="r" depth="1" NCoef="0" IVar="12" Cut="4.8459544181823730e+00" cType="1" res="-2.5839570164680481e-01" rms="2.7761939167976379e-01" purity="1.1528903245925903e-01" nType="0">
          <Node pos="l" depth="2" NCoef="0" IVar="-1" Cut="0.0000000000000000e+00" cType="1" res="-7.5979162938892841e-03" rms="3.6808928847312927e-01" purity="2.6783698797225952e-01" nType="-99"/>
          <Node pos="r" depth="2" NCoef="0" IVar="3" Cut="1.9425893202424049e-02" cType="1" res="-2.8961652517318726e-01" rms="2.2842304408550262e-01" purity="5.9824392199516296e-02" nType="0">
            <Node pos="l" depth="3" NCoef="0" IVar="-1" Cut="0.0000000000000000e+00" cType="1" res="-8.8742775842547417e-03" rms="3.5481405258178711e-01" purity="1.5903340280056000e-01" nType="-99"/>
            <Node pos="r" depth="3" NCoef="0" IVar="-1" Cut="0.0000000000000000e+00" cType="1" res="-1.2096486985683441e-02" rms="1.5282972157001495e-01" purity="2.3921273648738861e-02" nType="-99"/>
          </Node>
        </Node>
      </Node>
    </BinaryTree>
    <BinaryTree type="DecisionTree" boostWeight="1.0000000000000000e+00" itree="29">
      <Node pos="s" depth="0" NCoef="0" IVar="1" Cut="9.4526493549346924e-01" cType="0" res="-3.5521388053894043e-02" rms="4.0494805574417114e-01" purity="4.9836006760597229e-01" nType="0">
        <Node pos="l" depth="1" NCoef="0" IVar="7" Cut="3.8609459400177002e+00" cType="1" res="1.0433512181043625e-01" rms="3.6309480667114258e-01" purity="7.6653015613555908e-01" nType="0">
          <Node pos="l" depth="2" NCoef="0" IVar="9" Cut="3.1118581295013428e+00" cType="1" res="1.3352330029010773e-01" rms="3.4488081932067871e-01" purity="8.1333565711975098e-01" nType="0">
            <Node pos="l" depth="3" NCoef="0" IVar="-1" Cut="0.0000000000000000e+00" cType="1" res="1.3913267292082310e-02" rms="3.2126134634017944e-01" purity="8.5519772768020630e-01" nType="-99"/>
            <Node pos="r" depth="3" NCoef="0" IVar="-1" Cut="0.0000000000000000e+00" cType="1" res="-4.6225185506045818e-03" rms="4.5425063371658325e-01" purity="4.2798244953155518e-01" nType="-99"/>
          </Node>
          <Node pos="r" depth="2" NCoef="0" IVar="-1" Cut="0.0000000000000000e+00" cType="1" res="-8.2283923402428627e-03" rms="4.0800818800926208e-01" purity="2.9293438792228699e-01" nType="-99"/>
        </Node>
        <Node pos="r" depth="1" NCoef="0" IVar="2" Cut="2.4957355111837387e-02" cType="1" res="-1.4666323363780975e-01" rms="4.0203446149826050e-01" purity="2.8524932265281677e-01" nType="0">
          <Node pos="l" depth="2" NCoef="0" IVar="8" Cut="9.0932315587997437e-01" cType="1" res="-2.3947970941662788e-02" rms="4.6685281395912170e-01" purity="4.8154115676879883e-01" nType="0">
            <Node pos="l" depth="3" NCoef="0" IVar="-1" Cut="0.0000000000000000e+00" cType="1" res="2.7234195731580257e-03" rms="4.7133997082710266e-01" purity="5.8429396152496338e-01" nType="-99"/>
            <Node pos="r" depth="3" NCoef="0" IVar="-1" Cut="0.0000000000000000e+00" cType="1" res="-8.6486386135220528e-03" rms="3.9733675122261047e-01" purity="2.2336751222610474e-01" nType="-99"/>
          </Node>
          <Node pos="r" depth="2" NCoef="0" IVar="7" Cut="1.0223345756530762e+00" cType="1" res="-2.3097853362560272e-01" rms="3.2477626204490662e-01" purity="1.5038095414638519e-01" nType="0">
            <Node pos="l" depth="3" NCoef="0" IVar="-1" Cut="0.0000000000000000e+00" cType="1" res="-6.9198124110698700e-03" rms="3.9323168992996216e-01" purity="2.4607893824577332e-01" nType="-99"/>
            <Node pos="r" depth="3" NCoef="0" IVar="-1" Cut="0.0000000000000000e+00" cType="1" res="-1.1328983120620251e-02" rms="2.3312036693096161e-01" purity="6.6616564989089966e-02" nType="-99"/>
          </Node>
        </Node>
      </Node>
    </BinaryTree>
    <BinaryTree type="DecisionTree" boostWeight="1.0000000000000000e+00" itree="30">
      <Node pos="s" depth="0" NCoef="0" IVar="2" Cut="2.6896461844444275e-02" cType="1" res="-3.5869281738996506e-02" rms="4.0306887030601501e-01" purity="4.9836006760597229e-01" nType="0">
        <Node pos="l" depth="1" NCoef="0" IVar="4" Cut="3.5746306180953979e-02" cType="1" res="3.3428248018026352e-02" rms="4.1293236613273621e-01" purity="6.2197053432464600e-01" nType="0">
          <Node pos="l" depth="2" NCoef="0" IVar="9" Cut="2.7381904125213623e+00" cType="1" res="1.0411293804645538e-01" rms="3.8132861256599426e-01" purity="7.4388486146926880e-01" nType="0">
            <Node pos="l" depth="3" NCoef="0" IVar="-1" Cut="0.0000000000000000e+00" cType="1" res="1.1212877929210663e-02" rms="3.5668340325355530e-01" purity="8.0529439449310303e-01" nType="-99"/>
            <Node pos="r" depth="3" NCoef="0" IVar="-1" Cut="0.0000000000000000e+00" cType="1" res="-4.8112911172211170e-03" rms="4.4664490222930908e-01" purity="3.9457279443740845e-01" nType="-99"/>
          </Node>
          <Node pos="r" depth="2" NCoef="0" IVar="9" Cut="1.7277835607528687e+00" cType="1" res="-1.1374178528785706e-01" rms="4.3670889735221863e-01" purity="3.6813703179359436e-01" nType="0">
            <Node pos="l" depth="3" NCoef="0" IVar="-1" Cut="0.0000000000000000e+00" cType="1" res="-9.7996764816343784e-04" rms="4.6243771910667419e-01" purity="5.0697302818298340e-01" nType="-99"/>
            <Node pos="r" depth="3" NCoef="0" IVar="-1" Cut="0.0000000000000000e+00" cType="1" res="-9.0044178068637848e-03" rms="3.7671107053756714e-01" purity="2.0728980004787445e-01" nType="-99"/>
          </Node>
        </Node>
        <Node pos="r" depth="1" NCoef="0" IVar="9" Cut="1.5268498659133911e+00" cType="1" res="-2.5062358379364014e-01" rms="2.7662298083305359e-01" purity="1.1528903245925903e-01" nType="0">
